{
    "type": "Model",
    "key": "model_ocr",
    "layers": [
        {
            "type": "Layer",
            "input_size": 256,
            "output_size": 16,
            "biases": [
                -0.20909192062107418,
                0.0875407347000234,
                0.8997674907603352,
                0.010786075146772347,
                0.030988140128169646,
                0.32760208882771324,
                -0.5570975649382442,
                0.28247007624542864,
                1.5777870317393408,
                -0.39536167967719477,
                -0.02530315062270122,
                0.5565336285190713,
                -1.381458646536359,
                0.3805759706053637,
                -0.2258782458346787,
                -0.11957708916273717
            ],
            "weights": [
                [
                    0.5433522073996012,
                    -0.783562460209324,
                    -0.4950108749356091,
                    0.09831283259795837,
                    -0.04115729451687989,
                    0.5904518113860894,
                    -0.11364836842863076,
                    0.3086319614941612,
                    0.47982201122272966,
                    0.4790446604603963,
                    -1.5385269579981322,
                    -0.19172585569621897,
                    0.23525598017444066,
                    -0.25236292042730013,
                    -0.1433554581180686,
                    0.34983432017455723
                ],
                [
                    0.14678036929786348,
                    0.3764698539427401,
                    -0.8538769888432931,
                    0.4906999663911016,
                    0.3641117039443593,
                    -0.047612838220781134,
                    0.20890424361458085,
                    -0.9053962477308098,
                    -0.4812292091738677,
                    -0.27248007528793716,
                    0.356000735358993,
                    0.8414422403757913,
                    -1.1076472068386851,
                    1.065841898264033,
                    0.2212623372931549,
                    -0.4543147623885218
                ],
                [
                    -0.6919198921786169,
                    -0.6040721212939971,
                    0.9510258467163507,
                    0.6059316275614928,
                    0.2935070600773897,
                    0.02893708811448928,
                    -0.7853190996026027,
                    -0.23857541339973526,
                    1.1973541237624878,
                    0.1407530604650482,
                    -0.03904885619615971,
                    -0.4364625519667294,
                    0.14624526665642024,
                    -1.0542054891292492,
                    -0.3829511115136963,
                    0.6412517671993598
                ],
                [
                    -1.476902044192102,
                    0.1230991875483415,
                    -0.3846271714204943,
                    0.15655237763105495,
                    1.1323493508154392,
                    -0.6780224394008889,
                    0.29340001573383023,
                    0.24799414486135773,
                    0.19442176249507565,
                    0.48786150256205024,
                    0.5172402702982345,
                    -0.5344058259585573,
                    0.3698435485734286,
                    0.5168840143413869,
                    0.8490063683996215,
                    -0.602562572432367
                ],
                [
                    -0.2863835076241412,
                    -1.052859260963768,
                    0.32226050308293513,
                    -1.1782634865736694,
                    -0.7078600204074975,
                    0.29911832415455414,
                    0.6669387276684567,
                    0.07357388043764392,
                    0.0763703026219674,
                    0.6608764549714694,
                    0.42710023846086104,
                    -0.2216542681142043,
                    0.021661584608980555,
                    -0.6063393436630649,
                    0.18456336163029857,
                    0.5209809991204285
                ],
                [
                    -1.0529086079558339,
                    0.6400914421906942,
                    -0.6120316924656729,
                    -0.44662170151172614,
                    1.4870595359399912,
                    1.2206201453549521,
                    0.37185797209639593,
                    -0.3888906267459578,
                    -0.1931414023648711,
                    0.8747650536965379,
                    -0.29553981574499855,
                    0.2561897733466916,
                    0.5265760160739974,
                    0.21221229396721536,
                    -0.6995315250956958,
                    0.37102801918629297
                ],
                [
                    -0.42623938985472315,
                    0.21705751376207277,
                    -0.41101345273640205,
                    -0.23726761121984502,
                    -0.5397986042334392,
                    -0.7386385646343387,
                    1.0470274825496309,
                    0.5400221647288979,
                    1.1983641437441792,
                    0.3634451375573174,
                    0.2769711755081351,
                    -0.01953546685863994,
                    0.1375645942661449,
                    -0.3066647807996186,
                    0.16287688846025294,
                    0.07447039598799925
                ],
                [
                    0.07845832689504699,
                    0.21798503090301424,
                    0.1713495475762088,
                    0.5733351274092988,
                    -0.14853391913743452,
                    0.28481705594110335,
                    0.6782984886907092,
                    0.18130304929874316,
                    0.045428361022816485,
                    0.7949858658868312,
                    -0.32306543926452175,
                    -0.3236938432323554,
                    0.03186942336978845,
                    0.4920390549243949,
                    0.08804054669369428,
                    -0.28189444098658784
                ],
                [
                    1.2119698129507714,
                    0.7069429316253877,
                    -0.26397888627545046,
                    -0.12375748636078136,
                    -1.2070253976422534,
                    -0.72229761014779,
                    -0.4689502500939286,
                    0.3957350881956504,
                    -0.9799244544524357,
                    -0.5215571179416862,
                    0.3027260270033802,
                    0.6157589699798209,
                    0.6111244055566937,
                    0.43538402045687075,
                    0.10844705965048915,
                    0.4324360982632761
                ],
                [
                    -0.7944228601436609,
                    0.060617495864987964,
                    -0.8479822739672442,
                    0.6068417031192874,
                    0.635820634462371,
                    0.18758710802479583,
                    0.4214033989552979,
                    0.5219004819696177,
                    -0.34847547523293176,
                    -0.5170645416857411,
                    -0.5769622232212979,
                    0.7168154796669783,
                    -0.7777627059525121,
                    -0.39414332899076554,
                    -0.05117700028090383,
                    0.826775519298471
                ],
                [
                    0.15519638395567095,
                    0.7349619141648887,
                    -0.044827770555052104,
                    0.7486884583562331,
                    0.44840361228441383,
                    -0.12614328961661206,
                    -0.8801452775356287,
                    0.2935471441759983,
                    -0.191020571025572,
                    -1.004782745865074,
                    -0.3350456280173568,
                    -0.48545852010823426,
                    0.4196577550396224,
                    0.5348203188017678,
                    0.8645520918721362,
                    0.8085447566749501
                ],
                [
                    -0.4624318150100467,
                    0.2746981336524794,
                    0.13028659688251776,
                    0.43961487663968857,
                    1.1937480149895232,
                    0.04085801148765152,
                    -0.73382698797268,
                    -0.5129339711152554,
                    -0.008569029512960942,
                    -0.684106831182202,
                    0.37308827261904837,
                    -0.7366047382150108,
                    -0.5780937010502466,
                    -0.9663319127204857,
                    0.023981628450942292,
                    1.0769651465396588
                ],
                [
                    -0.12394221945395635,
                    -1.0530507954777844,
                    -0.05922478149540316,
                    -0.1690979810404818,
                    -0.7740499228320747,
                    0.7960359634679913,
                    -0.6365487289924829,
                    -0.6118054099636192,
                    -0.5015883066480726,
                    -0.04215506427273841,
                    0.4135324904010695,
                    -0.19224886906821131,
                    -0.1592153409178209,
                    0.2326397824608201,
                    -0.11886931181698339,
                    -0.3332662367123851
                ],
                [
                    0.40627944189124,
                    0.6220449365568351,
                    0.6871043863953382,
                    0.5671756182076911,
                    -1.519137333859323,
                    -0.1467927774402727,
                    -0.8351947615336951,
                    -0.12616560813279346,
                    -0.06689396976553305,
                    -0.07584904009474343,
                    0.8994881798514267,
                    -0.16914225477170644,
                    0.8238157514654484,
                    -0.05609182917124686,
                    0.2904018277299933,
                    0.02252248627419091
                ],
                [
                    -0.02315504624885132,
                    -0.6713385200476032,
                    1.0776251894815443,
                    0.736274138537236,
                    -0.4474041432364748,
                    0.9371832387771434,
                    0.8208683481276313,
                    0.15213363538740857,
                    -0.7456833773042157,
                    -1.3065244336932837,
                    0.4411711496020333,
                    -0.1286483964590271,
                    -0.023313661227408626,
                    -0.9143857528496019,
                    0.23155889926875944,
                    0.1875775717003884
                ],
                [
                    0.0661007744889941,
                    0.9228507924370006,
                    -0.09579238456674785,
                    -0.19264989969921859,
                    -0.9492582262052968,
                    -0.9996385906540033,
                    -0.8741604561810327,
                    0.6708550294452527,
                    0.8748618320797436,
                    -0.7106167976866364,
                    -1.607719455680223,
                    0.16015182145066065,
                    0.7198023082662787,
                    0.2553779870970046,
                    -1.1117305247781524,
                    0.338709702146714
                ],
                [
                    1.1974373767490487,
                    -0.6879896329260368,
                    -0.9213698762002913,
                    0.37427675987317777,
                    -1.3630096561108154,
                    0.38117820018376725,
                    0.164224977351061,
                    0.29425401652672506,
                    0.33408124600149297,
                    0.637080650410886,
                    -0.3082767912033821,
                    0.6864578861670938,
                    -0.7682704651949375,
                    0.3771014953143692,
                    -0.35224188251837313,
                    0.046825484668259997
                ],
                [
                    -0.3746851070276965,
                    0.5063841513184011,
                    0.2053778788677105,
                    0.6371014405284666,
                    0.16548645124532496,
                    -0.1989990771090447,
                    0.02053307448257072,
                    0.5563887900730681,
                    0.6592542870869246,
                    0.25801224502211073,
                    -0.5092864084144182,
                    0.7348447313161898,
                    0.36250209770845215,
                    0.38123987849387586,
                    -0.541011001071683,
                    0.4866396689563138
                ],
                [
                    0.197564174287879,
                    -0.30485678561774776,
                    0.6433017473999613,
                    0.729177792405989,
                    0.8325050800366853,
                    0.2538784689711552,
                    0.40327404258922517,
                    -0.6882445209402163,
                    -0.12495762554453808,
                    -0.4200310607775325,
                    0.47111250443056013,
                    -0.2555653486553135,
                    1.4578863809958196,
                    0.02458698551958375,
                    0.4070135588265108,
                    -0.6246687067931254
                ],
                [
                    0.8555486404853313,
                    -1.0980307254220074,
                    0.42963037819494193,
                    0.41136967334190006,
                    0.40280982702665563,
                    0.6845657897575335,
                    0.1274064431800212,
                    -0.12219857516559354,
                    1.0469755057992767,
                    0.7508323517288429,
                    0.7610996055719151,
                    -0.48191008606487445,
                    -0.18951138402014037,
                    0.7833958012273309,
                    0.10992779524414097,
                    0.20301989430407225
                ],
                [
                    -0.7128963403545039,
                    -0.26089177166928107,
                    -1.1541331100881316,
                    0.25419530052141115,
                    -1.1808669104850185,
                    0.30654549907796436,
                    0.9474619171283296,
                    0.14659616104214174,
                    1.7031724570503213,
                    0.07620711868772774,
                    0.4552692258419286,
                    0.02940894149847482,
                    0.6391000252806034,
                    0.6291353639221673,
                    -0.2594303974979178,
                    -0.8303206899595087
                ],
                [
                    -1.0221762150267368,
                    0.4987298539549089,
                    -1.028969809596376,
                    -0.27380022107307583,
                    -0.05333424948220726,
                    0.7576167166650176,
                    0.6245621827152019,
                    0.028204760259645575,
                    1.0610117801775092,
                    -1.0259511087458544,
                    1.6674522049624578,
                    -0.03192528997665736,
                    0.9212022464313171,
                    -0.22395395537403115,
                    0.9646255602991298,
                    0.643113950519329
                ],
                [
                    0.2835818310156115,
                    -0.16808702787438662,
                    1.0115540788623663,
                    0.06390740899544622,
                    0.37064222539423297,
                    -0.19200402779052458,
                    0.5576313406157688,
                    0.8644259299698951,
                    0.13791006811345458,
                    1.3746984443168322,
                    0.9219380925366721,
                    1.0356843755172143,
                    -0.40648013714709935,
                    0.168334533235583,
                    0.21717771436270095,
                    -0.8467349971168783
                ],
                [
                    0.4836160906012684,
                    -0.02075012185500543,
                    -0.8419474164363814,
                    0.5189457243659008,
                    -0.7864096043074257,
                    -0.18199617797453727,
                    0.29382798091307,
                    0.45745193899043946,
                    -0.636244549308764,
                    0.061228769797229576,
                    -0.15161883725958092,
                    0.663351340846813,
                    0.34331659074585946,
                    -0.28712023871812953,
                    -0.3308772849849213,
                    -1.1687181335848118
                ],
                [
                    -0.14055441798089832,
                    -0.15354022764287442,
                    -0.264060177716403,
                    -0.08552784578006746,
                    -0.4891055150845348,
                    0.31627493246858124,
                    -0.071345804678994,
                    0.009218010690187746,
                    -0.18610634356118666,
                    -0.14379973554895695,
                    0.5265900745231693,
                    -0.41442859142937016,
                    0.013612304360330119,
                    0.13740787274895597,
                    0.3988415587795467,
                    -0.8049340789736785
                ],
                [
                    -0.6712785338354954,
                    0.713430779818496,
                    0.6123281720807305,
                    -0.5955777139309107,
                    -0.018124605687374448,
                    -0.48441102100105254,
                    -1.5011453905471612,
                    -0.3620938277942124,
                    -0.2944057760725525,
                    -0.13333880038526594,
                    1.3754788112748864,
                    1.3253842402138452,
                    1.464867260632034,
                    -0.2456196895999393,
                    1.4458698557089544,
                    0.782647756350922
                ],
                [
                    0.6086287978382698,
                    -0.20873940746695888,
                    0.8909577149744026,
                    -0.47407184004336006,
                    0.3585275945112788,
                    -0.7890798810375274,
                    -0.2270011211959356,
                    0.31813470726862714,
                    0.36374072624083953,
                    -0.4321873677907894,
                    -0.29944608687248986,
                    -0.7415604129299391,
                    -0.07622140401961905,
                    -0.44054375327913414,
                    -0.49189724902189663,
                    -0.3667834648250754
                ],
                [
                    0.9897395928464036,
                    -0.54451847713348,
                    0.033887359181334904,
                    0.4480931072727542,
                    1.1328162937823958,
                    0.30964618833584356,
                    -0.029035560470001116,
                    -0.15164274171908163,
                    -0.4649373042650073,
                    -1.370546302907273,
                    -0.870314038923175,
                    -0.6723847427826818,
                    0.4102676388287661,
                    -0.4063759101740123,
                    -0.2625261200652683,
                    -0.2488130169080266
                ],
                [
                    0.7312613907590159,
                    -1.0802741748813174,
                    -1.068249226565685,
                    -0.028976131649783098,
                    0.7113010434659323,
                    0.16954867923220188,
                    0.8317162958213491,
                    -0.0945622634607565,
                    -0.5104419100992506,
                    -0.6670378261047237,
                    -0.8248798103218371,
                    1.0392810923184663,
                    -0.40741338434283303,
                    0.4211964606839099,
                    0.53245649642835,
                    0.1290723429125969
                ],
                [
                    -0.45998529912793645,
                    -0.11504707556283375,
                    0.43076699652816364,
                    -0.4076635861059275,
                    -1.0026119104656537,
                    0.36349099350396064,
                    -0.23204270537849236,
                    0.043501332702067234,
                    -0.5349688012458047,
                    0.6149233274516075,
                    -0.340700791995419,
                    -1.0154572051806499,
                    0.27033659348882744,
                    -0.015708532416692126,
                    -0.46923451698330926,
                    -0.086487507730286
                ],
                [
                    -0.31379660014322247,
                    -0.7566274358837742,
                    -0.6784077311824269,
                    -0.48122811752560857,
                    -0.44673946800801895,
                    1.1595922567425954,
                    -0.727771350578604,
                    0.3030593520626807,
                    -0.6153131109283482,
                    0.5677073925296636,
                    -0.471323090173457,
                    -0.4014951246311567,
                    0.7370985143529468,
                    -0.26142066254505375,
                    0.1922433108447947,
                    -0.49876240747770223
                ],
                [
                    -0.7700756625859786,
                    0.6703515859751659,
                    -0.3039264445191168,
                    -0.09263847764127367,
                    0.33791954000822366,
                    -1.2283864957443347,
                    -0.10091733068945268,
                    0.8238713528147358,
                    -0.24518433602204573,
                    0.9869982564662614,
                    -0.3620622221103948,
                    0.7186071582012479,
                    1.1898850809664303,
                    0.2443883213241685,
                    -0.12849580359799617,
                    -0.3289050972355356
                ],
                [
                    0.5061360341407352,
                    -0.26258610728088927,
                    1.2798585279865138,
                    -0.24609902381666446,
                    0.8378555894645164,
                    0.7951188185333108,
                    0.5353559198660695,
                    0.07559029581940703,
                    0.41333796648442983,
                    0.26081856589096747,
                    -0.14364062119873683,
                    1.2095716806919194,
                    -0.13752489496188738,
                    -0.6827666213464656,
                    0.6311853373175769,
                    0.6689483879658822
                ],
                [
                    0.2835710180757904,
                    0.6058543555352763,
                    -0.22260065682697527,
                    1.1830871665607225,
                    0.973989176962608,
                    -0.39682165113491247,
                    -1.2347682933987252,
                    0.19603194762633575,
                    0.4522870656849186,
                    0.4200345782178,
                    -0.7515215912786632,
                    -0.7833314350971219,
                    -0.8340193773885097,
                    -0.6797451502182955,
                    0.5076583738284479,
                    -1.310347795650172
                ],
                [
                    -0.613400193825314,
                    0.516557146241639,
                    -0.08861906318993945,
                    1.02236008218784,
                    0.5249892883114307,
                    0.18769503562333395,
                    -0.6450666926780811,
                    -0.042619821243741154,
                    0.49745195655805674,
                    0.19983356374236477,
                    -0.03496212744477774,
                    -0.21591721511589354,
                    -0.2928109102659386,
                    0.9547613362297385,
                    -0.027652144127177595,
                    -0.5697257154623157
                ],
                [
                    -1.1439918672243012,
                    -0.4838806711961787,
                    0.44126073783948977,
                    0.0844539178947666,
                    1.0958855039344728,
                    0.5019418777130539,
                    0.46699113628271116,
                    0.029241737708934783,
                    1.1638707517597022,
                    -0.6323193561073579,
                    0.703940423373979,
                    0.03233986348672823,
                    0.3957728783273956,
                    -0.35123223101344203,
                    -0.5364659308410504,
                    -0.3189035307554689
                ],
                [
                    0.8401806117748181,
                    -0.08460244211179438,
                    -0.0024247905362504473,
                    -0.5938838243549152,
                    0.36797041478921794,
                    -0.21323116109962698,
                    -0.008364551774146847,
                    0.1346485337490175,
                    -0.23269683332865043,
                    -0.4712264029133304,
                    0.6811452247971108,
                    0.1755934519344771,
                    0.029106906493914456,
                    0.1326365757457949,
                    0.005595631155170288,
                    0.515118772009726
                ],
                [
                    -0.05819895990873581,
                    0.677379626166265,
                    -1.1205202194014237,
                    0.13417093440757616,
                    -0.11352179806338775,
                    -0.14901975448599505,
                    -0.02720243258856611,
                    -0.25026728235620166,
                    0.5352334126100307,
                    0.5794062822747962,
                    0.4134378364875778,
                    0.6762628525901658,
                    -0.34426234860818966,
                    -0.8723693715397063,
                    -0.5578039185220002,
                    -0.012435288998775794
                ],
                [
                    0.6180328298415139,
                    0.7481009671531564,
                    -0.15690416663855136,
                    -0.3782702941203854,
                    0.5969919615077366,
                    -0.17270412647784564,
                    -0.4401807484598252,
                    -1.1660942847154507,
                    0.21350815924355385,
                    -1.3811096081655714,
                    -0.35859855596138546,
                    -0.6709371373891698,
                    1.090950605220913,
                    -0.7258885716842725,
                    -0.5503830075117965,
                    -0.9748927213003709
                ],
                [
                    -0.08503901141262162,
                    0.08192701346652068,
                    0.18076346882384967,
                    -0.341349091588439,
                    1.4916186824455189,
                    -0.4600102209905865,
                    0.08506550068707171,
                    -0.695290735358161,
                    -0.37537985699796683,
                    0.2314978008669014,
                    -0.48276726201585235,
                    -0.43519168751534376,
                    0.030939754060082408,
                    -0.025976745667048353,
                    0.0903465518067068,
                    0.015542013616897632
                ],
                [
                    0.8696276056681398,
                    -0.101608251000634,
                    -1.0702620770655809,
                    0.24119996712538838,
                    0.560494155688618,
                    -0.06340237222491175,
                    0.30767373398885317,
                    -0.15226422973464165,
                    0.4395927524455459,
                    -0.3671895582762905,
                    -0.3931444732023055,
                    0.22264332929817918,
                    0.6607424605459503,
                    1.0545184331230248,
                    1.3456306364556254,
                    -0.7177725081946514
                ],
                [
                    -0.8865285363447508,
                    0.4013975792059806,
                    0.26195741692573193,
                    -0.7309794674951852,
                    0.48958513119184627,
                    0.05182602260118489,
                    0.1621247630029847,
                    -0.3390930355969,
                    -0.4760986910784303,
                    -0.4729405314005728,
                    -0.41434297539902165,
                    -0.16902516534347942,
                    0.1905582602794654,
                    0.4821161374626841,
                    -0.6222418067005051,
                    -0.2612345528045028
                ],
                [
                    1.160794390801426,
                    0.5860106667836547,
                    -0.901090760659625,
                    -0.5815150974651244,
                    -0.6221284764146722,
                    0.14205941485004683,
                    0.5322615440254214,
                    1.292751319995997,
                    0.34957462922435434,
                    -0.7180299847861383,
                    0.8284548160389764,
                    -0.13445064395438786,
                    -0.9023579816754551,
                    -0.5693085453347007,
                    -0.4490855249057714,
                    -0.895294845458373
                ],
                [
                    -0.37061513242519867,
                    -1.5682282661949074,
                    0.2972900902675797,
                    -0.5103753293463296,
                    -0.3503111734584484,
                    -0.8104703907669627,
                    0.5013952737097075,
                    0.6578434756815138,
                    0.353815676973236,
                    -0.2996611383033299,
                    0.2123579968334905,
                    -0.9236803427748845,
                    0.776575945858286,
                    -0.25399490707137573,
                    1.611934579464926,
                    0.2959079010005682
                ],
                [
                    0.17567922161229846,
                    -0.6948684248769,
                    -0.24634686829813748,
                    -0.18623011558196043,
                    -0.5459670712305077,
                    0.8879340509402214,
                    0.7887476714553949,
                    0.28156125709587604,
                    0.26536532753619557,
                    0.4473351460961161,
                    -0.26343798246733785,
                    0.19522895284867908,
                    0.8712269495250904,
                    1.46948175056518,
                    0.3180935748513467,
                    -0.6335765835351242
                ],
                [
                    -1.2615860611137453,
                    -0.7802529542407758,
                    -0.034822561429599594,
                    0.6203259611683909,
                    0.13844470636482617,
                    0.004162344650376788,
                    0.8601924633377457,
                    0.10063611353038678,
                    -0.06617808304649488,
                    0.6976737092533067,
                    0.5322325638424387,
                    0.30587728553170185,
                    0.730166863302706,
                    0.3028148090565668,
                    -0.4589711228723053,
                    0.810617874192026
                ],
                [
                    0.11671482277754648,
                    -0.36723341360633005,
                    -0.8532760701245053,
                    -0.05501215294283043,
                    -0.7133875382660224,
                    0.20441942426483475,
                    0.4704916730171401,
                    -0.0035360368756108605,
                    0.48926595606041745,
                    -0.5753490923239176,
                    -0.2695940156665825,
                    -0.4841864670903385,
                    0.29349104171165835,
                    -0.18017501752459344,
                    0.10836591466705445,
                    -0.095197131104336
                ],
                [
                    0.02142924770020743,
                    0.42801232028695024,
                    0.45631736474794715,
                    -1.0795279048322424,
                    0.303790169551304,
                    -0.9490131709209045,
                    -0.4555842170891423,
                    -0.3435914911987311,
                    1.042895351821693,
                    -0.132295607765972,
                    -0.36826165769121455,
                    -0.5079860374092324,
                    0.5015047175356248,
                    0.20775619095377623,
                    1.5442309345549157,
                    -0.46096149955055205
                ],
                [
                    -0.15439745751118816,
                    -0.3066155318858366,
                    0.9524330901738907,
                    1.0692078982801836,
                    -0.33666644099988,
                    0.6123256332576733,
                    1.0359747453285937,
                    -0.10482096822723791,
                    0.3523297099608132,
                    0.22842624795116287,
                    -0.07132636465201461,
                    -0.27845398302595137,
                    0.5521742050363524,
                    -0.5433682279766552,
                    -0.2214943944618477,
                    0.5140215626500206
                ],
                [
                    -0.5626600620227303,
                    1.411157655284055,
                    -0.7756961985114649,
                    0.12284470175605558,
                    -1.228519184500071,
                    1.0837666079485238,
                    0.06686118673484834,
                    1.0884345839651253,
                    0.5316781946201716,
                    -0.08213404552089035,
                    -0.5204786863789472,
                    0.09910646172809148,
                    -0.2587901644859138,
                    0.2727710023761413,
                    -0.5372202566641413,
                    0.01035487105150697
                ],
                [
                    1.1279705908035653,
                    1.0240442053260999,
                    1.1590940374565943,
                    0.42967155461694123,
                    -0.29804282172403807,
                    -0.011609823766637887,
                    -0.760303229573697,
                    -0.8736092827781985,
                    0.02649506706506738,
                    -0.38169740443623573,
                    0.5202471274191531,
                    0.06553495506775596,
                    -0.20789928125452906,
                    -0.043719489937380784,
                    -1.1119149304193758,
                    0.5018546978965894
                ],
                [
                    0.08747454761157539,
                    -0.6697651203344669,
                    -0.4333167714737796,
                    -0.8611627092727866,
                    -0.33558872033887793,
                    0.6340303468278033,
                    -0.6198221385320869,
                    -0.06402533084048129,
                    1.1014123250051135,
                    -0.707706579202884,
                    -0.11735566497240778,
                    0.8765155039098688,
                    1.0878261997348089,
                    -0.7832338942083947,
                    -0.32812809771315987,
                    -1.0904383284985133
                ],
                [
                    -0.05720566763857694,
                    -0.5160671942302086,
                    -0.02095152499733699,
                    0.36165317511205636,
                    -0.5252533495487088,
                    -1.099232394671046,
                    0.7259798221927898,
                    -0.7634629232920036,
                    0.2511262625796267,
                    -0.13470363100693028,
                    1.540041053486184,
                    -0.4118715060636683,
                    0.617236976036576,
                    -0.00702916095221123,
                    -0.23767745605327656,
                    -0.15267769990791435
                ],
                [
                    1.2831154589648683,
                    -0.07648949445441991,
                    0.7145035414289096,
                    0.9102697552099341,
                    0.7277459058536824,
                    1.108187264111444,
                    1.3749950653452119,
                    -0.4106759746155446,
                    0.4114576854308785,
                    -0.3866098429751439,
                    -0.06446166824570511,
                    -0.7850897413466986,
                    0.50812880639602,
                    0.3689843242560043,
                    0.13498459419238434,
                    -0.4985596111535423
                ],
                [
                    0.4575740046660848,
                    1.6002509835825198,
                    -0.2263143074333028,
                    0.30591183223761426,
                    -0.10260989747542049,
                    -1.0031613347498964,
                    -0.517987551953349,
                    0.21533070579183758,
                    0.15299358358251938,
                    -0.7052484637356589,
                    -0.5527961740252396,
                    -0.6538899209527241,
                    0.19412362129609495,
                    1.1538616189673634,
                    0.13029560529433176,
                    -0.10799743673208008
                ],
                [
                    -0.33075931671991365,
                    0.9202115225789591,
                    -0.9698711042475426,
                    -0.1613729708265027,
                    0.35473428144559416,
                    -0.02123180724198776,
                    0.6477388924032111,
                    -0.2513611658933019,
                    0.4694521506510949,
                    0.9563085882398006,
                    -0.42162235083953553,
                    0.39214985423839144,
                    1.0019262226448358,
                    -0.13179493928377534,
                    0.15850360025394974,
                    1.2911150973210446
                ],
                [
                    -0.2997748576285177,
                    0.07190697030138223,
                    -1.224841467669898,
                    0.9945738201965914,
                    0.4783477811552466,
                    0.10753729696397021,
                    -0.3790466801257571,
                    0.8352751892036687,
                    -0.37825615225792725,
                    -0.1381299214001371,
                    -0.2031872206093572,
                    -0.6178907301623577,
                    1.0328815953474706,
                    -0.2055701610109317,
                    -0.27286417796013945,
                    0.13874566812243175
                ],
                [
                    -0.7805495979415961,
                    -0.2620238796536915,
                    0.6355979739174368,
                    -0.45350287705160763,
                    -1.3610010332819684,
                    -0.7941648379815905,
                    0.18028806881108506,
                    -0.09737780789130046,
                    0.08951787751314444,
                    -0.23717463994494647,
                    -0.38144849981555007,
                    -0.30694199089935553,
                    1.149604683729564,
                    0.3919929124948684,
                    0.5677788997823809,
                    0.42573839953228576
                ],
                [
                    0.29591450215453385,
                    -0.0871266386052183,
                    0.9899365687016113,
                    -0.2373559178651846,
                    -0.23958109940366965,
                    0.23579376632169616,
                    0.16329420913449555,
                    -0.2216350275863369,
                    -0.23971152799330117,
                    1.1530395612326552,
                    -0.9693593085551976,
                    0.6733074320998772,
                    -0.4093355861199293,
                    -0.17781996087235977,
                    0.1789941089835737,
                    -1.0251385835802926
                ],
                [
                    0.852648808111078,
                    0.8109982116631654,
                    0.472526820964552,
                    0.2913400786777136,
                    -0.3776233003167474,
                    0.213082409610553,
                    0.5606720933679014,
                    -0.6308329973692093,
                    0.38338958732630857,
                    -0.6196262220529742,
                    -0.14197276162729677,
                    0.69391070584676,
                    -0.6418005557935543,
                    0.027909687568096607,
                    0.12527887508501864,
                    -0.4815309674809213
                ],
                [
                    -0.47162438886989955,
                    0.6126743027681171,
                    0.7089368680090493,
                    -0.3730150589317945,
                    -0.002268208077866913,
                    -1.1000838356083487,
                    0.9225946989284406,
                    -0.46867299422247616,
                    -0.28968759433201396,
                    0.28799821695477307,
                    -0.3501851436393221,
                    -0.5435841084933275,
                    0.21130592578314644,
                    0.44602850622581736,
                    0.600583860051229,
                    -0.4671023551635092
                ],
                [
                    0.5339919949215403,
                    1.140921012460464,
                    0.8299730217346134,
                    -1.2631439803821791,
                    -0.11192653942052698,
                    -0.8657809139918917,
                    0.5016968743894038,
                    -0.2186207216094406,
                    -0.9056679896416306,
                    -0.13149287356270986,
                    0.4685786116797872,
                    0.5950766072698285,
                    -0.443665445282517,
                    -0.12581389286130892,
                    -0.34694733373036507,
                    0.3678961577153894
                ],
                [
                    -0.011556739967331782,
                    0.04579742685226202,
                    0.720899967877923,
                    0.9669278754817173,
                    0.44513193905158754,
                    -0.6705445477879919,
                    -0.8787815738068696,
                    1.1008513389026064,
                    -0.01870279903866566,
                    -0.4912942676284651,
                    0.25143034525994795,
                    0.8510580563439194,
                    0.6890143026638269,
                    -0.32852146527249254,
                    0.3146534848775939,
                    0.7751649877555591
                ],
                [
                    0.5090469993459857,
                    0.2601076934292355,
                    -1.021406932752926,
                    -0.04755674372347362,
                    0.5068271046175379,
                    0.40453732655524605,
                    -0.6721174151675963,
                    -0.8859271897912686,
                    -0.8085776665439371,
                    1.3640856247579258,
                    0.2249456183796297,
                    -1.1056745281926619,
                    -0.22005362686983557,
                    -0.015448502132495694,
                    0.7570364494246198,
                    -0.14904017133978134
                ],
                [
                    0.40219511666614516,
                    -0.3620482331023522,
                    -0.24881533020521285,
                    0.6292657855013531,
                    -0.41224205078515597,
                    0.5852717766233998,
                    0.09843434154920348,
                    -0.1877309031280149,
                    -0.7879239967447186,
                    -0.8260037670605906,
                    -0.4400032336993362,
                    -0.5103723255240629,
                    -0.9347707835183122,
                    -0.5458037002054495,
                    0.8481784768229174,
                    0.18567853091099654
                ],
                [
                    0.27458171093448736,
                    -0.6018774375166184,
                    -0.09817511230229835,
                    0.41822302568468883,
                    -0.43137802525491836,
                    -0.324688731747767,
                    0.4629152126581925,
                    -0.8713344050002311,
                    0.13942287186390329,
                    -0.39523657440403565,
                    0.19466894082538239,
                    -0.07130506426282342,
                    -0.09593292654696405,
                    -0.209860101390357,
                    -0.4880672157516881,
                    0.19931510387154858
                ],
                [
                    -0.3963432890728835,
                    0.046173169690257025,
                    -0.27154881203194176,
                    -0.29421449318469856,
                    0.4708457900730128,
                    0.24802574724883175,
                    -0.9323828756503001,
                    -0.06750215699885484,
                    -0.21923482336798655,
                    0.8731690430296836,
                    0.27441909076298565,
                    -0.4044257512785461,
                    -0.3578592897869319,
                    -0.6945202275651428,
                    -0.5555904467569386,
                    -0.3896999884682132
                ],
                [
                    0.7286354268001384,
                    0.9497141596879093,
                    -0.893376108201383,
                    0.9565735551458278,
                    -1.2801683072669887,
                    0.7821768137087276,
                    0.6861405131283131,
                    -0.15891943145340204,
                    0.3942052456233878,
                    -0.08262737770147287,
                    -0.4777627883498512,
                    0.07172848858231089,
                    -0.33099211983338117,
                    -0.7014413928266163,
                    -0.3787529144300621,
                    -0.11050084346932816
                ],
                [
                    0.028595949090004055,
                    0.012351925718554767,
                    -0.529791233267616,
                    -0.09085302374287203,
                    0.48935312916319035,
                    0.37153989633003776,
                    -0.3628029354593425,
                    0.11488038132204324,
                    -0.20288146623967365,
                    -1.1285754826469845,
                    -0.028604639614624616,
                    0.004316218753619464,
                    0.5441011501822127,
                    -0.3306633850004874,
                    0.8014226244938369,
                    -0.621956737066252
                ],
                [
                    0.06968692174145756,
                    -1.120911802301883,
                    0.7300866679273817,
                    -0.37253757222092754,
                    -0.3008853965100444,
                    -0.4030124594374768,
                    0.007370550115343027,
                    0.11878229845455769,
                    0.2028865504020255,
                    -0.5003580882649746,
                    0.6645820437919725,
                    0.6274440876528482,
                    0.6271613273706808,
                    0.3580082176874012,
                    -0.29912525754427366,
                    0.6227641951858555
                ],
                [
                    -0.36702358028734816,
                    0.19056791199646345,
                    -0.4079995043089905,
                    -0.07307302762599775,
                    0.20660509942033875,
                    -0.7479525829347821,
                    0.4656507792929741,
                    -0.4124717965766669,
                    -0.23083802541594514,
                    -0.19037041277205852,
                    -0.7253122734068964,
                    0.9834283652398871,
                    -0.28837218443984497,
                    -0.9879832211173748,
                    -1.1592478547249792,
                    -0.34491079891619864
                ],
                [
                    0.03645153976812597,
                    -0.01741550564562346,
                    0.1849192412919773,
                    -0.8913379707287029,
                    0.003134416914393364,
                    0.49237381703848515,
                    0.21776913450307525,
                    -0.37777415767501304,
                    0.46174196527767974,
                    0.46952764190959717,
                    0.37063833207977676,
                    0.3247295457548153,
                    0.03565818742020819,
                    0.8975206838391736,
                    -0.03450527807489303,
                    0.004471518268230622
                ],
                [
                    -0.6889742922292885,
                    -1.226964709103955,
                    1.286227637672375,
                    -0.5981568276405146,
                    -0.041197817703404346,
                    1.3691905386828553,
                    -0.39107314363799117,
                    0.00979599580792499,
                    0.3653270726948419,
                    -0.06302410525278383,
                    -0.43064461146019445,
                    -0.3513247015936841,
                    -0.03731745712026514,
                    0.13824393267444193,
                    1.2280566547201606,
                    0.08370654252555271
                ],
                [
                    -0.6361465782286608,
                    0.17683655257847303,
                    -1.4058912265529746,
                    -0.08516027523488856,
                    0.15791321419419937,
                    0.18979939881706456,
                    -0.4788125029996685,
                    -0.22575501302220086,
                    0.11299773171638691,
                    -0.8472291541002475,
                    -0.08180232687781074,
                    0.3882464263304758,
                    -0.3871052225122249,
                    1.0609459921844258,
                    0.5161468142253756,
                    -0.0033015319377121335
                ],
                [
                    -0.28937468873596606,
                    1.2310177970623342,
                    0.26984981100511235,
                    -1.4837034058196676,
                    0.501916174890624,
                    -0.19792827840257413,
                    -0.37286817349013607,
                    0.14926453617008725,
                    -0.7769335389538639,
                    -0.11846745738827699,
                    -0.05162995360641217,
                    -0.9462694182311587,
                    0.2659613715206586,
                    -0.43700583191071307,
                    0.8278740728586806,
                    0.002069956417223236
                ],
                [
                    0.4944800145629999,
                    0.5805172104141467,
                    0.16571651722605596,
                    -0.25573622231132903,
                    -0.9603568171993482,
                    0.4383160650718453,
                    0.0830596230010819,
                    -0.7593897083598754,
                    -1.693356498805767,
                    0.04748864334447764,
                    0.5957794251801735,
                    -0.5353039378928304,
                    -0.719170830758801,
                    -0.00914144112602558,
                    0.8549551564692065,
                    -0.018726155509565984
                ],
                [
                    0.4824768176215115,
                    -0.3775121160985701,
                    1.5268318829563432,
                    0.023170247256161545,
                    0.4410517937686656,
                    0.16659286810615456,
                    0.33883297210287533,
                    0.5721220205059534,
                    -0.6135176655141791,
                    0.2778842353603655,
                    0.8914672860897825,
                    -0.11048740358385938,
                    -0.6400938864355645,
                    0.9527100435173449,
                    0.7580139463471017,
                    -0.3395800909886511
                ],
                [
                    0.3738565989277045,
                    0.5233727263532296,
                    -0.4297551254324889,
                    -0.322271608369428,
                    0.08203684801051993,
                    -0.3551457987242954,
                    0.3587215736499496,
                    -0.3328132288189295,
                    0.8520128695944457,
                    -0.8418938734127975,
                    0.4559024632017925,
                    -0.6215090075058766,
                    0.1392976354322461,
                    0.3108341437612801,
                    -0.9630133844846916,
                    -0.5655082605264672
                ],
                [
                    -0.6171389193551291,
                    0.21858531474183085,
                    0.9149431273952193,
                    0.637652805266063,
                    0.37448612534089043,
                    0.09175306121630133,
                    -0.27876136180234445,
                    0.03544123393724241,
                    -0.3972894526414865,
                    -0.2881681915635508,
                    -0.13635553173660034,
                    -0.6317751291831889,
                    0.7399169913627176,
                    -0.10725827526695028,
                    0.22085806804979266,
                    0.4755829560065239
                ],
                [
                    -1.3674989153936057,
                    0.7879821510566506,
                    0.018537819950856304,
                    0.2853610956645246,
                    -0.621833912618674,
                    0.4905498666867588,
                    0.537333931671154,
                    -0.46187019735270174,
                    -0.36634081399476065,
                    -0.1703563494713924,
                    -0.8066461611776641,
                    -0.5598869758429674,
                    -0.849581695110362,
                    0.6623446551066445,
                    0.3058458569474218,
                    0.4889137294481665
                ],
                [
                    0.28663461430445086,
                    -0.6123356183946741,
                    0.7416159179310589,
                    -0.40904275081215474,
                    -0.6404542170250079,
                    -0.9959003224588691,
                    0.9185333669935467,
                    0.12022965850780652,
                    -0.8517124362927803,
                    0.42753116162992133,
                    -0.01157392174263591,
                    0.4085197919041872,
                    0.5167898624718795,
                    -0.6982786085660057,
                    -0.03892499795611992,
                    -0.9436562704469953
                ],
                [
                    1.5082644853364278,
                    0.17257707204454087,
                    -0.8654890893208086,
                    -0.4503038888333199,
                    -0.06641049689629196,
                    -0.0273112059265453,
                    0.17735543997971337,
                    -0.18174396837717816,
                    -0.890613218365654,
                    -0.28367708533584174,
                    0.40334654252697594,
                    -1.0345825919164113,
                    0.6129607632368392,
                    -0.07080986537005513,
                    0.8437712577411725,
                    -0.03297588346293511
                ],
                [
                    -0.06335348861857863,
                    0.04422040525053378,
                    0.1629107927546787,
                    -0.27081799121086325,
                    -0.5820105192124677,
                    0.036902567374798405,
                    -0.9174219991860489,
                    -0.25775810646360453,
                    0.8689244074622111,
                    -0.018824173380790038,
                    0.549631162670331,
                    -0.9696610570333919,
                    0.14010375586591112,
                    0.22366548011218793,
                    0.8993084823054259,
                    0.2324298681158394
                ],
                [
                    -0.032866930961833976,
                    -0.10371467768629622,
                    -0.1471033435539514,
                    -0.29966649231085984,
                    0.9343525863139875,
                    -0.11573459125723023,
                    0.6932661523097906,
                    0.5622323291557171,
                    0.14802312994840072,
                    -1.057515974856265,
                    0.0016518100829393334,
                    -0.07478323956292891,
                    -0.35124628358602483,
                    -0.06355177368498084,
                    -0.06667932554514329,
                    1.043473773670018
                ],
                [
                    0.12566364374927522,
                    0.67817308509257,
                    -0.23484858202330922,
                    0.9545162619768031,
                    -0.2026218445801333,
                    1.2743984119287062,
                    0.03819034743071804,
                    0.8719857722896015,
                    -0.4552614907973206,
                    -0.5584909642655841,
                    0.20583410389480084,
                    -0.6531523562383106,
                    0.41066285986504425,
                    -0.3681127046131517,
                    -0.2041659614214854,
                    -0.9609435612171626
                ],
                [
                    0.4454497204049198,
                    0.5036897392035435,
                    0.192895079604303,
                    -0.4680505155449678,
                    -0.0754586549296338,
                    0.4590477863602285,
                    -0.2535578278698084,
                    -0.25082921948157955,
                    -0.9503806452309683,
                    0.27304888191153237,
                    -0.21711003938592735,
                    -1.111423194870081,
                    -0.46148235719265535,
                    -0.09756549036119719,
                    0.136596099345346,
                    0.27243982699960495
                ],
                [
                    -0.16277982138652533,
                    0.3721363619272636,
                    0.03621391396714788,
                    0.2076638973335256,
                    1.2661809074769292,
                    -0.964820575575456,
                    -1.2019058994639285,
                    -0.3549820614319864,
                    0.5314873088953804,
                    0.08999392315665142,
                    -0.856313038738344,
                    0.3320320997469941,
                    0.5041397164406031,
                    -0.11221995384973424,
                    -0.6288260077607131,
                    0.47043333913020047
                ],
                [
                    0.38459867473644965,
                    -0.7740879271674189,
                    0.20813383757030351,
                    -0.7290254267084916,
                    -0.4629252682863918,
                    -0.8987553674570385,
                    -0.35087415001840716,
                    -1.3081555892754373,
                    0.699047112895957,
                    0.6668333249222633,
                    -0.4550044430295542,
                    0.0895723267325708,
                    -1.1541319709576916,
                    -0.5145715046857489,
                    -1.1863540677294062,
                    0.4459638943131808
                ],
                [
                    0.17571782023645602,
                    -0.49123130232925744,
                    -0.47906046429519233,
                    -0.48497740132066014,
                    -0.8146643341211426,
                    0.1431016061352716,
                    -0.38206724375074724,
                    -0.19523666533351847,
                    -0.4717101669370016,
                    0.2823761172178142,
                    -0.7207691328277056,
                    0.018328970985493614,
                    1.3459804743399253,
                    0.2867076912704114,
                    -0.20483216993010905,
                    0.32631572264494774
                ],
                [
                    -0.8658917218864381,
                    -0.11727764037300617,
                    0.05313826340056923,
                    -1.2450769793573362,
                    0.05501120336766444,
                    -1.1182055302291665,
                    0.7446894211024686,
                    -0.10912139676150423,
                    0.3843872279234103,
                    0.29541011765303754,
                    0.1781085396121885,
                    0.20925867407084528,
                    0.5268889960813987,
                    0.21561571793379344,
                    -0.7031596628679615,
                    0.8527161524427951
                ],
                [
                    0.22382362681941614,
                    -2.483965379974698,
                    -0.6079679308337081,
                    0.32417970305672605,
                    -0.004788075965049312,
                    -0.83164277303134,
                    0.4637567494919957,
                    0.09804020962354694,
                    -0.2734729493439139,
                    0.36831446650119337,
                    0.1350757712895758,
                    -1.7463451151984284,
                    0.4913379902624677,
                    -0.24299369261745657,
                    0.20553166696647276,
                    -0.8921916167289256
                ],
                [
                    0.24850489637789916,
                    0.26532966349689907,
                    -0.13755097650558099,
                    -0.9644368115789166,
                    -0.45793589123164474,
                    -0.471658821575202,
                    -0.24291504828832,
                    -0.25195591882052903,
                    -0.24382955457340547,
                    -0.6342822037658916,
                    0.4940667875267345,
                    -0.07980283256903077,
                    -1.879718034817679,
                    -0.35223540392721037,
                    -0.13493996340477052,
                    -0.41788798214452083
                ],
                [
                    -1.1984416450962017,
                    -0.5801796779118416,
                    0.6647718206686422,
                    -0.3745721590751226,
                    0.21551824210302684,
                    -0.6187045886630356,
                    1.0502293030635492,
                    0.3959332004820103,
                    0.3801417599263032,
                    -0.7941597186243271,
                    -0.5343479159867978,
                    0.02650346957954256,
                    0.2852863383263066,
                    -0.2457181464243446,
                    0.21627629685371283,
                    -0.17319464795268624
                ],
                [
                    0.3480174716272027,
                    1.3752116347834913,
                    -0.4634183221642942,
                    0.6106325066370325,
                    -0.20484935519487094,
                    -0.3833843142979964,
                    0.25639460726414764,
                    -0.07998604078237778,
                    0.06808954746624288,
                    -0.4878019599928098,
                    -0.5376332340922262,
                    0.6840280036555901,
                    0.5840507446956272,
                    0.35714586677707244,
                    0.9419959772001358,
                    -0.037607875524201514
                ],
                [
                    -0.5018372500572625,
                    -0.1761668985619705,
                    0.9087918845777001,
                    -1.9445797707949615,
                    -0.49907310406400085,
                    -0.06314215180796474,
                    -0.8079623908011082,
                    0.6704759693626021,
                    -0.1049789314382991,
                    -0.3111438779468246,
                    -0.6044371137908131,
                    -0.980006156265214,
                    -0.7978960074489587,
                    -0.03192763942284829,
                    0.27947852067887097,
                    -1.1068017923366666
                ],
                [
                    -0.01958178858456619,
                    1.3555846949253962,
                    0.638821150168774,
                    -0.6834828031841503,
                    -0.9390884356516982,
                    0.3597985954022125,
                    -0.6460743133866882,
                    -0.3951944109066314,
                    -0.2801860524456437,
                    -0.6127579665405464,
                    -0.7048688682927639,
                    -0.574123809289246,
                    0.17580924368044332,
                    -1.6546079387102761,
                    0.28019194638058414,
                    0.22544621421044167
                ],
                [
                    0.8723809187055006,
                    0.3126374252945145,
                    -0.05484348128607792,
                    -0.4630564653747849,
                    0.9550789941865115,
                    0.5019730958799377,
                    0.5854850730825047,
                    1.093105752538107,
                    0.06462199494241531,
                    -0.04687122411396555,
                    -0.77488247520508,
                    0.6058063137990597,
                    -0.514646081188924,
                    0.13019580255313234,
                    -0.39896451506432334,
                    -0.7763328662838995
                ],
                [
                    -1.0427567864111558,
                    -0.23462222388430667,
                    0.7525559455445053,
                    -0.5336238882718886,
                    0.700812215311128,
                    -0.03846058343174652,
                    -0.39485809340560135,
                    -0.2753486332853902,
                    0.482012649012871,
                    0.2963683793387005,
                    -0.016837451168532455,
                    -0.5148594429986747,
                    0.45281033840063445,
                    0.5457623661481584,
                    1.0917427139286737,
                    -1.521356030537068
                ],
                [
                    0.6791855455506839,
                    -0.79800051654081,
                    -0.40084663758536715,
                    -0.5663078657172499,
                    0.1609532846126148,
                    0.5302601579983797,
                    -0.32617980747247,
                    -0.28533786951845297,
                    0.16277795013721746,
                    0.024065012386290264,
                    -0.04575611849816316,
                    1.7671298026481381,
                    -0.4308124011119993,
                    -0.8718138523425942,
                    -0.7878310776087977,
                    1.3492179590889013
                ],
                [
                    0.32295625020694746,
                    -0.940858791834332,
                    -0.3878344672452071,
                    0.7961185610501326,
                    -0.9285479001452274,
                    0.9891366773233828,
                    0.05703566556718994,
                    -0.7321188598687951,
                    0.621993236070271,
                    0.16297311906822082,
                    -1.4967493296651486,
                    0.46020052523872834,
                    -0.29635438801548014,
                    -0.14935911956748635,
                    -0.12137315465955496,
                    -0.45099834235153885
                ],
                [
                    -0.2858716836766158,
                    0.148706723756676,
                    -0.42400094935254923,
                    1.9602853202598927,
                    -0.28275315727005707,
                    -0.489331130962883,
                    -0.3391162869826141,
                    -0.35915888294295695,
                    -1.2015381454705147,
                    0.2760660921895017,
                    0.01959048217563869,
                    0.18877503536347975,
                    -0.0860569692225949,
                    -0.3417927312893664,
                    -0.8181359439019648,
                    0.0965241291480693
                ],
                [
                    0.149343145360979,
                    -0.1477340627487553,
                    -0.2747314946793059,
                    0.8870209419345174,
                    0.7316685019853365,
                    0.01823928204301941,
                    -0.2152037473443022,
                    0.811115887333019,
                    1.3838432802564509,
                    0.46932041179425066,
                    0.5974626552752859,
                    0.09797391648694827,
                    -0.49339666956670364,
                    -1.3351084356033684,
                    0.695352434609372,
                    0.8758938727989392
                ],
                [
                    0.13302610125622047,
                    -0.8458110663934352,
                    0.12008446162194862,
                    0.09192556465241669,
                    0.489257651923809,
                    0.21672686046167097,
                    0.0834686200494477,
                    -0.5172523758781531,
                    -0.3440834166132191,
                    0.29334707170178437,
                    0.4320840776891632,
                    -0.3649157575418832,
                    -0.9071358329171512,
                    -1.3676514935558934,
                    0.052499935869959,
                    0.339579982633416
                ],
                [
                    -0.5188425335228585,
                    -0.21358810416929358,
                    0.5585552777378561,
                    -0.7545148106722136,
                    0.8320479630349845,
                    -0.7804890704507237,
                    -0.5517701877322515,
                    0.4037159608569724,
                    0.7679938057500153,
                    -0.3876070833804684,
                    0.7118796247286483,
                    0.759950515456405,
                    -0.6755310137794728,
                    0.3638077491004337,
                    -0.6072879738883381,
                    1.0023700256925099
                ],
                [
                    -0.3752534127454077,
                    0.35031476557672375,
                    0.31058103529038766,
                    -0.6198827807987408,
                    -0.25168737280231224,
                    1.0311851967342702,
                    -0.450577835572841,
                    -0.035898910441039926,
                    -0.14131667253962188,
                    -1.5739446445021759,
                    -0.17193698320755543,
                    -0.9475636185595361,
                    -0.017713746189272978,
                    -0.39071922675106774,
                    -1.0045253214402823,
                    0.7633780303358516
                ],
                [
                    -0.47194314004277294,
                    0.6593811800408098,
                    -0.5171739734747982,
                    -0.9953249083986266,
                    0.5633532510569697,
                    0.8940785056398319,
                    0.1201139184097886,
                    -0.91010138510515,
                    -0.3209578638027991,
                    -0.11790343953553681,
                    1.1907160476648597,
                    -0.49372401886765616,
                    0.46959916480928987,
                    -0.615167950682514,
                    -0.8090680034750851,
                    -0.34147224743290006
                ],
                [
                    1.6262650552802416,
                    -0.05085355469303522,
                    -0.49338493944745027,
                    0.3346773365401752,
                    -0.3040327874625142,
                    0.5704791479035961,
                    0.586544609461723,
                    0.5228501482763374,
                    -0.5264866128612841,
                    -0.10922232883525723,
                    0.5286673839619384,
                    -0.4047532851274347,
                    -0.3365743950059121,
                    -0.1355085782016079,
                    0.6131052098152877,
                    -1.316784638907451
                ],
                [
                    1.0990647885677356,
                    -1.184615955625741,
                    0.014195736597245243,
                    -0.3895736018777524,
                    -0.09664783088621529,
                    0.5848192824969973,
                    -0.458693130383682,
                    1.0966715861095313,
                    0.5112596358594859,
                    -0.41636555756672033,
                    1.4500335459078184,
                    0.619138214269477,
                    -0.5721188838248878,
                    -0.8256317891029891,
                    0.859866228952807,
                    -0.2238032818094806
                ],
                [
                    0.05782299603256174,
                    0.6308026654067626,
                    0.4519960899482735,
                    -0.3333873257022238,
                    -0.7120358222926406,
                    -0.11869872148263276,
                    -0.33969217554455744,
                    1.0887138067171023,
                    0.5448780058056193,
                    -0.6930708942156248,
                    -0.004233281403440829,
                    -1.1222539351741545,
                    -0.7906139635397256,
                    0.2640301855112175,
                    0.2942693215875246,
                    -0.8623022820786131
                ],
                [
                    -0.5194499418098902,
                    -0.2993001652876629,
                    0.3535289350148465,
                    -0.9426572903308497,
                    0.47129757395068883,
                    0.15563936969990244,
                    -0.6059101145294226,
                    0.22926597493829745,
                    -0.015812240585760435,
                    -0.5483178691759459,
                    0.95710564773255,
                    0.9172629698900319,
                    -0.3917468494606417,
                    -0.31271516424684337,
                    -0.807255967295355,
                    0.11161394671639822
                ],
                [
                    0.4919380460861552,
                    0.8115302436606069,
                    -0.10876608438206732,
                    0.14966589356270182,
                    -0.0993518741690506,
                    0.535890126521823,
                    0.5079880642165985,
                    0.7705235434828046,
                    1.0669822972551808,
                    -0.2516988054835364,
                    0.28070725161624366,
                    -1.013331286477846,
                    0.20694077731602073,
                    0.058402348773676976,
                    -0.09100589630807997,
                    -0.4811860349436448
                ],
                [
                    -0.2984301815394043,
                    1.2323582478057105,
                    0.5146856037532352,
                    -0.2075759490593959,
                    0.5520680788507324,
                    -0.23994578190498442,
                    0.7939263016143256,
                    0.9041827752440642,
                    -0.1307630615654169,
                    -0.0603855324021494,
                    0.10904424236395796,
                    -0.489297736780826,
                    -0.5277301229774485,
                    0.1464139117529478,
                    -0.497286024802232,
                    -0.3475547593021908
                ],
                [
                    0.04480578176323602,
                    -1.0518569363129422,
                    0.04190088910022346,
                    -0.3683815456261428,
                    -0.2968976021982316,
                    0.30679730644809733,
                    0.42629309741712923,
                    -0.1720504874865224,
                    -0.3838739721077975,
                    -0.11941453897492145,
                    -0.2141080084404433,
                    -0.33556841205905946,
                    -0.16486264655880134,
                    0.18464881845000009,
                    -0.012722885755855323,
                    0.2000993275126342
                ],
                [
                    0.7903197301372342,
                    0.2212727767797773,
                    0.18278080607189762,
                    -0.2931154086070483,
                    -0.3074059512033372,
                    0.01923529636285808,
                    0.73479770068687,
                    0.0492931729521595,
                    -0.687450779102258,
                    -0.11818921469386795,
                    -0.3603770746631838,
                    -0.1036755123193799,
                    0.22443701165176944,
                    0.8028628455595648,
                    -0.8728575853784751,
                    -1.4471361949293047
                ],
                [
                    0.7883809464162103,
                    -0.4406783040189879,
                    0.25273499665785526,
                    0.3277829346228599,
                    -1.1231232164920735,
                    -0.1939841606392739,
                    -0.015977321111693133,
                    0.24225231412282014,
                    -0.7178204381091758,
                    0.4011446467415001,
                    0.4111523042236856,
                    -0.5576784809833636,
                    0.24099842277099665,
                    0.2436236438633136,
                    -0.5225267716733414,
                    -0.024616264426527527
                ],
                [
                    1.1722423729773268,
                    -0.10031614606289724,
                    1.0148447533714224,
                    0.34598820756836346,
                    0.6545050473922964,
                    -0.09898598619702402,
                    0.505312072408592,
                    0.48909455457217926,
                    0.3767480549968667,
                    0.3622955732507624,
                    0.524406032263288,
                    0.5750201924869847,
                    0.2490638641122682,
                    -0.28811605899714365,
                    0.011863209989470708,
                    -0.11344726348659566
                ],
                [
                    1.1105210462014645,
                    -0.29963227497436706,
                    0.061725063749921906,
                    -0.33979410635264806,
                    -0.9946184099839969,
                    0.8148725807847294,
                    -0.8827030093621903,
                    1.011319643370947,
                    1.0587435691931342,
                    0.37184935306870603,
                    -0.11092404193750788,
                    0.20619707519383262,
                    -0.39735354688231034,
                    -1.6663080917685305,
                    -1.184328497455466,
                    0.6087739978813732
                ],
                [
                    0.4834467718129285,
                    0.54434274354731,
                    0.2145817398849285,
                    1.970733660504708,
                    -0.4625440947655994,
                    0.02844033934120234,
                    -1.978368565166594,
                    -0.5828524190501503,
                    0.3084657130961133,
                    0.4787324129309209,
                    -0.09111234947591546,
                    -0.22406511439886903,
                    0.5028227926522706,
                    -0.9099364090438898,
                    0.6083545496611784,
                    -0.05449451136765921
                ],
                [
                    -0.1630374073428491,
                    -0.726220938803107,
                    0.10057409773403225,
                    0.7475424824671333,
                    1.012034158929613,
                    0.00832030837454957,
                    0.10100526254638738,
                    0.049898149491270305,
                    0.24147634613873226,
                    -0.3353129709163431,
                    0.48854850162316993,
                    0.23577866237218026,
                    0.02049399212398164,
                    -0.2822879512519021,
                    0.1393213975608594,
                    1.0585584390696665
                ],
                [
                    -0.08302339842577144,
                    -0.8249802822858392,
                    -0.07444312972455257,
                    0.8019785572847217,
                    -0.6570170397097902,
                    0.2262539634835661,
                    -0.7098688866346284,
                    -0.7322518164674853,
                    0.06112592099144844,
                    -0.1413309894185114,
                    -0.34504111775868074,
                    -0.07381380921345587,
                    0.6609142350870645,
                    -0.1870791970517465,
                    -0.771646858235922,
                    0.3211955468560844
                ],
                [
                    0.6310018445932546,
                    1.0156269932780468,
                    0.21887299926436504,
                    1.2817095715708207,
                    -0.21598267083226472,
                    -0.04840488442665636,
                    0.03289146836014421,
                    0.2641708323086294,
                    0.04549669907372945,
                    -0.7400201641095829,
                    -0.5204691876879102,
                    -0.8978061738434937,
                    1.450628648248876,
                    -0.39739940883154473,
                    -1.1199903283942156,
                    0.37240803735663386
                ],
                [
                    -0.9071203326031783,
                    0.18849530472291406,
                    0.06676449723757481,
                    -0.2605234220736393,
                    -2.209659241473894,
                    1.498174394673452,
                    -0.14058951353800647,
                    0.3433267684100983,
                    -0.3926624699744932,
                    -0.22668783644095036,
                    -0.27256641206987114,
                    -0.6749131077075397,
                    0.30675536670899667,
                    -0.04024302797961731,
                    0.9414095529855269,
                    0.38984099213801754
                ],
                [
                    -0.6875236808395304,
                    -0.7302338114336184,
                    -0.8409187344919921,
                    0.41447752270962884,
                    -0.5362690051719615,
                    -0.1711364856854475,
                    -0.7934839621854324,
                    0.64579544003031,
                    0.37068568488272213,
                    -0.2757528632042606,
                    -0.14056366970543074,
                    -0.5238120470919687,
                    -0.4734302414302398,
                    1.649575968044055,
                    -0.01700600830117422,
                    0.5855514607477946
                ],
                [
                    -0.30354693792789356,
                    0.8039835102207117,
                    -0.001085557790887758,
                    -0.38169848415509566,
                    0.17683007819996804,
                    -0.5847504687080297,
                    0.08106353067618721,
                    0.20066165331324426,
                    -0.8923212415972008,
                    0.3528829821672372,
                    0.7111478454982731,
                    0.1497579593376695,
                    -1.1611346280827077,
                    0.6115715412837416,
                    0.9572672577996433,
                    0.026797332602123237
                ],
                [
                    -0.0036621778521679516,
                    -0.22980318319655008,
                    -0.6769703617896735,
                    0.20340569453884652,
                    0.2184800936963355,
                    -0.7961879816074138,
                    1.3898508357168695,
                    -0.29308368242296967,
                    0.1988867271715927,
                    0.6098052254085484,
                    -0.9854111996153878,
                    0.8334277952599359,
                    -0.59746793962451,
                    -1.0539060259332065,
                    -1.0632082958509128,
                    -0.5107661099366024
                ],
                [
                    -0.4861859587799656,
                    -0.20439040105195255,
                    0.1306075817211435,
                    -0.5810378613283176,
                    -0.18692058564568848,
                    -0.6070015796546336,
                    -0.2184322437842948,
                    -0.04392601221040752,
                    0.7068483040659085,
                    -0.16491949124905558,
                    0.18616271258898545,
                    0.7472192547837551,
                    -0.4192196696319374,
                    0.7202372562152645,
                    0.6016670875062379,
                    -0.919078173939793
                ],
                [
                    -1.0335860188679649,
                    -1.1286182655719077,
                    0.38070648103434646,
                    0.02088340449265339,
                    -0.37212577177412687,
                    0.26514947290234575,
                    0.7326127068845995,
                    -0.16549787749661493,
                    -0.916401365883739,
                    -0.16264008105225444,
                    0.9072111095818899,
                    -0.5788612821302892,
                    -0.052609212276584744,
                    0.80970050097662,
                    0.663892093571853,
                    -0.5138481706313349
                ],
                [
                    -0.02835440520900509,
                    0.055255357223192636,
                    -0.5300492568110836,
                    -0.2457598747173902,
                    0.4897934807536599,
                    0.35661593453168416,
                    0.8209597909693859,
                    1.4984748946624753,
                    0.09773406225340445,
                    0.926671451818584,
                    -0.38900590251282985,
                    -1.0712810893399893,
                    0.024407811704787553,
                    -0.007227246510802863,
                    -1.1802129347652266,
                    -0.45797850497360837
                ],
                [
                    0.6675470405204059,
                    -1.2202468657694858,
                    0.6529906308708597,
                    0.5464094304643766,
                    -0.20352750544282508,
                    -0.38053069832113523,
                    -0.41408842163917453,
                    1.1566582386813304,
                    -0.08659792955934169,
                    -0.7830581147877499,
                    0.15710416341370328,
                    1.086393058505996,
                    -0.9393200790462984,
                    -1.215958587036384,
                    -0.8722511495489962,
                    0.2893548723718481
                ],
                [
                    0.6482182310193078,
                    0.0074721498271290545,
                    0.1343668728498797,
                    -0.023861333111089435,
                    1.0063819915990884,
                    0.19036067796573547,
                    -0.6446646543616911,
                    1.013334438952031,
                    0.7689113768544309,
                    -1.2222689348199256,
                    -0.11277277690434917,
                    0.12427718933467809,
                    -0.7588853312333627,
                    -0.06825997802640017,
                    -0.6197478618546841,
                    -0.30066550663531627
                ],
                [
                    -0.6174812594910715,
                    0.1196729852978505,
                    -0.0734217068444035,
                    -0.45558388318264204,
                    0.5918191595101002,
                    -0.4592647054298401,
                    0.31953609712038517,
                    -0.2023887681378493,
                    0.6544724330431644,
                    -0.19090777194566452,
                    0.3724212334381241,
                    -1.1134755905888891,
                    1.2871737074084715,
                    0.11324028781131967,
                    0.5044156585403933,
                    0.6853966132912914
                ],
                [
                    0.22801447278502715,
                    0.6682801964366406,
                    0.9716225971439865,
                    0.6557777376081818,
                    -0.6284320231194841,
                    -0.5039814452568037,
                    -0.6436367270430344,
                    -0.22714171839178496,
                    -0.25467166608662223,
                    0.5425078937506151,
                    -1.347348954173442,
                    -0.5383205659154705,
                    -0.06675762076990638,
                    0.7156393615976303,
                    -0.3010217502289135,
                    0.5339686311466937
                ],
                [
                    0.15053047721565205,
                    1.1061415310102347,
                    0.6284281852552742,
                    0.6111597317007584,
                    -1.0021513530069455,
                    -0.8026415670523415,
                    -0.3058349532596559,
                    0.06716596535202353,
                    -0.07579702866813072,
                    -0.20628627752658454,
                    1.2260955719959954,
                    0.7340589962772068,
                    0.8214704998586224,
                    0.9788774115923914,
                    0.05445425206690715,
                    0.8404344497158353
                ],
                [
                    -1.0870689085874985,
                    0.9810662967938971,
                    -0.12314371981336275,
                    0.3734401413513464,
                    -0.7365368697622345,
                    0.9232641470267748,
                    -0.13646412069628536,
                    -0.18567494065821738,
                    -0.17534275207407238,
                    -0.3315721171070799,
                    0.34719690711015544,
                    0.13895735101747153,
                    -0.6431385080849432,
                    0.3266352478176935,
                    -1.0684307244954716,
                    -0.44734884931340935
                ],
                [
                    -0.7370662213047099,
                    -0.43619038476260097,
                    -0.5406789216246327,
                    0.5998356050805428,
                    -0.13883183293488535,
                    0.4893565335112965,
                    -0.2810460325157353,
                    -0.6780481081782908,
                    -1.2891780975431062,
                    0.005743572030664281,
                    -0.39653333897183485,
                    -1.026208041171592,
                    1.058929083078185,
                    0.1344644370115469,
                    0.19455236336607695,
                    0.012975547043179136
                ],
                [
                    0.09379585540445162,
                    -0.5999664040822112,
                    -0.4663260889767176,
                    -0.9092427131275156,
                    -0.32523698370791787,
                    -0.8389159494894676,
                    0.542329716435501,
                    0.26043356230948744,
                    0.5808716793748377,
                    0.8281488599821436,
                    -0.5042312738411109,
                    -1.2905116952878637,
                    -0.22495032246439414,
                    -0.16919156400267552,
                    0.2873765741002069,
                    -0.04767289924490278
                ],
                [
                    -0.7038517323149976,
                    0.20917478982521764,
                    0.08472539117368567,
                    0.16710611534354974,
                    0.05520183561081132,
                    -0.32853224498224926,
                    -1.0131914613265203,
                    -0.042398631911398664,
                    0.17972403115000143,
                    0.2649780013665016,
                    0.7553707729523015,
                    -0.7155306551104877,
                    -0.22009237862933195,
                    0.7800677560168126,
                    0.28808799061059476,
                    0.27526609794216517
                ],
                [
                    -1.22095926947344,
                    -0.3579238433820038,
                    0.8158970240521869,
                    0.04027189662205808,
                    -0.07615274244595481,
                    0.7792388112096316,
                    -0.5033378722876939,
                    -0.25866932213907606,
                    0.03190541216408524,
                    0.5121381431048948,
                    0.41217002647719775,
                    0.40013192316439566,
                    -1.0861253514364926,
                    -0.013450300231676874,
                    -0.7705280596696205,
                    0.048538335265048
                ],
                [
                    0.08714488240160019,
                    -0.5797065365153294,
                    0.2094356472296761,
                    -0.14582985926459016,
                    -0.26413077453904393,
                    0.6107398707589811,
                    0.09851331885364069,
                    0.29839628717175976,
                    -0.29294903193388355,
                    1.3052981828723962,
                    -0.8921962593374746,
                    -0.7541588050780947,
                    -0.3476293318423081,
                    -1.1831624704674195,
                    0.38420766459384137,
                    -0.038264825875932565
                ],
                [
                    -0.2828982545739244,
                    0.9283648447907648,
                    -0.10063588163758762,
                    0.8034231267060431,
                    0.05159559316863858,
                    -0.8786890963011553,
                    -0.27450407174977354,
                    -0.40543611408643615,
                    -0.49551625995549076,
                    0.032967680455259496,
                    -0.22949323031205782,
                    1.2486290540124685,
                    0.12532651568237038,
                    -1.0021277439601994,
                    -0.7449301576314593,
                    -0.5134292270869303
                ],
                [
                    0.27012967509320474,
                    -0.2226279214911374,
                    0.4824348102596165,
                    -0.1435770125027586,
                    0.3284723519247053,
                    0.5111382004231307,
                    0.4873648969881801,
                    0.3514235050673808,
                    -0.20938921464698743,
                    -0.7953856260320008,
                    -0.32221653258866995,
                    1.5112756680257242,
                    0.38768325706547574,
                    -0.881451906036779,
                    -0.35109546241339534,
                    0.28482826377001647
                ],
                [
                    -0.4688472891831173,
                    0.8124991579951114,
                    -0.678476515612454,
                    -0.4314337670722866,
                    -0.31386923392845634,
                    0.2808132038977411,
                    0.5016445859407459,
                    -0.24664955922622323,
                    -0.5761932150155534,
                    -0.26946339448101553,
                    -0.0938034536708453,
                    0.7846551445577774,
                    -0.667122538741109,
                    -0.43487042103022994,
                    0.12606569242548896,
                    -0.24890897369659368
                ],
                [
                    -0.3878986922614802,
                    -0.447005128304409,
                    -0.212968934267443,
                    0.5426785249610788,
                    -0.4177948749409315,
                    0.8529542958749841,
                    -0.3609194210773538,
                    0.14668374616287963,
                    0.171310569354288,
                    -0.14457983980988212,
                    1.0069155672325376,
                    1.0362291299773927,
                    -0.8221791023903733,
                    0.5188839092067168,
                    0.7656170640695722,
                    0.8835805723686951
                ],
                [
                    0.2664126586349841,
                    0.7767414768820156,
                    0.44742832254524434,
                    -0.039039268655930236,
                    0.31370938179668223,
                    -0.6918297271088732,
                    0.12300545384159113,
                    -1.2254307653908574,
                    0.4226370211956225,
                    0.13309980365401541,
                    1.1135177111291976,
                    -0.20655150563098035,
                    0.1996832517471832,
                    -0.12572612503272745,
                    -0.5968479955490924,
