{
    "type": "Model",
    "key": "model_ocr",
    "layers": [
        {
            "type": "Layer",
            "input_size": 256,
            "output_size": 16,
            "biases": [
                -0.18638143333248758,
                0.09903073344577236,
                0.9005774564895311,
                0.007902283549318927,
                0.043727325122658325,
                0.3405405093146604,
                -0.5276028196500195,
                0.31376154870806233,
                1.5670815462248868,
                -0.3962829366244982,
                0.0021547612376019835,
                0.5524572557336315,
                -1.3741360295672693,
                0.38822097025038355,
                -0.21601229566414007,
                -0.1478191535172213
            ],
            "weights": [
                [
                    0.5579154842781273,
                    -0.797216938255295,
                    -0.4929272692777024,
                    0.11274952144029723,
                    -0.0708668284196474,
                    0.5821584416808979,
                    -0.13588941775504637,
                    0.3245686774582593,
                    0.47665168657466134,
                    0.46708932236237277,
                    -1.5088466733328865,
                    -0.20586726188807847,
                    0.23880821035799304,
                    -0.21173584638943566,
                    -0.13607106117166914,
                    0.35083395750004437
                ],
                [
                    0.14567500919616988,
                    0.3839200405440225,
                    -0.8440481239411489,
                    0.4689627192655191,
                    0.3451649868881126,
                    -0.0337663599871056,
                    0.21181842584645597,
                    -0.9174972334708303,
                    -0.46706717905875594,
                    -0.27460381160584524,
                    0.34162565479482926,
                    0.8637583513739969,
                    -1.0870538637356622,
                    1.0598358807776573,
                    0.19649426405420645,
                    -0.4250187886264812
                ],
                [
                    -0.6858949105882812,
                    -0.6087391193051616,
                    0.9559276362340001,
                    0.6370139940557844,
                    0.3059481593765236,
                    0.0011650497972168332,
                    -0.7764931856777431,
                    -0.23407227909848016,
                    1.1825023233352694,
                    0.13356933655972464,
                    -0.03241218798905177,
                    -0.45868522176075965,
                    0.1507636226880878,
                    -1.0664623796321886,
                    -0.41618255248344055,
                    0.647732172837587
                ],
                [
                    -1.482916559635838,
                    0.1288606542723982,
                    -0.3995342955824086,
                    0.16405186749355752,
                    1.1263681619259227,
                    -0.6556484161156179,
                    0.266547860071472,
                    0.24323791769638436,
                    0.1913653637878354,
                    0.4711844806706031,
                    0.5075014524322925,
                    -0.49506023232294777,
                    0.396766847846706,
                    0.5066877696307023,
                    0.8342713653553252,
                    -0.6195169500989756
                ],
                [
                    -0.3079240560127904,
                    -1.0590079502476268,
                    0.3256720439434716,
                    -1.1571954794925434,
                    -0.6869711143672056,
                    0.27766142238598257,
                    0.6518899810683938,
                    0.042838697824809355,
                    0.0764774580804279,
                    0.6369600795569634,
                    0.40493260187208946,
                    -0.2272172556377637,
                    0.018573114714279235,
                    -0.6152051565842841,
                    0.19676672809730902,
                    0.5209105346268434
                ],
                [
                    -1.0546759475784304,
                    0.628416225151196,
                    -0.60663973764621,
                    -0.44597999698476276,
                    1.4735047927189364,
                    1.214319000922445,
                    0.4043183534690745,
                    -0.39416920030873953,
                    -0.20101252011958004,
                    0.9362477189501174,
                    -0.2850433797714253,
                    0.23866141688956324,
                    0.5052644407193879,
                    0.2216831711749128,
                    -0.7087519659211602,
                    0.35149118572727495
                ],
                [
                    -0.4355878798122407,
                    0.22842147145010375,
                    -0.39202103863457105,
                    -0.24506221419962707,
                    -0.5798326732513311,
                    -0.7428761483887599,
                    1.0615008112795752,
                    0.547625959444133,
                    1.210229990040161,
                    0.35955557637322505,
                    0.29346524728262896,
                    -0.01205284525749703,
                    0.1422883419996724,
                    -0.33799079283147204,
                    0.16386179576091067,
                    0.06483960664916488
                ],
                [
                    0.0701645909162891,
                    0.22140222501158952,
                    0.1863787611178541,
                    0.5842232120673033,
                    -0.15020961836596478,
                    0.30626829775112163,
                    0.6480061579000831,
                    0.1814155850955341,
                    0.021028437165762193,
                    0.8144681988648139,
                    -0.33735604331326413,
                    -0.3135359070525553,
                    0.0271114694296122,
                    0.4841260862490708,
                    0.07773614159499687,
                    -0.2629918890527274
                ],
                [
                    1.2032520388565442,
                    0.7091135377732075,
                    -0.26323632151501974,
                    -0.12272553958330368,
                    -1.198073477954273,
                    -0.7204927274184569,
                    -0.48511481398902656,
                    0.4279210859933436,
                    -0.9925984181726308,
                    -0.5158778958446019,
                    0.3011635628605312,
                    0.6136506088630352,
                    0.6509106208506333,
                    0.4275090956863616,
                    0.09224187728212933,
                    0.42703939100108
                ],
                [
                    -0.7576313222201515,
                    0.034656676590029266,
                    -0.889616494645437,
                    0.6138626746274236,
                    0.6567868132274334,
                    0.18645325587533598,
                    0.40641955126460994,
                    0.5465546860773293,
                    -0.36759595192563177,
                    -0.5268645629836192,
                    -0.5755760205507233,
                    0.7091441934215766,
                    -0.7470625888613396,
                    -0.3895521687330458,
                    -0.04304387260994466,
                    0.8321128770857449
                ],
                [
                    0.1550045785898938,
                    0.7035953321385471,
                    -0.04646195588694536,
                    0.7752083621457647,
                    0.4852080893068087,
                    -0.11694951250684461,
                    -0.8406609060005773,
                    0.30807915864830543,
                    -0.18458179196518365,
                    -1.0243510890909635,
                    -0.36717791806659944,
                    -0.4532166008684329,
                    0.4157079884959765,
                    0.5538672090047279,
                    0.8589279522462976,
                    0.8046443393607181
                ],
                [
                    -0.4783485782968001,
                    0.28365591981808463,
                    0.13375919297825217,
                    0.45268405501714515,
                    1.1767833833767352,
                    0.0731532277491095,
                    -0.7486288303545097,
                    -0.534746716848734,
                    -0.0010956466226103084,
                    -0.6852947009141934,
                    0.4094835074797174,
                    -0.7685919878381593,
                    -0.5721944493917168,
                    -0.9361090266263213,
                    0.02110749787561663,
                    1.0878760750677603
                ],
                [
                    -0.12604514876231582,
                    -1.0364183077146598,
                    -0.04817400198304045,
                    -0.1921675442586419,
                    -0.7925754525169775,
                    0.7883580321373687,
                    -0.635664597839057,
                    -0.6300777400632892,
                    -0.5216974180952523,
                    -0.03424731342713104,
                    0.4171673442802096,
                    -0.21638564271102287,
                    -0.19449940239542235,
                    0.21861312575867758,
                    -0.12855991309698048,
                    -0.33081894469365497
                ],
                [
                    0.3889729947957885,
                    0.6558810598848421,
                    0.6724710862949432,
                    0.5528640247941154,
                    -1.5127782892935784,
                    -0.1606011608126318,
                    -0.8505648652629185,
                    -0.1435685271101294,
                    -0.07149974419043956,
                    -0.0888863125158821,
                    0.8839853777748539,
                    -0.16825770353197408,
                    0.8530290469761436,
                    -0.03588826679375846,
                    0.31884437795598786,
                    0.013385191092210875
                ],
                [
                    -0.01382323246002185,
                    -0.7000098519116509,
                    1.1064344385006528,
                    0.7298403198710295,
                    -0.4583025691491738,
                    0.9655838641526329,
                    0.821277763092671,
                    0.19622115554579828,
                    -0.7380134779401835,
                    -1.2809425830020758,
                    0.46694241168258743,
                    -0.14718310940557666,
                    -0.04657131401091424,
                    -0.9622832934402806,
                    0.21062219882179892,
                    0.19353928929453823
                ],
                [
                    0.05388661839416059,
                    0.8951606632835118,
                    -0.06763463542362898,
                    -0.21107102969054173,
                    -0.9573862755541994,
                    -1.0104901516684623,
                    -0.8686333819092925,
                    0.6573774484554397,
                    0.8703747015273249,
                    -0.710596945295835,
                    -1.6058702035721841,
                    0.1838397916646321,
                    0.7187358948216175,
                    0.23366000808958576,
                    -1.117971945386774,
                    0.3644845247610771
                ],
                [
                    1.1798469445003172,
                    -0.7058951305645503,
                    -0.9456628578815057,
                    0.3684858831094487,
                    -1.3530488257380962,
                    0.3656739415097125,
                    0.14710043548408186,
                    0.3125546767011038,
                    0.33446247987782224,
                    0.585179317016622,
                    -0.31181524725504633,
                    0.6928521524394615,
                    -0.7938275749923621,
                    0.3743603867519536,
                    -0.3603959680561224,
                    -0.00015578563169274355
                ],
                [
                    -0.3701004855473087,
                    0.5250750236694497,
                    0.2223935934734757,
                    0.6534844838917708,
                    0.15298713066916997,
                    -0.20402498494888274,
                    0.04156212580954288,
                    0.5398327287055895,
                    0.6423693037483487,
                    0.24166933618747835,
                    -0.4913519459523492,
                    0.7374314801525693,
                    0.34320680029945827,
                    0.4077910081060663,
                    -0.5298757856925562,
                    0.489771036865743
                ],
                [
                    0.21929991094322296,
                    -0.31269397628632156,
                    0.610884736912847,
                    0.7506946132714508,
                    0.8329823946732899,
                    0.20761345413052607,
                    0.386989889806116,
                    -0.6852124205039939,
                    -0.10803151261407687,
                    -0.4136261894994178,
                    0.49374689319571224,
                    -0.2696750024140431,
                    1.4989510853592156,
                    0.05350048791153533,
                    0.41275739351843915,
                    -0.6152467531960427
                ],
                [
                    0.8485033667526692,
                    -1.063712041318836,
                    0.38197083663385056,
                    0.41800829042437926,
                    0.4228429780401875,
                    0.6779266119929163,
                    0.1573581316379554,
                    -0.1128124860164484,
                    1.0513698879481301,
                    0.7030166467962327,
                    0.7545806594279221,
                    -0.49788155869909084,
                    -0.17982464987792338,
                    0.8073510607267375,
                    0.10339960176034299,
                    0.18461435943883756
                ],
                [
                    -0.7171710110791304,
                    -0.27481234415600997,
                    -1.1780166159556478,
                    0.24759450501557675,
                    -1.1911938198018668,
                    0.2827113765657594,
                    0.9130872087788378,
                    0.1643557407889153,
                    1.723006205182123,
                    0.053249280425112,
                    0.43678081893108855,
                    0.05274202358227092,
                    0.6445719655760646,
                    0.6388743294647591,
                    -0.2801481794761889,
                    -0.8126368266323698
                ],
                [
                    -1.0183156723811138,
                    0.4814295399809913,
                    -1.0154324257042087,
                    -0.26279912501218944,
                    -0.050815033082941226,
                    0.7577955691015498,
                    0.6256543268533605,
                    0.047234771925477745,
                    1.0406683773881003,
                    -1.0331093875970598,
                    1.6535896251563778,
                    -0.0013249415482953796,
                    0.9213333400806885,
                    -0.1993182911848488,
                    0.9539431092021237,
                    0.6521015191269749
                ],
                [
                    0.2693196395519873,
                    -0.16081440399957778,
                    1.0076347036593551,
                    0.07037798794194962,
                    0.3600696665096375,
                    -0.18205676614213104,
                    0.5320776517778514,
                    0.8383147507868686,
                    0.15511906142621484,
                    1.3678463299220525,
                    0.9432018714797077,
                    1.049850219794293,
                    -0.4222633114913623,
                    0.19812124636721845,
                    0.20784663124338482,
                    -0.834947804759717
                ],
                [
                    0.5056212360398216,
                    -0.044520781145908,
                    -0.8445442865681175,
                    0.4807921442851861,
                    -0.7470468939211244,
                    -0.18575155435485607,
                    0.3089947315199065,
                    0.4680752787332731,
                    -0.6596854697712873,
                    0.07258582296824767,
                    -0.16189871483769525,
                    0.6865319349088778,
                    0.3509354998633157,
                    -0.2922459562254686,
                    -0.3371008602043,
                    -1.1517694706195374
                ],
                [
                    -0.14952673560512605,
                    -0.14689758677825165,
                    -0.25631643628514045,
                    -0.08431799237779115,
                    -0.4593217295251836,
                    0.29126210713147505,
                    -0.045309781695924756,
                    0.01502734652662282,
                    -0.14551164875026967,
                    -0.1735753411452201,
                    0.5302348332167082,
                    -0.38973925383780716,
                    0.025691126168992533,
                    0.16405990745863924,
                    0.3717939102023685,
                    -0.7691565862731286
                ],
                [
                    -0.6887154341406309,
                    0.6864710078823133,
                    0.5994033900156964,
                    -0.5824697523809161,
                    -0.008577122587376921,
                    -0.5034620059846666,
                    -1.510588294742104,
                    -0.3769373623794225,
                    -0.2941942478021403,
                    -0.12210453481734355,
                    1.3638279016340986,
                    1.3450505406528104,
                    1.4841448361658063,
                    -0.24034756588523798,
                    1.4539202592262792,
                    0.7993158382217153
                ],
                [
                    0.6037480434588318,
                    -0.18336259497202603,
                    0.8833234594975728,
                    -0.4500027503625041,
                    0.38138049037652444,
                    -0.7805903690347425,
                    -0.19280453344458648,
                    0.31096952136378614,
                    0.33520263546684964,
                    -0.43639292026271703,
                    -0.31398939869542203,
                    -0.7488817421204663,
                    -0.060148780857371686,
                    -0.4291477129761592,
                    -0.5010172913914598,
                    -0.3536164609731671
                ],
                [
                    0.9593425029181585,
                    -0.5390346288699457,
                    -0.017795788664654748,
                    0.4353036429077794,
                    1.1107544425400693,
                    0.3169456791866436,
                    -0.019505312323658326,
                    -0.1848153675159235,
                    -0.4597275982946877,
                    -1.34358025444544,
                    -0.8883494375983617,
                    -0.6784853540008658,
                    0.418557638203542,
                    -0.4213649317635128,
                    -0.27534307774635314,
                    -0.27561720234753206
                ],
                [
                    0.7155999728530016,
                    -1.0782386994803397,
                    -1.0326900686780935,
                    -0.045465552454592176,
                    0.7185162900236539,
                    0.15704318861810665,
                    0.833197172855957,
                    -0.08757012414207781,
                    -0.5278789664651186,
                    -0.6726457059837964,
                    -0.8386449470892405,
                    1.0224401684457378,
                    -0.43186433825122517,
                    0.4138353693941339,
                    0.5542880383080804,
                    0.14130661838400066
                ],
                [
                    -0.4707366183969219,
                    -0.1433928390751063,
                    0.38422203208235434,
                    -0.39186367303317365,
                    -1.0166238654869972,
                    0.3465565427961052,
                    -0.21075671061150178,
                    0.058999197679771354,
                    -0.5492984735457391,
                    0.6242044432220141,
                    -0.3731415297901594,
                    -1.0418512981138743,
                    0.2492430713525795,
                    -0.03485676131832851,
                    -0.48639425837122113,
                    -0.10258927519021747
                ],
                [
                    -0.3196941850268128,
                    -0.7871236544121815,
                    -0.6768427031109626,
                    -0.4817894485496312,
                    -0.43915476909553447,
                    1.1490937677040827,
                    -0.7106304417775148,
                    0.2901115566312898,
                    -0.6149648716077567,
                    0.5894903503058282,
                    -0.44539982300526537,
                    -0.36405988138769846,
                    0.7509276600981327,
                    -0.27688445426340824,
                    0.20202279177801905,
                    -0.5000240039291826
                ],
                [
                    -0.7838385255485678,
                    0.6320989304509422,
                    -0.2800568338510682,
                    -0.06367144987399158,
                    0.3581065457311386,
                    -1.2511610469066297,
                    -0.08823902083493243,
                    0.8060406083147151,
                    -0.23163301069701728,
                    0.9945596833529112,
                    -0.37748222132980547,
                    0.6993964622487032,
                    1.155397446856621,
                    0.2363736653451155,
                    -0.0973545010009926,
                    -0.3210878494909039
                ],
                [
                    0.5090817548579248,
                    -0.27776535080489245,
                    1.2478724752636805,
                    -0.2742748544318172,
                    0.8189068791132049,
                    0.7839242613358718,
                    0.569423448668766,
                    0.09734737417916302,
                    0.39730093954076307,
                    0.2637385568996324,
                    -0.09850858513737819,
                    1.245689806221408,
                    -0.14447702039917118,
                    -0.6787812409114798,
                    0.624789109777351,
                    0.6766049630399656
                ],
                [
                    0.29405866473872666,
                    0.6520332585170697,
                    -0.19104413824438007,
                    1.1347522527425118,
                    0.9964524759844614,
                    -0.39237784029859296,
                    -1.259643047730171,
                    0.20304901410096754,
                    0.46430821965585695,
                    0.409087221072877,
                    -0.7595760280213011,
                    -0.7898541458780937,
                    -0.8021419905456123,
                    -0.682704422471212,
                    0.4737200634952591,
                    -1.3124642329236618
                ],
                [
                    -0.6336274316119083,
                    0.4871614332562121,
                    -0.07837710666053233,
                    0.9975367906866018,
                    0.5052073133856729,
                    0.18839472415847458,
                    -0.6647694297708303,
                    -0.02213382696238509,
                    0.48622545975433895,
                    0.22923885224256982,
                    0.011544646954571487,
                    -0.2279559211396234,
                    -0.28801210794592064,
                    1.004575907065976,
                    -0.010182607618687684,
                    -0.5812655075726885
                ],
                [
                    -1.1173688179093377,
                    -0.5045253186348336,
                    0.46886997217177645,
                    0.07582133494502509,
                    1.1044339690248735,
                    0.49777004087317256,
                    0.449227716562885,
                    0.013887527180012495,
                    1.1426098801495577,
                    -0.619187973066579,
                    0.7112225940289251,
                    0.048240982406422446,
                    0.4260357352614142,
                    -0.3375827996470019,
                    -0.5139347859411522,
                    -0.3357369562044303
                ],
                [
                    0.8367737106149165,
                    -0.0893868142741283,
                    -0.004807580067816556,
                    -0.5866775794268942,
                    0.3926425892792655,
                    -0.21717894683303882,
                    -0.031188536823025047,
                    0.10382123265086392,
                    -0.22387110030531693,
                    -0.49859817478500446,
                    0.6485575492378125,
                    0.17494587241199003,
                    0.04233134836508443,
                    0.15048385021966237,
                    -0.008060018800134332,
                    0.5286896569238682
                ],
                [
                    -0.046067434722775205,
                    0.6805376840224966,
                    -1.1315286883022837,
                    0.11730957661359533,
                    -0.0975048351476061,
                    -0.13062303147352086,
                    -0.026441322539604083,
                    -0.25077266321992425,
                    0.49858174154556073,
                    0.5552456883507842,
                    0.4274881350665713,
                    0.6429247777122687,
                    -0.33019118994217456,
                    -0.8608900906411615,
                    -0.5707936503305417,
                    -0.0006351779128315983
                ],
                [
                    0.5764285210224039,
                    0.76037933893971,
                    -0.13198912796461104,
                    -0.3840580457745596,
                    0.5925486373880865,
                    -0.13271462730821865,
                    -0.45736612241173713,
                    -1.1607771401236595,
                    0.19530245119829398,
                    -1.3594904873796192,
                    -0.3725026767759589,
                    -0.6649852884721362,
                    1.1052554674510249,
                    -0.7142571480729955,
                    -0.5315452225122855,
                    -0.9841452794008207
                ],
                [
                    -0.08366733670214174,
                    0.09676628838352921,
                    0.1836834839768074,
                    -0.3462024796399005,
                    1.4849472014410774,
                    -0.4616788038264909,
                    0.0956267532437347,
                    -0.7158454367437216,
                    -0.3715930634391867,
                    0.2310600002472268,
                    -0.4713224511095752,
                    -0.4505196735703476,
                    0.04186015774423254,
                    -0.04237041346087999,
                    0.10265864108542633,
                    0.008271653304075536
                ],
                [
                    0.8372009508257017,
                    -0.10197289804356924,
                    -1.0738760722785594,
                    0.23525795216239473,
                    0.5562137047869506,
                    -0.04796217346355632,
                    0.35064487074931133,
                    -0.11518538042950663,
                    0.42274007033019756,
                    -0.36254076844774547,
                    -0.39669124497981456,
                    0.21090320999402928,
                    0.6587996159649104,
                    1.0467065891390048,
                    1.3253925953561394,
                    -0.7169521027974038
                ],
                [
                    -0.9155786167080082,
                    0.378820159004253,
                    0.29025802448114113,
                    -0.7508375098048397,
                    0.5098259664155034,
                    0.04133722763141485,
                    0.13648138945494379,
                    -0.3423938810784748,
                    -0.46207868789775136,
                    -0.47405116858686513,
                    -0.41986631162333293,
                    -0.17650601604637453,
                    0.18224916116986845,
                    0.4785994917585202,
                    -0.6490981559284943,
                    -0.25038354830508036
                ],
                [
                    1.1614860152345068,
                    0.6038749644454064,
                    -0.8912586786705297,
                    -0.5693097214784025,
                    -0.6240932965284286,
                    0.18244230340820167,
                    0.5156207594201802,
                    1.3095873097284578,
                    0.336087402974023,
                    -0.7196908512979965,
                    0.7993154375921178,
                    -0.13674488863851694,
                    -0.8896690149960085,
                    -0.5576368521598444,
                    -0.40774570341642763,
                    -0.9059391912773757
                ],
                [
                    -0.34197065292339185,
                    -1.5712836241370343,
                    0.28414371148333134,
                    -0.5479225487130832,
                    -0.297183716046483,
                    -0.7990277047711224,
                    0.469775053897832,
                    0.6376402690779015,
                    0.3478669152732018,
                    -0.29699984760004466,
                    0.19251402292223807,
                    -0.9128194527010512,
                    0.7948536400368105,
                    -0.25644312725669405,
                    1.6555230767510831,
                    0.2951336606106136
                ],
                [
                    0.17045670712799235,
                    -0.6902471254738319,
                    -0.2551907120226964,
                    -0.19944848701880075,
                    -0.5571622442626061,
                    0.9125129868784976,
                    0.7664590618583395,
                    0.3008482039685069,
                    0.24308662481879442,
                    0.4440978008500485,
                    -0.2721148863631626,
                    0.1829226005401807,
                    0.8628777920172586,
                    1.42392462760114,
                    0.3483551064772274,
                    -0.6293520194111125
                ],
                [
                    -1.249578742000245,
                    -0.7718018580349072,
                    -0.05992362177196494,
                    0.6492176494053394,
                    0.16314127259129266,
                    -0.007255885922322204,
                    0.8804657304652919,
                    0.08105280358813478,
                    -0.052566662133274586,
                    0.7063506063039068,
                    0.5230720350588869,
                    0.31754704006087453,
                    0.6975786782046288,
                    0.310222667540774,
                    -0.4729640753998932,
                    0.8076710000218695
                ],
                [
                    0.09449012089742971,
                    -0.3626966113791753,
                    -0.8341552569329926,
                    -0.04812981824818009,
                    -0.7211273064310961,
                    0.19398967550633284,
                    0.4938526912759171,
                    0.007483368045257603,
                    0.4597831002035548,
                    -0.5939965004298291,
                    -0.25560341586629204,
                    -0.47118990877095945,
                    0.2777699316529037,
                    -0.23263371047666553,
                    0.12306213881496596,
                    -0.06632637763079127
                ],
                [
                    0.04371626333204712,
                    0.4247816647747588,
                    0.4357279538499282,
                    -1.1034428084068097,
                    0.31826519703216344,
                    -0.9385254945156223,
                    -0.44614086705645745,
                    -0.3468151852373933,
                    1.051172703045801,
                    -0.11237192109277114,
                    -0.3639786100654622,
                    -0.5236734435800499,
                    0.485116762357579,
                    0.24228098138742865,
                    1.558547046506246,
                    -0.47412141130291025
                ],
                [
                    -0.14687440921943046,
                    -0.331218457819756,
                    0.9561342109389126,
                    1.0474576086238385,
                    -0.35526175459817716,
                    0.5709840564006076,
                    1.0436661602432988,
                    -0.08682787861898077,
                    0.3666645637134713,
                    0.2133095215390538,
                    -0.07859737773278141,
                    -0.2841498571810062,
                    0.5452293087561974,
                    -0.51505875600572,
                    -0.22691424087457,
                    0.5052568025765395
                ],
                [
                    -0.5446950992346948,
                    1.4077490540976334,
                    -0.7885549249598441,
                    0.13278515183859252,
                    -1.227145925019468,
                    1.1012122863707299,
                    0.0649118092677742,
                    1.0783526348561252,
                    0.5261269037180776,
                    -0.04973660700137235,
                    -0.5218261856625246,
                    0.10922998055792305,
                    -0.2871165073060822,
                    0.2619909758659632,
                    -0.5596237886970247,
                    -0.0050593049436748
                ],
                [
                    1.1229002013445655,
                    0.9983021816350702,
                    1.1789290244565318,
                    0.44847884243695696,
                    -0.27703386112095096,
                    -0.0024726524842712642,
                    -0.7449554719836267,
                    -0.8921579241558726,
                    0.002569141292920395,
                    -0.3809352552572243,
                    0.5120325107011423,
                    0.03612722598881269,
                    -0.21254160236834765,
                    -0.028230748232503867,
                    -1.1082164691524967,
                    0.5290973178727992
                ],
                [
                    0.08431256647070069,
                    -0.6869763260855613,
                    -0.423208431938493,
                    -0.8657760817816068,
                    -0.34921747194693675,
                    0.648080955910265,
                    -0.6084652954230367,
                    -0.07537754007735296,
                    1.1063006910842579,
                    -0.7003205352713532,
                    -0.10655822275478408,
                    0.8697535097796283,
                    1.0616504420127084,
                    -0.7790957446645502,
                    -0.33213565106182824,
                    -1.0531217800548445
                ],
                [
                    -0.05964472401272025,
                    -0.5387221292962064,
                    -0.018501841728861067,
                    0.36335743182195085,
                    -0.5101100889726518,
                    -1.1166673904491644,
                    0.7332853873985767,
                    -0.7614907859390679,
                    0.27286511457096685,
                    -0.17252527403848858,
                    1.5410852053258002,
                    -0.4496363206398005,
                    0.6281665326428418,
                    -0.014864378879038269,
                    -0.20949294221850912,
                    -0.17612504672477688
                ],
                [
                    1.2808348868187096,
                    -0.09988843615450226,
                    0.7054246627220864,
                    0.8641509961269054,
                    0.7284019173222173,
                    1.109083236201934,
                    1.3397485496614796,
                    -0.44436690723441147,
                    0.4100349826927983,
                    -0.38405827130394815,
                    -0.10601701881727643,
                    -0.8211436752742131,
                    0.48347747299080357,
                    0.37725349746468295,
                    0.16151940382685173,
                    -0.48791458713721947
                ],
                [
                    0.48000663893643586,
                    1.590455827551469,
                    -0.19134952009313666,
                    0.29710853995686926,
                    -0.08939324687266997,
                    -1.0070016757355722,
                    -0.5453981944609825,
                    0.19514221610383128,
                    0.17240115107605547,
                    -0.6972072233186871,
                    -0.5434275651409086,
                    -0.6455379941597948,
                    0.20816950635259854,
                    1.1370448177515005,
                    0.1369070781209511,
                    -0.11699026449355784
                ],
                [
                    -0.3806647799605819,
                    0.9693337781044035,
                    -0.9472855678494542,
                    -0.1752121916420265,
                    0.3759771525029723,
                    -0.0372093827326901,
                    0.6389322927586518,
                    -0.22523181796649835,
                    0.46098097295999896,
                    0.9428928693454396,
                    -0.4272844345408227,
                    0.39150518719957783,
                    0.9864731244951157,
                    -0.11688094746561092,
                    0.1910975306452873,
                    1.3157592863110803
                ],
                [
                    -0.3340228209702022,
                    0.05783360675723374,
                    -1.2144546173233777,
                    1.0120956983601712,
                    0.48228041041392145,
                    0.11211512401786215,
                    -0.36352536771630134,
                    0.859694110897961,
                    -0.3875721697505434,
                    -0.13317865856972358,
                    -0.21370595522522595,
                    -0.6032123412496383,
                    1.04528493998895,
                    -0.21033321835044308,
                    -0.30115240460497267,
                    0.14226467087481642
                ],
                [
                    -0.7728580741779603,
                    -0.26406360632619075,
                    0.6161512769057742,
                    -0.44947709642591555,
                    -1.3706659466211524,
                    -0.8421742390154021,
                    0.1389400749690582,
                    -0.09217818572766824,
                    0.07921315745239318,
                    -0.25342261107281555,
                    -0.36504694890756734,
                    -0.2960618736841448,
                    1.163558630505556,
                    0.382090260114933,
                    0.5555976975151858,
                    0.38614048249880073
                ],
                [
                    0.28496375664235873,
                    -0.1065854199878425,
                    1.0009620536509058,
                    -0.24637866703456393,
                    -0.21887452513582265,
                    0.22978371979254036,
                    0.18903322227327843,
                    -0.19339450093014174,
                    -0.2260067604849126,
                    1.1427378934293564,
                    -0.9961145217234203,
                    0.6868283817916077,
                    -0.40442221381508286,
                    -0.1829741077662775,
                    0.18761853557871755,
                    -1.0281998648248774
                ],
                [
                    0.8653708826722334,
                    0.8031804433689945,
                    0.4834616890057291,
                    0.3190414393027944,
                    -0.38096056954853535,
                    0.21688496399125828,
                    0.5565833462122387,
                    -0.631033165568898,
                    0.3843750607152624,
                    -0.6244532855188788,
                    -0.11330938011802243,
                    0.7123390521086728,
                    -0.6497713549032939,
                    -0.009362716774539828,
                    0.12467197126844168,
                    -0.44875212626457645
                ],
                [
                    -0.4951891412815539,
                    0.6157631513729893,
                    0.7036163597015143,
                    -0.3934715324397122,
                    -0.024260334778308055,
                    -1.0996427497126022,
                    0.940635411500506,
                    -0.4677288751377156,
                    -0.3115776280460584,
                    0.26976580181556287,
                    -0.3567995170628017,
                    -0.5176633897081104,
                    0.2183500224755134,
                    0.42861990106579695,
                    0.6025847712272309,
                    -0.4522706136153158
                ],
                [
                    0.5530144732890823,
                    1.1417269644687003,
                    0.8119212103756605,
                    -1.2770809045549496,
                    -0.10129818074200483,
                    -0.8510622373899044,
                    0.5180899097287875,
                    -0.19269941811955374,
                    -0.8666937036757766,
                    -0.13958644844025708,
                    0.44670280253028954,
                    0.5866106526951262,
                    -0.3936925964626846,
                    -0.10384187489587338,
                    -0.36087807065941657,
                    0.3672722934055054
                ],
                [
                    -0.012193381699625007,
                    0.062160167705043644,
                    0.732290820089141,
                    0.9709937107773792,
                    0.4789956990391176,
                    -0.684003413417445,
                    -0.8451819951461657,
                    1.1172565589073886,
                    -0.008544137918272028,
                    -0.46551249600622463,
                    0.2540099125854274,
                    0.8465627962487989,
                    0.7031003422026337,
                    -0.3028267828993637,
                    0.28584226517630806,
                    0.7957046302570359
                ],
                [
                    0.510854677993349,
                    0.26975287628235833,
                    -1.022026467857699,
                    -0.05261045768215397,
                    0.5123058430912072,
                    0.3958130991480569,
                    -0.6643986568040438,
                    -0.8925137044456818,
                    -0.8182056932070563,
                    1.363906565667309,
                    0.22999557823184114,
                    -1.099056963690608,
                    -0.2513680767234006,
                    -0.038619518100877104,
                    0.7695152191926172,
                    -0.18770795799869416
                ],
                [
                    0.40205933876979383,
                    -0.34989286904972705,
                    -0.24810440375367376,
                    0.6315329513583553,
                    -0.4040574054046692,
                    0.5969699421480065,
                    0.09697123790806052,
                    -0.20039417874672327,
                    -0.7995400014455063,
                    -0.8086591653883892,
                    -0.4129718000675758,
                    -0.5075629606848496,
                    -0.9438642903462181,
                    -0.5161165046458049,
                    0.8399070608675776,
                    0.18173039834571705
                ],
                [
                    0.2856904422575942,
                    -0.6026563943719162,
                    -0.1206057676265745,
                    0.38740032734433116,
                    -0.4106365387640627,
                    -0.33457673702916124,
                    0.44542320423539183,
                    -0.887841804963212,
                    0.16204942989532872,
                    -0.4142172239502406,
                    0.1780584045885942,
                    -0.05790738356386896,
                    -0.1095015388228436,
                    -0.23579386538804736,
                    -0.5009115902741741,
                    0.17658622725728443
                ],
                [
                    -0.37319681427480395,
                    0.03921324587030314,
                    -0.27932418989101965,
                    -0.2924159995536319,
                    0.4810407400151447,
                    0.2654690504125851,
                    -0.913584321947387,
                    -0.05739293929453335,
                    -0.23010759921648077,
                    0.8552587918633654,
                    0.31373414013766887,
                    -0.40159728266380706,
                    -0.36202330546176015,
                    -0.6788508195563799,
                    -0.5554838563909796,
                    -0.4019579271087965
                ],
                [
                    0.7034869051873285,
                    0.9576327027857867,
                    -0.9057923115616842,
                    0.973606826785265,
                    -1.2703198151342106,
                    0.7790392250862109,
                    0.7142640008244434,
                    -0.1685320274043291,
                    0.3768543217133078,
                    -0.11026413666212234,
                    -0.4620185815527524,
                    0.06491396453021837,
                    -0.3480080091337009,
                    -0.7210706146907969,
                    -0.39209754368838345,
                    -0.08877110243943243
                ],
                [
                    0.028822850063550697,
                    -0.0043552203414756185,
                    -0.5049599032421265,
                    -0.14415273883482255,
                    0.4935134079614562,
                    0.39670421333052774,
                    -0.3670694351454226,
                    0.09086942134989882,
                    -0.21172383239749162,
                    -1.1728666519730957,
                    -0.02712633791053268,
                    -0.004968621757958197,
                    0.5760604949921526,
                    -0.3191059905296968,
                    0.8359626344213273,
                    -0.5992704037867874
                ],
                [
                    0.058449106844365245,
                    -1.1188481106649386,
                    0.722793419940479,
                    -0.3921146563627841,
                    -0.32219423987368867,
                    -0.4029464446069234,
                    -0.002125987216413712,
                    0.14404440090775522,
                    0.22087143781952065,
                    -0.495003003438676,
                    0.6834828932911597,
                    0.6041407907200927,
                    0.6321465245257999,
                    0.3451299529956044,
                    -0.26413639284137835,
                    0.5707560520472984
                ],
                [
                    -0.3676990360934892,
                    0.19320362885115294,
                    -0.41631243535574364,
                    -0.07001257043593889,
                    0.20656129452402838,
                    -0.7207268392720234,
                    0.493283727710666,
                    -0.4132435092039073,
                    -0.24139756457484207,
                    -0.16836180945768994,
                    -0.7102079445307105,
                    0.9691308624080764,
                    -0.28462293453397985,
                    -0.972821310165399,
                    -1.1388367186569246,
                    -0.33226290268711567
                ],
                [
                    0.03097562395807738,
                    0.015185692192195585,
                    0.1825993702612762,
                    -0.8331465789236293,
                    0.005745007007529077,
                    0.47651320850523465,
                    0.22108224519591868,
                    -0.3413817926724332,
                    0.4342354328603519,
                    0.44260681771161126,
                    0.3909160306191708,
                    0.3250598159843118,
                    0.0263373174780216,
                    0.874013745789727,
                    -0.03539146988506476,
                    -0.007303567826999218
                ],
                [
                    -0.6876610088511727,
                    -1.2138715486862475,
                    1.2711054471816232,
                    -0.5769270256633313,
                    -0.01654648400710533,
                    1.3542703454525327,
                    -0.4048520891032609,
                    0.0014570539722226672,
                    0.3470402106358891,
                    -0.08112674875262177,
                    -0.40908385833087646,
                    -0.3488144964501791,
                    -0.044473614902095115,
                    0.15251995781149075,
                    1.2584477918192243,
                    0.08995861501770303
                ],
                [
                    -0.620990946769406,
                    0.1629098225964719,
                    -1.393229871705128,
                    -0.08714311418851997,
                    0.18625135181039756,
                    0.21395609281440375,
                    -0.481349536759698,
                    -0.2075586065796197,
                    0.10193734006739652,
                    -0.8316766569869614,
                    -0.04981583072911425,
                    0.4082567059588024,
                    -0.3895404305065595,
                    1.084493875351691,
                    0.5176418062377024,
                    -0.0002745558442802773
                ],
                [
                    -0.2947005813564707,
                    1.239552136757036,
                    0.2417596501980509,
                    -1.4678498483499633,
                    0.49273872290189935,
                    -0.21373302204717837,
                    -0.3734729710898281,
                    0.13413048869173436,
                    -0.7394477481101864,
                    -0.11402945840742781,
                    -0.031671783151508925,
                    -0.9073143993507797,
                    0.2826342166808671,
                    -0.4163207974207163,
                    0.8003075103600001,
                    -0.016854224031334148
                ],
                [
                    0.48815061791664205,
                    0.5384639223690454,
                    0.20403565562720316,
                    -0.28633978381776926,
                    -0.9832111176082269,
                    0.47319959323931426,
                    0.09047456615844199,
                    -0.7903309666476951,
                    -1.717165844224338,
                    0.0429467753632654,
                    0.6484291764810195,
                    -0.5135883846259154,
                    -0.732300753549571,
                    -0.021873557440272612,
                    0.8639154562313401,
                    -0.018685915380544073
                ],
                [
                    0.49609140753215614,
                    -0.37389148280802675,
                    1.5324900468535585,
                    0.053037239086003427,
                    0.4500687713682334,
                    0.16945775775240848,
                    0.3568250018012581,
                    0.5458851039203404,
                    -0.6241797412448449,
                    0.27364812541294004,
                    0.887455496680187,
                    -0.09341626965384246,
                    -0.6657983105420368,
                    0.9396475668145562,
                    0.7943508536225965,
                    -0.3380706988121588
                ],
                [
                    0.3495258160040218,
                    0.545805405195563,
                    -0.4222196467862707,
                    -0.3261427613911381,
                    0.0710632776459877,
                    -0.30126841854794334,
                    0.3554973759995835,
                    -0.3495528809272014,
                    0.8847355669807409,
                    -0.8385938093716302,
                    0.4516169106309142,
                    -0.6573329894147834,
                    0.12443796157627311,
                    0.3196677929484771,
                    -0.9563301925480975,
                    -0.5575357591003988
                ],
                [
                    -0.617665512068515,
                    0.20983473555251697,
                    0.9004307121875291,
                    0.6210888651882721,
                    0.3609801227610579,
                    0.09565301389396985,
                    -0.3187158613754263,
                    0.07074466015566741,
                    -0.41639540561162897,
                    -0.28352559784073283,
                    -0.11460018624584375,
                    -0.6366294732569179,
                    0.7254948863701733,
                    -0.08878499245615025,
                    0.20559704690065841,
                    0.46059016920255913
                ],
                [
                    -1.3632898696677285,
                    0.7836753441711497,
                    0.018250959472336143,
                    0.2881750835781052,
                    -0.5915837254730447,
                    0.5084504476238848,
                    0.5409185444167887,
                    -0.4526734382160342,
                    -0.3737607102578157,
                    -0.18863694804700692,
                    -0.8158146692695332,
                    -0.5543359886691589,
                    -0.8639831085005725,
                    0.6421475963108094,
                    0.28433505250427943,
                    0.48999236511667155
                ],
                [
                    0.31531163357204134,
                    -0.5746066454083212,
                    0.7053456601374429,
                    -0.4068389511936591,
                    -0.6653683454106446,
                    -1.013457806494163,
                    0.8815319020713019,
                    0.10087161235418174,
                    -0.8232270819251339,
                    0.4527763208585894,
                    -0.01917084707479686,
                    0.4479489445094212,
                    0.47804288142884926,
                    -0.6851406934639767,
                    -0.07137796182049935,
                    -0.9561196872512632
                ],
                [
                    1.5038756446228843,
                    0.15344372611217838,
                    -0.8862853492407551,
                    -0.44485857782348964,
                    -0.03651398323236339,
                    -0.023229287887363823,
                    0.18072815460884506,
                    -0.153571026592255,
                    -0.8809775530076708,
                    -0.3014964077068517,
                    0.444682637905052,
                    -1.040550035861878,
                    0.6134029103515071,
                    -0.0910244017060572,
                    0.8516115908578581,
                    -0.05505952350700744
                ],
                [
                    -0.08032501768874042,
                    0.049819678616837455,
                    0.19659481303592646,
                    -0.25929814714526717,
                    -0.5905344592358979,
                    0.010618385343946393,
                    -0.9150342109424947,
                    -0.24495383861057296,
                    0.8731171095003915,
                    0.0009606792723208238,
                    0.5709639826021207,
                    -0.9823319684699126,
                    0.17129690642645742,
                    0.23020272015075738,
                    0.8776704712558399,
                    0.23066617679017726
                ],
                [
                    -0.034396364185948096,
                    -0.10029927022879365,
                    -0.16231914830033653,
                    -0.2807235780301528,
                    0.9103920921353228,
                    -0.09658674292212793,
                    0.7049850654469018,
                    0.5115971361467326,
                    0.1283138270935585,
                    -1.0773705078924536,
                    -0.01040240378622203,
                    -0.0444625916656041,
                    -0.39237825221993844,
                    -0.03205336910848835,
                    0.0007485403628387571,
                    1.03650428617146
                ],
                [
                    0.14185116539473885,
                    0.7103539205124021,
                    -0.2875785925697034,
                    0.9661642785769488,
                    -0.22182977287681377,
                    1.2566296974180713,
                    0.07440050316473137,
                    0.8629598579902918,
                    -0.46498368387674766,
                    -0.5418618435406027,
                    0.17331578536217093,
                    -0.6586593773945824,
                    0.4075654384452024,
                    -0.3777319733430917,
                    -0.20813455203715817,
                    -0.9769727293776164
                ],
                [
                    0.4697497397144733,
                    0.498057826881046,
                    0.22257534646094215,
                    -0.468541565427063,
                    -0.09012220428601841,
                    0.47964470213360266,
                    -0.28068471727941746,
                    -0.246929559247028,
                    -0.9262382089784923,
                    0.29651313053460276,
                    -0.23850755214885613,
                    -1.0652460849836718,
                    -0.47989724921829613,
                    -0.09924062120803105,
                    0.14500225709811898,
                    0.3012565275796635
                ],
                [
                    -0.1452837362219821,
                    0.35558663972857457,
                    0.04327461819374579,
                    0.20268309222644132,
                    1.2779943532390192,
                    -0.9521970314162026,
                    -1.2182571337638715,
                    -0.3568172385617454,
                    0.5010392377533384,
                    0.10914971989416852,
                    -0.8789564333392572,
                    0.3360975646496625,
                    0.493083686341438,
                    -0.12496436146768701,
                    -0.6163221446769961,
                    0.46263608874608425
                ],
                [
                    0.3807711998436372,
                    -0.7621676829111261,
                    0.19058888700350987,
                    -0.7587944862734972,
                    -0.44573569938680413,
                    -0.902921089970459,
                    -0.363481578409244,
                    -1.285403513613052,
                    0.6583999290252527,
                    0.6684738459064228,
                    -0.4583681823921556,
                    0.11616741705022358,
                    -1.1758509480747086,
                    -0.48734761739275345,
                    -1.1708999868656553,
                    0.4288258134082138
                ],
                [
                    0.1668702400754499,
                    -0.4680489603104262,
                    -0.48810548193996944,
                    -0.5066999188537534,
                    -0.810224810319423,
                    0.14483371044431503,
                    -0.35011576667027505,
                    -0.18932042253256928,
                    -0.4708370720446252,
                    0.25404419457237737,
                    -0.7444336632733004,
                    -0.013549516633210723,
                    1.3257427086595142,
                    0.2518495082221937,
                    -0.19367540698396568,
                    0.33397090272083124
                ],
                [
                    -0.8841675494356684,
                    -0.11836568033517217,
                    0.05384572003418471,
                    -1.2166608225011328,
                    0.078502541570486,
                    -1.1255611226074334,
                    0.7769531556826739,
                    -0.12052642631356415,
                    0.3948253681456066,
                    0.30624868713937603,
                    0.15533217784838138,
                    0.2676064754236729,
                    0.5497484884265457,
                    0.2222697396026289,
                    -0.6597577267861111,
                    0.8412673199212845
                ],
                [
                    0.22296706682299614,
                    -2.449911972929097,
                    -0.614799569973325,
                    0.33297872205965295,
                    -0.002965077754034962,
                    -0.8476205747350438,
                    0.49473717414971213,
                    0.11129227690621628,
                    -0.23444218920276008,
                    0.36991226145916073,
                    0.1151843377096126,
                    -1.730032556619972,
                    0.4724227654904591,
                    -0.24610324205885692,
                    0.15869349521392104,
                    -0.8786137753225378
                ],
                [
                    0.2478948128075037,
                    0.28507294432617075,
                    -0.14611893158303726,
                    -0.9557353809051103,
                    -0.4413788731180156,
                    -0.4471675331975409,
                    -0.2455098075651557,
                    -0.23864183980407344,
                    -0.25225869706700205,
                    -0.6100588254023064,
                    0.4927922263903569,
                    -0.1100382232499679,
                    -1.8846934436480518,
                    -0.34475473191840145,
                    -0.11576457272936244,
                    -0.3777131292896677
                ],
                [
                    -1.2131704610946212,
                    -0.5635245620355744,
                    0.6847952092922589,
                    -0.3864033200656007,
                    0.2351970934034435,
                    -0.6172693794832781,
                    1.0531345148572477,
                    0.3580915958363979,
                    0.38036294543636096,
                    -0.7895896031466774,
                    -0.5383443550316424,
                    0.03610124644740241,
                    0.2864299496380475,
                    -0.25147501001900036,
                    0.2379051411208729,
                    -0.18943977387096614
                ],
                [
                    0.348309828735485,
                    1.3914896033958195,
                    -0.43754527132677523,
                    0.6343763040866061,
                    -0.21472091458246786,
                    -0.3557416840979655,
                    0.2533149318633201,
                    -0.03723715159339116,
                    0.07617721006505508,
                    -0.5006188446101225,
                    -0.5539265781744735,
                    0.678285413929309,
                    0.6018135710508417,
                    0.31345760707856546,
                    0.9628154684496197,
                    -0.005129566808216721
                ],
                [
                    -0.510209828083557,
                    -0.20999302157349053,
                    0.8947694417901874,
                    -1.9502610635756286,
                    -0.5021103449009092,
                    -0.04647479804778757,
                    -0.8258495193671122,
                    0.6444494916570542,
                    -0.08023352958294683,
                    -0.33831704242955823,
                    -0.6277538851953436,
                    -0.9508018197726167,
                    -0.8320788966943742,
                    -0.032319498741965026,
                    0.30345001280621936,
                    -1.1142336228195233
                ],
                [
                    -0.018828539258973747,
                    1.3830443279508937,
                    0.6201294175560313,
                    -0.699606787375359,
                    -0.9200587042492793,
                    0.36206067096635447,
                    -0.6530298946006132,
                    -0.40254356322539797,
                    -0.2544404646154103,
                    -0.5961981677609521,
                    -0.6980447333218862,
                    -0.5618578698025043,
                    0.14926495420031094,
                    -1.6609595005292497,
                    0.29816685516492825,
                    0.22266332622729998
                ],
                [
                    0.8925384999004773,
                    0.3047466010305262,
                    -0.0638124967655994,
                    -0.463533911072456,
                    0.9711820066652626,
                    0.5334170638283519,
                    0.6053894313560427,
                    1.1059833768125584,
                    0.05038902775670801,
                    -0.021119853884015535,
                    -0.7434007962375673,
                    0.5772669237097463,
                    -0.5387421807625763,
                    0.16237092941831063,
                    -0.4283507806610749,
                    -0.7879631478203972
                ],
                [
                    -1.02385301218322,
                    -0.19386929544207063,
                    0.7612500356403475,
                    -0.5417893975403185,
                    0.66545540150697,
                    -0.07265858601241866,
                    -0.3809423715829493,
                    -0.27751645193681607,
                    0.4966015641317131,
                    0.31218874634220145,
                    -0.004792684990950874,
                    -0.5217248202089569,
                    0.46881067696392015,
                    0.5285979459207377,
                    1.0910487663098127,
                    -1.5092762645863462
                ],
                [
                    0.6589734681722235,
                    -0.7825444918115363,
                    -0.40386014955750466,
                    -0.5731843746889119,
                    0.18218229903202784,
                    0.5376314253905404,
                    -0.3275130631601571,
                    -0.24121955085117713,
                    0.17328543376836114,
                    0.025667963334282267,
                    -0.06572133950850342,
                    1.7770112461273615,
                    -0.43958202830236526,
                    -0.8479007687688013,
                    -0.7908059128478568,
                    1.3406555419980895
                ],
                [
                    0.32758378749652955,
                    -0.9394662638083333,
                    -0.4189091900816211,
                    0.7968323685305277,
                    -0.9216558576250329,
                    0.99626869619074,
                    0.06751722159389142,
                    -0.7290789403896567,
                    0.6135327938191795,
                    0.17199968931116696,
                    -1.5103921813863193,
                    0.447840195749584,
                    -0.27639094544843,
                    -0.13815106119467624,
                    -0.10102822464933413,
                    -0.4748558022605428
                ],
                [
                    -0.33342417687392484,
                    0.14909714106910135,
                    -0.3914750261387908,
                    1.9756339924757143,
                    -0.3088378650588034,
                    -0.4849476597531307,
                    -0.32195653015574827,
                    -0.3835217548376677,
                    -1.1976051230594273,
                    0.2804488899313814,
                    0.02384022288854622,
                    0.17735555005547896,
                    -0.0759651072621477,
                    -0.3403086789122726,
                    -0.7932314352872378,
                    0.13160397467224047
                ],
                [
                    0.1616377620708375,
                    -0.1531998444789666,
                    -0.21850584709023957,
                    0.9168968629803976,
                    0.7246277112580313,
                    0.014456130533077649,
                    -0.22439845154732807,
                    0.8145493340444617,
                    1.4001408053594493,
                    0.4599099419262239,
                    0.6198059161602565,
                    0.06495238985362053,
                    -0.4748775313435101,
                    -1.3363359982625382,
                    0.7019262070927993,
                    0.8479616960516422
                ],
                [
                    0.11149472524336773,
                    -0.8318175994373036,
                    0.11245968780218565,
                    0.10402480693817928,
                    0.48588102089105195,
                    0.21938803697309275,
                    0.08851949443718547,
                    -0.4998232108948963,
                    -0.32859788263722284,
                    0.26101165722339364,
                    0.4384529698979194,
                    -0.3570865034590993,
                    -0.9089840457630814,
                    -1.3857501204969103,
                    0.055614739985625064,
                    0.35336715427520177
                ],
                [
                    -0.49627840253323513,
                    -0.2354441602792848,
                    0.565980985887453,
                    -0.7426651509787056,
                    0.8074353456889778,
                    -0.7485643009466433,
                    -0.49098216960970265,
                    0.4142264830534898,
                    0.7896430564936933,
                    -0.4027565831936923,
                    0.6833962279293067,
                    0.7644347949362311,
                    -0.7193998350356179,
                    0.37319620246108126,
                    -0.5850990374500107,
                    0.9817133015121873
                ],
                [
                    -0.372113699645281,
                    0.34613342888898807,
                    0.31557033327604667,
                    -0.6151950975519423,
                    -0.23596312850582263,
                    1.006501602827248,
                    -0.4322838542531974,
                    -0.03450219133182203,
                    -0.12377205251992116,
                    -1.5971442346826865,
                    -0.2008834063293145,
                    -0.9751547508327425,
                    -0.03430588707772005,
                    -0.3957618476296444,
                    -1.0047728848904123,
                    0.7640696344054804
                ],
                [
                    -0.48810302332607336,
                    0.6399819000099761,
                    -0.4758228466121571,
                    -0.99197061530863,
                    0.5366252429930299,
                    0.8853423203672485,
                    0.1047938296161946,
                    -0.9119462190415031,
                    -0.35819508486270557,
                    -0.10031931777074904,
                    1.2064451296963086,
                    -0.4772320830993008,
                    0.47323803558629546,
                    -0.6345648648909945,
                    -0.8371905727668577,
                    -0.2945937811974489
                ],
                [
                    1.66274408497443,
                    -0.039344763374071404,
                    -0.47451147073896227,
                    0.31759504192689275,
                    -0.2830942604825139,
                    0.5655058796559231,
                    0.6276978545499919,
                    0.497253861719071,
                    -0.49936420449834595,
                    -0.08516887726047984,
                    0.5203183925163113,
                    -0.41470952662651667,
                    -0.36075168522178874,
                    -0.16353350412295753,
                    0.6130128741050088,
                    -1.3483326945136174
                ],
                [
                    1.1058403930623208,
                    -1.1779737275837205,
                    0.0019036587501685418,
                    -0.3693492746242872,
                    -0.12247535273277683,
                    0.6141208986925359,
                    -0.4597613001732002,
                    1.0983594225214706,
                    0.5266543651567659,
                    -0.40608166897523584,
                    1.466630383004995,
                    0.6485857300684341,
                    -0.5606905320757686,
                    -0.8402038515732986,
                    0.8093843588358207,
                    -0.21393326782331268
                ],
                [
                    0.03754915814871983,
                    0.6318408680849774,
                    0.4358515845544735,
                    -0.3596833520283277,
                    -0.7020227332244947,
                    -0.14266202267411165,
                    -0.3664941290945385,
                    1.1259228950696176,
                    0.5293229649488939,
                    -0.7247265076123934,
                    -0.013108686780716038,
                    -1.1348194765202477,
                    -0.8064496482347608,
                    0.27389180102160054,
                    0.3095544314017084,
                    -0.8793784989948489
                ],
                [
                    -0.4744311323097685,
                    -0.3195012309877172,
                    0.36997073658381724,
                    -0.9577932898109349,
                    0.4409895389362254,
                    0.1050085943317308,
                    -0.6009855122523429,
                    0.21906398491497334,
                    0.011198762048436424,
                    -0.529671425172305,
                    0.9699302792640722,
                    0.9124110707535469,
                    -0.41470834051219235,
                    -0.29839553285506093,
                    -0.804767949477676,
                    0.09254590662337281
                ],
                [
                    0.4620248443388457,
                    0.8112077947299611,
                    -0.10583025315814489,
                    0.14100194535447186,
                    -0.10300428037382145,
                    0.516692199956992,
                    0.5169933199341762,
                    0.7704274660076742,
                    1.0809617751263574,
                    -0.2469908496330273,
                    0.2720773326371793,
                    -1.0084745511304511,
                    0.1996707888245232,
                    0.03867321284426191,
                    -0.05491051431440623,
                    -0.5050653260442909
                ],
                [
                    -0.3482227125242548,
                    1.229633723718621,
                    0.5075614640086703,
                    -0.18793835920211835,
                    0.5773748416788229,
                    -0.20659666457278403,
                    0.806509437120747,
                    0.8935706001583269,
                    -0.1449386980116664,
                    -0.09398647037456308,
                    0.09422022945857467,
                    -0.5057882208975668,
                    -0.5223638507884697,
                    0.16569933152793884,
                    -0.492275229730453,
                    -0.3327565664367241
                ],
                [
                    0.039895548193888956,
                    -1.075787577957034,
                    0.05128898383376486,
                    -0.33809175054391105,
                    -0.30840755517637086,
                    0.29957894835969984,
                    0.4229226447872255,
                    -0.2014869036838506,
                    -0.3412020353894455,
                    -0.1423241987282337,
                    -0.19789943275469635,
                    -0.33716044365361947,
                    -0.1779470604847425,
                    0.17974326400840623,
                    -0.006651424795942938,
                    0.19470063580991614
                ],
                [
                    0.7817513238831961,
                    0.22309560485861504,
                    0.14534506859865898,
                    -0.29478944832998,
                    -0.3233246832856641,
                    0.003703081025466671,
                    0.7288664253016893,
                    0.057971880344133184,
                    -0.6928315871310846,
                    -0.12312569805895211,
                    -0.38858727670165183,
                    -0.10778640479266484,
                    0.23012597583420336,
                    0.8063431341091678,
                    -0.850897620007821,
                    -1.430696337352951
                ],
                [
                    0.7746316166701793,
                    -0.4488859642840092,
                    0.2643223933852952,
                    0.3266481622669146,
                    -1.1391144517005323,
                    -0.2062596695603176,
                    0.008030682652768689,
                    0.24661897728523136,
                    -0.7147027977759017,
                    0.42168441243123145,
                    0.4252774514892497,
                    -0.5499806614564174,
                    0.21717863197013784,
                    0.2254073903710113,
                    -0.5433512841305043,
                    -0.007695562378203673
                ],
                [
                    1.1814508735979765,
                    -0.10748943557481029,
                    1.0104879499670687,
                    0.3501506366126298,
                    0.6639372043763504,
                    -0.09968513708710657,
                    0.48749011490947913,
                    0.5075257615415224,
                    0.3819223678251402,
                    0.36586524362984096,
                    0.5484563134567447,
                    0.5977915938178276,
                    0.2363932364468917,
                    -0.30155080664365214,
                    0.03197907262865451,
                    -0.10898377450197562
                ],
                [
                    1.0850143907161471,
                    -0.26985185845177256,
                    0.07657674317754012,
                    -0.2833154677608581,
                    -1.0034151952806845,
                    0.802488684110644,
                    -0.9038785143617081,
                    1.021110963401916,
                    1.0589928178265002,
                    0.34406257813960456,
                    -0.10383433512003853,
                    0.1859232092855127,
                    -0.40821876466992596,
                    -1.6614522973651997,
                    -1.2134083890779872,
                    0.6217930599387707
                ],
                [
                    0.4712819749953955,
                    0.557385919797112,
                    0.21082865577709403,
                    1.9653718343183286,
                    -0.43962866389289895,
                    0.012543591987923108,
                    -1.99714735946877,
                    -0.5903274238712289,
                    0.31986866302375466,
                    0.48272373922358264,
                    -0.07458873768925166,
                    -0.19375945889500298,
                    0.4999847444634242,
                    -0.9276689444031796,
                    0.6184659507423083,
                    -0.10940955798368378
                ],
                [
                    -0.1322505824348571,
                    -0.7459561130952936,
                    0.07433226987707275,
                    0.7019961479168799,
                    1.0485943542446716,
                    0.031544600851814465,
                    0.07988085979119337,
                    -0.004135793024418806,
                    0.22241536334825285,
                    -0.34108137419321083,
                    0.5143108729165174,
                    0.2298815510115824,
                    0.04411859569117105,
                    -0.2889959932060035,
                    0.1523164439785309,
                    1.0596710567561138
                ],
                [
                    -0.08236659182318096,
                    -0.7910292257343116,
                    -0.08328284957777281,
                    0.78138027098494,
                    -0.6730867446951424,
                    0.259669921067141,
                    -0.7187732287039379,
                    -0.6933801447890018,
                    0.057640213784035776,
                    -0.13837075019211553,
                    -0.36436766740830645,
                    -0.08967254332472718,
                    0.6493923248811347,
                    -0.1622463666494861,
                    -0.7762802867398141,
                    0.3274372121219029
                ],
                [
                    0.6702204307976409,
                    0.9852591960797864,
                    0.22818927894719096,
                    1.279619078341673,
                    -0.20756539069448038,
                    -0.025664104684035457,
                    0.07645413024054015,
                    0.2396889748331426,
                    0.03573674900001688,
                    -0.7093992738020953,
                    -0.5108412987228229,
                    -0.9057144486916563,
                    1.457899331338263,
                    -0.3445906132245375,
                    -1.093679566088716,
                    0.39776558919070765
                ],
                [
                    -0.8732245098743581,
                    0.19398655620138192,
                    0.04697516348888101,
                    -0.3028770333156814,
                    -2.197421225120919,
                    1.5214570768536275,
                    -0.13378144897921065,
                    0.3393336100034443,
                    -0.3857428397703641,
                    -0.18885719730125447,
                    -0.27054889091587925,
                    -0.6538611651338702,
                    0.2939153459027166,
                    -0.05897745437675162,
                    0.9658118264852427,
                    0.3800717623649794
                ],
                [
                    -0.6714574858278157,
                    -0.7014859884717358,
                    -0.8620509287283531,
                    0.4410396945207237,
                    -0.5552737019523661,
                    -0.14697665042722965,
                    -0.7753656381441082,
                    0.6433183710782682,
                    0.3934935083734906,
                    -0.25513011332623287,
                    -0.19432848331643787,
                    -0.5145443276452568,
                    -0.48555357464226034,
                    1.6447202189279229,
                    -0.03048696980312602,
                    0.5883987105536673
                ],
                [
                    -0.28062143799301714,
                    0.792941520815503,
                    0.029608021842527338,
                    -0.40393037505784235,
                    0.1890471899816443,
                    -0.5700585941554561,
                    0.07622582784536379,
                    0.18087110307149118,
                    -0.9121515637240861,
                    0.3727701780119113,
                    0.7183243726307131,
                    0.14262057003715603,
                    -1.1620887430917102,
                    0.6097767696575681,
                    0.9612857459945185,
                    0.06449094051325724
                ],
                [
                    -0.011172666073353855,
                    -0.23850030746074874,
                    -0.6944989824228236,
                    0.1930376159919992,
                    0.22329208246169496,
                    -0.7885313249647875,
                    1.4017836427491774,
                    -0.2671514728732821,
                    0.18639975830860317,
                    0.5968011401494008,
                    -0.9874136353539994,
                    0.8395329893034603,
                    -0.6098642201604386,
                    -1.0665374294875782,
                    -1.0612561393476299,
                    -0.5146780024692156
                ],
                [
                    -0.45067540048963184,
                    -0.21167418719048636,
                    0.14754074633003006,
                    -0.5949015811884244,
                    -0.24023013278365601,
                    -0.591090329550303,
                    -0.18160928164061876,
                    -0.029000012134201326,
                    0.7117995313244152,
                    -0.17229560741992944,
                    0.18060797253351316,
                    0.7698422925904685,
                    -0.4056178938384356,
                    0.7368757451481759,
                    0.5848331114677845,
                    -0.9171624762157012
                ],
                [
                    -1.0438715034016819,
                    -1.145708534171246,
                    0.4267786830660508,
                    0.04885060064422169,
                    -0.38117674358061965,
                    0.2746646306426698,
                    0.7514502790641175,
                    -0.15665640488197163,
                    -0.9025862071427769,
                    -0.145702093391737,
                    0.8898389760107984,
                    -0.602952214582582,
                    -0.05941403363359616,
                    0.8092473238113302,
                    0.6513218004254283,
                    -0.4921572805265109
                ],
                [
                    -0.010507613269471666,
                    0.0806047764575532,
                    -0.5828729062934821,
                    -0.25278644140831874,
                    0.5083216206571483,
                    0.3752733460346903,
                    0.8142329834192846,
                    1.519405752795128,
                    0.13834317289500914,
                    0.9489061484028557,
                    -0.39699979643496003,
                    -1.091149437873027,
                    0.03600260965150237,
                    -0.00028202556541635304,
                    -1.1996277309708747,
                    -0.4570565039536245
                ],
                [
                    0.6713280262880665,
                    -1.2093129271654843,
                    0.6421953010839495,
                    0.5587050795721529,
                    -0.2255089661911719,
                    -0.38910946279890946,
                    -0.40589069451105364,
                    1.1642680594274517,
                    -0.06586792899191692,
                    -0.7571305541333008,
                    0.1361024683505898,
                    1.0799735676348001,
                    -0.9716446895682229,
                    -1.2082545807740597,
                    -0.8409729506940757,
                    0.29265280777332275
                ],
                [
                    0.6418764720420633,
                    -0.018315694410895353,
                    0.1292246389063163,
                    -0.030311445106403018,
                    1.012587383867251,
                    0.22509219172931502,
                    -0.605513340346044,
                    1.0404406868486595,
                    0.7731042707577576,
                    -1.2349841024495365,
                    -0.10430127968147138,
                    0.12232221084196132,
                    -0.7524413731706034,
                    -0.08840067144524286,
                    -0.5917330794583392,
                    -0.30332579380111124
                ],
                [
                    -0.595795345868121,
                    0.14980769581667916,
                    -0.06305410219804869,
                    -0.4444614591643651,
                    0.6175003950089579,
                    -0.46339772361218845,
                    0.3066970634854443,
                    -0.1820784364452968,
                    0.6625881247946745,
                    -0.153544910719436,
                    0.377466285337151,
                    -1.1155238403051382,
                    1.2989902503616397,
                    0.12422187799587803,
                    0.5020754267864654,
                    0.6912655068016206
                ],
                [
                    0.21836633147591794,
                    0.7202265450526675,
                    0.9878630471527935,
                    0.6576393702738678,
                    -0.6298776596720431,
                    -0.493313910320125,
                    -0.6683874404860919,
                    -0.2690952648626644,
                    -0.2519669062206985,
                    0.5256306730437638,
                    -1.3253319637564378,
                    -0.5712863173040135,
                    -0.05533572984820224,
                    0.7206496813390058,
                    -0.31218403914715354,
                    0.5329259422783602
                ],
                [
                    0.1689755954271574,
                    1.1142790425158298,
                    0.6177165309717805,
                    0.5735930897677268,
                    -1.0062808825812346,
                    -0.7961979294817757,
                    -0.3087924289657603,
                    0.08171412823370176,
                    -0.07529005432665241,
                    -0.20554784668280235,
                    1.2509496154517885,
                    0.7359481832696577,
                    0.8222858155290484,
                    0.9547631665509133,
                    0.039701110214663826,
                    0.8425717054592228
                ],
                [
                    -1.1323170804360732,
                    0.99940577047812,
                    -0.11617398526435246,
                    0.3479627761985896,
                    -0.7291794004330734,
                    0.9190431070059515,
                    -0.13876823228712687,
                    -0.22485128964284995,
                    -0.185888247837833,
                    -0.3527147008841176,
                    0.3397538472667321,
                    0.14701304220644262,
                    -0.6239687234522322,
                    0.3251470894613063,
                    -1.0904950568433067,
                    -0.4564376905205446
                ],
                [
                    -0.7773450017374738,
                    -0.4040709275123822,
                    -0.5270506667603887,
                    0.5950147009686358,
                    -0.13285710212285276,
                    0.4668503988598073,
                    -0.2563719278035821,
                    -0.7035524173283407,
                    -1.3364979380250452,
                    -0.04736192606453063,
                    -0.4184293289155232,
                    -1.0422331269138354,
                    1.0543882970812926,
                    0.15841762907478826,
                    0.19892882007594995,
                    0.04323428465269281
                ],
                [
                    0.1365847480003632,
                    -0.5740173246095212,
                    -0.4379694671553443,
                    -0.909496446230465,
                    -0.34641015661753405,
                    -0.8130120522154584,
                    0.522598098091467,
                    0.25127394869328146,
                    0.5852872472586661,
                    0.8446651311050892,
                    -0.5422650755476184,
                    -1.2829058513128544,
                    -0.22033193883391633,
                    -0.1624613514677093,
                    0.23318021039405776,
                    -0.04883461398223592
                ],
                [
                    -0.6894059802287432,
                    0.22628134846906517,
                    0.08919955995608854,
                    0.18215527252370528,
                    0.05714410065781954,
                    -0.3503609336406708,
                    -0.9938674064973477,
                    -0.0474274694461439,
                    0.17617952760975913,
                    0.27247197718416183,
                    0.743132867248143,
                    -0.686083490385221,
                    -0.19389569149831376,
                    0.7755757138158753,
                    0.3025839147445529,
                    0.26880821693157536
                ],
                [
                    -1.2182591457477376,
                    -0.34844281644499825,
                    0.7800552713562808,
                    0.006280768644700547,
                    -0.09037075470686427,
                    0.7958255206733837,
                    -0.4931096648915298,
                    -0.2930501779898433,
                    0.03088695341916445,
                    0.5263718511278611,
                    0.40930479451122065,
                    0.3784632994939291,
                    -1.0884719632831887,
                    -0.016056845818340756,
                    -0.7535331225290307,
                    0.07236101418213887
                ],
                [
                    0.10356591755272108,
                    -0.5572482529790533,
                    0.22483820226887552,
                    -0.15788459179264197,
                    -0.2381777110884548,
                    0.6253062235627415,
                    0.11640394458116542,
                    0.27794005270851313,
                    -0.30637118779275085,
                    1.3014660954782038,
                    -0.8994045127142771,
                    -0.726347807845132,
                    -0.3568067172600331,
                    -1.152072616305772,
                    0.39291600728489284,
                    -0.023113352228783506
                ],
                [
                    -0.2776134873093682,
                    0.9271878256416983,
                    -0.09613013064401292,
                    0.7937979235863623,
                    0.05560799791456785,
                    -0.8781152020319801,
                    -0.2630014092257628,
                    -0.3936393285192883,
                    -0.5140547924792592,
                    0.023083666169330674,
                    -0.2596854869578335,
                    1.2687614162824166,
                    0.11293106673661012,
                    -0.9974116177940059,
                    -0.7843468828230458,
                    -0.5316024130725351
                ],
                [
                    0.2719316940217645,
                    -0.23447960555241518,
                    0.45577947041905387,
                    -0.15361269186686988,
                    0.3437062732212353,
                    0.5210160397946024,
                    0.49986636586334593,
                    0.3367511373469899,
                    -0.21069815604324968,
                    -0.7800090242434216,
                    -0.29483587827394603,
                    1.5236539711524126,
                    0.35882618815026396,
                    -0.8571084978046232,
                    -0.34824961487299183,
                    0.2719574319302269
                ],
                [
                    -0.48150483532857274,
                    0.8047021426289338,
                    -0.6796116810949948,
                    -0.43245073312307547,
                    -0.337786667072511,
                    0.31404742838651095,
                    0.5234721461234725,
                    -0.2539435257323312,
                    -0.5695031872048072,
                    -0.29586969673536023,
                    -0.10264359667978908,
                    0.809680060532286,
                    -0.6517166930004837,
                    -0.3931771170419209,
                    0.1474845497972045,
                    -0.26589979234717787
                ],
                [
                    -0.4147725037537858,
                    -0.4357816837505603,
                    -0.2093825077419794,
                    0.548926771353764,
                    -0.4200016830743134,
                    0.8145555370171625,
                    -0.365218676231843,
                    0.1603503867798947,
                    0.14573145574376858,
                    -0.14972624112128696,
                    1.0078338132379676,
                    1.0356282179724208,
                    -0.80992775907569,
                    0.5020755609407342,
                    0.7632636723352962,
                    0.8771848416197182
                ],
                [
                    0.2925364745739365,
                    0.7730030268402236,
                    0.46395711031369813,
                    -0.03948143572023775,
                    0.27542967384363387,
                    -0.6955790392376745,
                    0.11386095507787906,
                    -1.2055608196112646,
                    0.4299820494040596,
                    0.13224043598937896,
                    1.097002027078567,
                    -0.17222951822140492,
                    0.21490430637975103,
