{
    "type": "Model",
    "key": "model_ocr",
    "layers": [
        {
            "type": "Layer",
            "input_size": 784,
            "output_size": 32,
            "biases": [
                0.5558174501991267,
                0.017070849505327314,
                0.7631448852655681,
                0.2944349598020495,
                -0.04500394396934962,
                0.4324957413936813,
                0.4327581752526248,
                0.8386376769777866,
                0.18817873524951953,
                -0.4928313387869343,
                0.5181775384487938,
                0.2719888933965038,
                -0.46843547836051797,
                -0.3885120038495019,
                -0.12946449904172863,
                0.8065556241429529,
                0.42460929725175744,
                0.35600863126526006,
                0.2282473032302202,
                -0.16948126574893327,
                0.023909135370560247,
                -0.5280488757671492,
                -0.3493067968170863,
                0.2852465246504148,
                0.22648066282923995,
                0.9723378516725526,
                0.027879172384743384,
                0.5605650342634725,
                0.0392486464022405,
                0.2857360280099512,
                -0.1119444173881033,
                0.6267161288840777
            ],
            "weights": [
                [
                    -0.2473892117091629,
                    -0.10918856840995886,
                    -0.17354074588630253,
                    -0.2446667716761005,
                    0.40792040070834396,
                    -0.5820252212707587,
                    -0.35384819504271203,
                    -0.6735714096093888,
                    0.4758279303769311,
                    0.17651130281597643,
                    0.17897615908007883,
                    0.22334902197813566,
                    -0.15937588760085392,
                    0.33151702051536286,
                    0.4511749486727718,
                    0.2841881477890724,
                    -0.23306837005006298,
                    0.39025186021777997,
                    -0.15113893701908077,
                    0.533211555091335,
                    -0.08697763173200722,
                    0.5678073872502537,
                    0.03418121308338051,
                    0.3529774560776111,
                    0.672207527264036,
                    -0.058885339093236726,
                    -0.0023083952760620807,
                    0.542634040544933,
                    0.1450462513976891,
                    -1.0152629163711577,
                    0.8263489493230067,
                    0.9813039556828617
                ],
                [
                    0.4248044522267541,
                    0.08631310494345179,
                    0.3677439840006358,
                    0.055304266684071325,
                    -0.5441449239760303,
                    0.754842108306837,
                    -0.4586820692020745,
                    0.10516084330493886,
                    0.3437314357791398,
                    0.13126062415903478,
                    0.6101805135900149,
                    0.24058599706573625,
                    0.06809065501461416,
                    0.07078269621850106,
                    -0.13358819001934424,
                    0.26840683691831885,
                    0.5846662913060088,
                    -0.33303843825182444,
                    0.6425709799862982,
                    -0.11526556016164662,
                    -0.5594697667933729,
                    0.48362187057063954,
                    0.5232579706471799,
                    0.29004378202940506,
                    -0.02026495057750812,
                    -0.7848473038235977,
                    0.857890541593467,
                    0.2172011236004333,
                    -0.19570558877575436,
                    -0.039812638346850567,
                    0.6586284645177527,
                    -0.5576350860442895
                ],
                [
                    0.380746392076937,
                    -0.8145137727953916,
                    0.6055015702929029,
                    0.007141736888733624,
                    0.1495078667781826,
                    -0.04133196884340751,
                    -0.5146711413893024,
                    0.1323854088889288,
                    0.284570039434685,
                    -0.10670493702180424,
                    -0.13032448166059882,
                    0.1419555232803161,
                    0.03657095338410261,
                    -0.5696118482269692,
                    0.3409564471615545,
                    -0.06850570678491857,
                    0.6162753429857706,
                    -0.5565693026525095,
                    0.4540346277301452,
                    -0.24544494345002474,
                    0.7084734247669336,
                    0.2953383282031471,
                    0.21108513714625932,
                    -0.01163276313505545,
                    0.12521474257809728,
                    0.16469939990378418,
                    -0.3259257409903825,
                    0.21320791901988828,
                    -0.03356980915108928,
                    -0.2943758714033169,
                    0.12958601676764725,
                    0.45968085961704946
                ],
                [
                    -0.12176786368249883,
                    -0.4143590259195545,
                    0.25279469083505485,
                    -0.37423864599148404,
                    0.22514925525497076,
                    0.19141754390762714,
                    -0.11373244782277114,
                    0.2779460068719366,
                    0.5450088074216525,
                    0.0171463147992401,
                    0.08832333121176611,
                    0.6492426380605184,
                    0.54420752887374,
                    -1.377980186255056,
                    0.4435797952072599,
                    0.5485436568899706,
                    0.5103950747710916,
                    0.17965743528474445,
                    0.721245523643328,
                    0.33896326706065294,
                    0.6346472709666985,
                    0.15127636805227476,
                    -0.6471217478075562,
                    0.9327166564580096,
                    -0.3844177447152767,
                    0.16090939354647,
                    -0.09064714317853788,
                    -0.05042203387780195,
                    -0.07618560844234555,
                    -0.19160135567105158,
                    0.30332810836781793,
                    -0.16507126994259202
                ],
                [
                    0.27410612371916343,
                    0.027763748857965162,
                    0.11520597228840417,
                    -0.08639811209945805,
                    0.45849244637817455,
                    -0.18709862341740005,
                    -0.2750789165747241,
                    0.7636829341549145,
                    0.5113759337986704,
                    1.26476124130003,
                    0.3535766407622088,
                    -0.10426447124554922,
                    -0.07424051220057688,
                    0.10514628564354615,
                    0.3730883573070713,
                    1.04749377214389,
                    0.007850861154532499,
                    -0.4271833678648656,
                    0.4358969680245107,
                    0.9017584306901284,
                    0.17948567962981468,
                    -0.4234278646613621,
                    0.17915085795354802,
                    -0.5314251990410418,
                    -0.5111422950749588,
                    -0.5997603723288438,
                    1.185569427033061,
                    0.31185346167710415,
                    0.13112000992607578,
                    -0.04811187914379887,
                    -0.4224549038720157,
                    0.4925422881896317
                ],
                [
                    0.025192816078472756,
                    0.00018068170381219106,
                    -0.029184607287287043,
                    -0.21323719520348278,
                    0.3303901579751604,
                    0.33532414644949526,
                    -0.046060160806384476,
                    0.25950326481657476,
                    0.2953711775756971,
                    -0.19238397469610122,
                    -0.057930992167142786,
                    0.2805560069564303,
                    -0.6240801581330856,
                    0.19611968262302076,
                    0.2992596862886053,
                    -0.5451032330802029,
                    0.5024626686083232,
                    -0.008676750364892075,
                    -0.252483014881077,
                    0.5222619911471963,
                    0.06406631955301784,
                    -0.4383328197731911,
                    0.23705988809907302,
                    -0.8485457874768715,
                    -0.39437260979912514,
                    0.41241291179175665,
                    -0.36042618030123585,
                    -0.6047998307886767,
                    -0.7310660235385196,
                    0.1501579609602388,
                    -0.14658236693005774,
                    0.38378009223100823
                ],
                [
                    0.764791356692885,
                    -0.6601297848009215,
                    0.009141300698542597,
                    0.16885310765272882,
                    0.4617965129150275,
                    0.0071381780036745696,
                    0.5775180636979026,
                    0.017186103494597073,
                    -0.3813440409283123,
                    0.41075286141209644,
                    0.0035636108022346694,
                    -0.0037578071774953155,
                    -0.009669410014737846,
                    -0.8026557738173544,
                    -0.42599011061417086,
                    0.8428156725143146,
                    -0.695273332569931,
                    -0.7113913068750078,
                    0.23800281174384852,
                    0.5268149023261015,
                    0.28886931356377243,
                    -0.0009870669294099327,
                    -0.07254150558355156,
                    -0.3318865719114424,
                    -0.6684421461798222,
                    0.013930145891421483,
                    -0.018543014155175466,
                    0.33328690778024506,
                    0.6388384873943417,
                    -0.18152600908083535,
                    -0.5691569132516641,
                    -0.676633273442351
                ],
                [
                    -0.10537263669069631,
                    0.051635018549052766,
                    -0.2691053559306878,
                    -0.662507628558056,
                    -0.4321820030575199,
                    0.04390092084367324,
                    -0.033321418023600446,
                    0.1431112879275901,
                    0.5427614360674744,
                    0.578478353818958,
                    0.20094768531953477,
                    0.7583180725654037,
                    0.41216961721992623,
                    -0.058794007185191524,
                    -0.5037565055817308,
                    -0.3977509629052493,
                    -0.03745850072803107,
                    0.07727188835581543,
                    -0.059724557479343764,
                    0.5126561100921833,
                    -0.20393318237400954,
                    0.3853321325738992,
                    -0.04845091095101978,
                    0.4809422904663498,
                    0.32943071038675326,
                    -0.7128135486910797,
                    0.2814882304946758,
                    0.1717345952880206,
                    0.3837430481256992,
                    -0.25259840490803254,
                    -0.569834422046686,
                    0.22424932218936017
                ],
                [
                    0.5964664675114596,
                    0.08197992108565676,
                    -0.30610811533096105,
                    -0.12327332933193275,
                    -0.06867607999770185,
                    -0.5811381860890433,
                    0.09070775197658285,
                    0.3871757766140209,
                    0.3626783266322989,
                    0.8295673251190845,
                    0.3292527575586359,
                    -0.17730288239983083,
                    0.5631214532632105,
                    0.057798437875500694,
                    0.12432703388928898,
                    -0.2179190557287349,
                    -0.12483209558229919,
                    0.8401935736960365,
                    -0.410905616814343,
                    0.93602720943764,
                    0.2731680813796262,
                    -0.6361942093500509,
                    0.1752306514164309,
                    0.5106207509968634,
                    0.07550632643762525,
                    0.19456721566695723,
                    0.1396547662594108,
                    0.636629253017447,
                    -0.06738529956492587,
                    -0.05084209794928393,
                    0.3040974947441939,
                    -0.8718461398842704
                ],
                [
                    0.5472028426922355,
                    -0.19227615029282025,
                    -0.8395567577426433,
                    0.8880786275446414,
                    -0.26419718798668884,
                    -0.2268679172613273,
                    -0.0011569896047626677,
                    -0.4171322077543681,
                    -0.14422862784797175,
                    0.9852163228913791,
                    -0.5173905805809261,
                    -0.046993456362112364,
                    -0.4668354700202145,
                    0.03848226398224113,
                    0.051168738901783896,
                    0.9437766861249043,
                    0.916361989359145,
                    -0.05754903092438992,
                    0.5392325256921069,
                    -0.13165945934659035,
                    1.1660070103797275,
                    -0.028950035097249638,
                    -0.5097405317971117,
                    -0.6691830750862211,
                    -0.21715705775255595,
                    0.03066940350378487,
                    0.401680295345096,
                    0.002200779397838748,
                    0.8653654422396186,
                    0.15625969787086588,
                    0.46415234050368526,
                    -0.006921927114394311
                ],
                [
                    -0.9384290246672501,
                    -0.6212305849743743,
                    0.37939986589329083,
                    0.11448751327147723,
                    0.1894260473658753,
                    0.44593996703675115,
                    -0.46796657793627255,
                    -1.0398995405495812,
                    0.23703168603626526,
                    -0.2430455514641886,
                    0.9741561151954524,
                    -0.3843297352109263,
                    -0.5424744545924526,
                    0.39449239654319335,
                    0.3440062681364991,
                    -0.6229452951908702,
                    -0.1332424303833712,
                    -0.18179262950327835,
                    0.22189959468648468,
                    -1.2334559598010852,
                    -0.5868826082236831,
                    0.04359127705311034,
                    -0.2502776072495299,
                    0.2873241481403027,
                    -0.46051847795214973,
                    0.14036504002881692,
                    -0.7855328322099869,
                    -0.02740832168946506,
                    0.22307356268370676,
                    -0.7080868860734305,
                    -0.4861789878608995,
                    -0.5263081628366971
                ],
                [
                    0.19053756943640376,
                    -0.29309055418352975,
                    0.5016162379006976,
                    0.3393644240034969,
                    -0.08244495150864395,
                    -0.12277024042401614,
                    -0.3375369629122479,
                    0.12035029157714043,
                    0.09512966816454169,
                    -0.09996904407046915,
                    -0.002862781717885409,
                    0.34334961237141215,
                    0.28486190792859367,
                    0.5899069444002787,
                    0.10794399639869591,
                    0.119647494847918,
                    -0.38045148757779207,
                    -0.5897758865401529,
                    0.4890978862892956,
                    0.5613680736269788,
                    0.40083577029625356,
                    0.22286795912156138,
                    0.030976019878657467,
                    0.6571408257302324,
                    -0.34584841303021197,
                    -0.048003304694574124,
                    0.4323986228120647,
                    -0.0836343050456789,
                    0.07289169991724692,
                    -0.7762444245186169,
                    0.05255560152834603,
                    -0.8957245462562318
                ],
                [
                    -0.3741267092085113,
                    0.9676930575631237,
                    -0.4735301747954951,
                    -0.012901560268730454,
                    -1.0000920681073444,
                    0.03189158224492067,
                    0.5195675019578817,
                    0.16875245098046626,
                    -0.39108451457128024,
                    0.5333734659341353,
                    0.677230126720137,
                    -0.5127499179056989,
                    0.7959602619663377,
                    0.5960435687759711,
                    -0.07150553212350588,
                    0.23408987977825313,
                    -0.19169384283008564,
                    -1.332085662206434,
                    0.013710126138196055,
                    -0.3306607335427683,
                    -0.04820488739011132,
                    -1.0714579842899448,
                    -0.20622269284943892,
                    0.7126030534048988,
                    0.4613774103189814,
                    -0.662282599938922,
                    0.509664471806102,
                    0.04806051075473502,
                    -0.6082628472613452,
                    0.021535623772656096,
                    -0.8461424570991649,
                    -0.10482082025569497
                ],
                [
                    -0.03337385391069296,
                    -0.12278985569011916,
                    1.03990676437001,
                    -0.3334519734787411,
                    -1.0955763108196912,
                    -0.6677962599954396,
                    0.26677261626912274,
                    -0.15661008238367854,
                    0.3791873818644475,
                    0.06588913390762649,
                    -0.47095493248590037,
                    0.24326785008344004,
                    1.2739072483111056,
                    0.5056799020021244,
                    0.033294656570561104,
                    -0.3679807468673118,
                    0.008463748357866833,
                    -0.5650030321091496,
                    -0.037210205973916055,
                    -0.43632958346413964,
                    -0.5969954567962044,
                    -0.22176278329271085,
                    -0.6919512825314659,
                    -0.02831926651586903,
                    0.8804216767029359,
                    0.28985841641381366,
                    -0.6171404615557295,
                    -0.344397333582281,
                    0.5722273688753594,
                    0.6154819492725923,
                    0.5652745483986241,
                    -0.09716354474012642
                ],
                [
                    -0.18067614182952835,
                    -0.41316010679394466,
                    -0.17913730231976202,
                    -0.3978118478933681,
                    1.0238950531348783,
                    -0.21231893297649299,
                    0.14498301777193429,
                    -0.972024533819872,
                    0.2633161629711979,
                    -0.27319903818106256,
                    -0.10621584662710426,
                    0.1255793544568352,
                    -0.1379786146089358,
                    0.32805101146695526,
                    0.03568056116789729,
                    0.23666191260033836,
                    -0.161638478233265,
                    -0.9695601966983916,
                    -0.15296646842169795,
                    -0.6300330664035022,
                    0.07464017314931963,
                    -0.19046881056847573,
                    -0.12260072492177557,
                    0.1693866601284874,
                    -0.12641462451426477,
                    -0.7800269204311056,
                    -0.05560609566034003,
                    0.20025025277885053,
                    -0.3107625491603721,
                    0.3776743944911817,
                    0.9022688639110454,
                    -0.4863011778654639
                ],
                [
                    -1.0264835874069302,
                    -0.03833355676548991,
                    -0.24440299604415486,
                    0.34399425038720793,
                    -0.6276100064533626,
                    -0.5437843270501944,
                    0.2387796512609655,
                    -0.8587101363779,
                    0.17778945165337168,
                    -0.14502764775844862,
                    0.11611599159638761,
                    0.036304562773399565,
                    -0.9625985924948275,
                    0.17830144801606634,
                    -0.31483411295279673,
                    0.4441943187398798,
                    0.16700759836553325,
                    0.4184997087288169,
                    0.31456496163529996,
                    -0.858263515855774,
                    0.07729432783234899,
                    0.15942573849423203,
                    -0.2795067610675368,
                    -0.2779016619912257,
                    -0.42505190910365853,
                    0.31311475073501993,
                    -0.6140281269457334,
                    0.014111402409465505,
                    -0.1661697337798093,
                    -0.027909862263567828,
                    0.12503368773011586,
                    0.0796574204419443
                ],
                [
                    -0.2630383183952898,
                    -0.3751443015949511,
                    0.2789962540562216,
                    -0.05851980463180148,
                    0.3887710224022349,
                    0.31996408795332243,
                    -0.9702018330854231,
                    1.1116879169094223,
                    0.5296905638025158,
                    -0.4252577352280687,
                    -0.011993451414527775,
                    0.12472157041463186,
                    -0.6070435837437821,
                    -0.32194136117163435,
                    0.5541450277918057,
                    -0.009680080250377948,
                    0.026761000466745663,
                    0.13787463037511438,
                    0.20617554233036123,
                    0.15267541319766492,
                    0.5932327707474078,
                    0.020799530138105864,
                    0.022494216352772448,
                    0.17667635716155683,
                    0.05766119791138563,
                    0.02615485970505836,
                    -0.7228408656386053,
                    0.5580982329414764,
                    -0.9788193108782933,
                    -0.0863165513679079,
                    -0.400184883507519,
                    -0.36950596561152754
                ],
                [
                    0.14731181487031406,
                    0.3504174019497363,
                    -0.08599523643213415,
                    0.0854578689346088,
                    -0.27598259380877094,
                    0.0317886198629098,
                    -0.1517411381457689,
                    -0.4388259652633602,
                    -0.18885269372257946,
                    0.7532499021907163,
                    -0.4465495475114064,
                    0.6605496452747175,
                    -0.56356126074714,
                    -0.4332641244747832,
                    0.030047173136489243,
                    -0.20329218051413653,
                    -0.21599501176840022,
                    -0.7010871648143144,
                    0.21808594511464807,
                    -0.3168506922258136,
                    0.22437963620981727,
                    0.41680920487774187,
                    0.8884512379854623,
                    -0.19747318704001313,
                    0.5950053037559658,
                    1.111512796473633,
                    -0.23659633072282465,
                    0.008382349533505251,
                    -0.06973824427500444,
                    0.1089840593578891,
                    -0.10130622196553815,
                    0.2102189904212484
                ],
                [
                    0.043199238866405504,
                    0.31078787342502723,
                    0.1429369413568936,
                    0.0031003965246556298,
                    1.2148226976763867,
                    -0.6329355372276704,
                    0.08737172743813754,
                    -0.010546730550753391,
                    0.5699401072346229,
                    -0.28986411213380125,
                    -0.03511609110641174,
                    0.5253555978190869,
                    0.23294473267201754,
                    -0.04074898140273354,
                    -0.6311000523148904,
                    0.69607484098925,
                    -0.11446373532849494,
                    0.09630902593686037,
                    -0.22881541199806582,
                    1.2251519433175198,
                    -0.23816064400972475,
                    -0.3204951099081714,
                    -0.2742456074866664,
                    0.29363379398866196,
                    0.7406950363637581,
                    0.07096701004994428,
                    -0.2739208717768579,
                    0.16384852473931932,
                    -0.06188684340274729,
                    -0.35768777752838765,
                    -0.03401424437534391,
                    -0.8029537624067871
                ],
                [
                    -0.967682208825452,
                    0.3609652932113251,
                    0.13911093336227476,
                    -0.9640804594213226,
                    0.01274176584911641,
                    -0.5264207438250024,
                    -0.19296256863779282,
                    0.0009285354714381119,
                    0.17575174667525081,
                    -0.5575182761624041,
                    0.37855631050585453,
                    1.0778078870469632,
                    0.32925045721719653,
                    -0.9212982857511844,
                    0.11950908426709211,
                    0.1258733224067392,
                    0.6596612873457023,
                    -0.6449546283936913,
                    0.23176878380365692,
                    -0.5016629273386766,
                    -0.3908169189162548,
                    -0.38109776334013684,
                    -0.7786869660821392,
                    -0.3182027052164387,
                    1.1811100220318562,
                    -0.009540158857192185,
                    -0.1255828165842655,
                    0.7444506227714554,
                    1.3298088382002167,
                    -0.33736008205389356,
                    -0.5377570781713902,
                    0.6529491192994217
                ],
                [
                    -0.4293612263275475,
                    -0.2134830973783229,
                    -0.27639883398598,
                    0.0024899000712782036,
                    -0.5618097051445436,
                    -0.17033168626440384,
                    0.6777862385620538,
                    0.24066591214891475,
                    -0.44757937806440706,
                    -0.38460410013160384,
                    0.7174793325958352,
                    -0.06737312531087265,
                    -0.3287213333674484,
                    -0.27924113768723613,
                    0.1194520827669395,
                    0.07174716670635517,
                    0.08012313484227465,
                    -0.08012092938570292,
                    0.06180956983455423,
                    0.6366491889707341,
                    0.3327212179917586,
                    0.13397244996242835,
                    0.1279376302124719,
                    0.07346133324684583,
                    -0.19133090716156403,
                    0.4756859528367325,
                    -0.27324987037467896,
                    -0.23728351364561867,
                    -0.4249245625688571,
                    0.8747430323635208,
                    0.5870956579103215,
                    -0.1288312208576004
                ],
                [
                    0.534820779060937,
                    0.5727240902612982,
                    0.09117340295296253,
                    0.2948698640976732,
                    -0.5368161468978548,
                    -0.8038029304551494,
                    -0.20818689303180116,
                    -0.21604596187403874,
                    -0.11791956647098077,
                    -1.3810270067848511,
                    0.06264221397225632,
                    -0.919936323683905,
                    -0.13715913483299338,
                    0.48466526160315954,
                    -0.4425566575653865,
                    0.4368208014398521,
                    -0.09030265291897403,
                    -0.1674218356525534,
                    -0.26177409106159677,
                    -0.09223125191423105,
                    -0.4697349784951987,
                    0.6003338360747792,
                    -0.6388583249272701,
                    0.45025634522469254,
                    0.2570020932125393,
                    -0.5269582550113091,
                    -1.320985729054286,
                    0.6301701928867306,
                    0.5448124416463317,
                    -0.37967570065850736,
                    -0.37412037876405924,
                    -0.8563916329791287
                ],
                [
                    -0.014851865811678619,
                    -0.06771285552094705,
                    0.3605644605720264,
                    0.5151409178641762,
                    -0.7055731429073631,
                    -0.17662815848887745,
                    0.27097191451446845,
                    -0.45899413531848876,
                    -0.10742791378800044,
                    -0.0929297696655019,
                    0.08417815884780872,
                    0.07239135295387641,
                    -0.024580809565177997,
                    0.05337658377477855,
                    -0.05431351751551515,
                    -0.18968086134572926,
                    0.13672250233589064,
                    -0.5203727597648107,
                    -0.2840129704880145,
                    0.3949523102495084,
                    -1.2738586798508997,
                    0.9634127465411608,
                    0.10088173053330096,
                    -0.2815910868565356,
                    -0.42230189214889335,
                    -0.23113399529143328,
                    -0.5537653445331493,
                    0.06151495817536208,
                    -0.7495683241025337,
                    0.08969276310086932,
                    0.1721794043095361,
                    0.3917288839305364
                ],
                [
                    0.3359168410690285,
                    -0.005879662195904235,
                    -0.475425254510739,
                    0.3155013317456464,
                    -0.38275568267648447,
                    -0.32922123222599997,
                    0.4082693142779369,
                    -0.022690653717460364,
                    0.41018305073133876,
                    -0.41663290843177353,
                    0.7791559042628284,
                    0.08538283251126079,
                    0.024026844883317036,
                    -0.481441492626392,
                    0.10972568135250867,
                    0.3271800762286482,
                    0.21319384842686612,
                    -0.19058337347984833,
                    0.1328952286780042,
                    0.7230837993623301,
                    0.30898536461394804,
                    0.5086913508132056,
                    0.09275375992647096,
                    0.21364561077904595,
                    -0.17646642996904155,
                    -0.03802271189254328,
                    0.09351259947311136,
                    0.12755037135347436,
                    -0.4949683810038749,
                    -0.030994319486873603,
                    -0.8204173118882674,
                    0.071841352401675
                ],
                [
                    -0.3498196601353459,
                    -1.0852647016262156,
                    0.1842692775579971,
                    0.15308489862203767,
                    0.5025738629047976,
                    -0.3033758925512126,
                    -0.26234075435442217,
                    0.3284821082331565,
                    -0.3571925424315775,
                    -1.2189482567579184,
                    0.4420330058104104,
                    -0.7168587621354228,
                    0.9860647587399751,
                    0.3796959593242023,
                    -0.6792252324415858,
                    0.5049257474813961,
                    0.5445068722085808,
                    -0.11269903941230522,
                    0.031081523923987303,
                    0.14893836125517904,
                    0.021012222597971766,
                    -0.25962172280784773,
                    0.43508500205992084,
                    -0.037073166411080924,
                    0.29903481594906534,
                    -0.7398415365045791,
                    -0.21164784560077007,
                    0.38574959213251636,
                    -0.04785632990497064,
                    0.026330185734581894,
                    0.3760298375571407,
                    -0.6832063981195097
                ],
                [
                    -0.2307584863324012,
                    -0.1619999489473891,
                    -0.2648623327555341,
                    -1.0337900269193379,
                    -0.3903969115489587,
                    -0.43355418457450706,
                    -0.11206311007289904,
                    0.1823581808315733,
                    0.5478805727411844,
                    0.09300758414140804,
                    0.16061978606506316,
                    0.30426017014968715,
                    -0.6685099333367386,
                    0.873877423636155,
                    1.054566620602447,
                    0.05389923697073809,
                    0.25691104470298964,
                    -0.2624059296889334,
                    0.6362953493403762,
                    -0.030461899412660986,
                    0.022156348205465626,
                    0.2778969632643045,
                    -0.12450566566239611,
                    0.29631849174006397,
                    -0.31784622879636204,
                    -0.6822549120262267,
                    -0.44027679597374747,
                    -0.20729836138261515,
                    0.1596731961041754,
                    -0.14230212832340702,
                    -0.5211765027806682,
                    1.08041290421585
                ],
                [
                    -0.15840393495219796,
                    0.2910726337906944,
                    1.317189350375568,
                    0.49923248362559325,
                    -1.4489304251084223,
                    0.39363624412292997,
                    0.04103181557811373,
                    0.8643326443033944,
                    0.020172924873008917,
                    -0.8231315597880404,
                    -0.6376613648488629,
                    -0.42463879139035204,
                    0.20447938227507112,
                    0.13080579511049895,
                    1.3217438518840519,
                    -0.17549994723749546,
                    -0.22898320678558273,
                    -0.6616332907161132,
                    -0.6364442202247887,
                    -0.14350846920882587,
                    0.4119285748332659,
                    0.825482461865442,
                    0.18819341193356653,
                    0.5365188647199721,
                    -0.4345277055438763,
                    -0.35210512254314347,
                    0.567204052149242,
                    0.6795316758818232,
                    0.030533602758226766,
                    0.5833123697508443,
                    -0.46096449177591925,
                    -0.20730101975148563
                ],
                [
                    -0.020431701966520194,
                    0.6507577507039376,
                    -0.8685306007213706,
                    -0.142081766973427,
                    0.1169980401343213,
                    0.2895683435588341,
                    0.5442529686226637,
                    -0.35284300662763873,
                    0.2484195387743215,
                    -0.12361414402266219,
                    -0.48490476082318995,
                    0.22155686428221724,
                    0.5592581413214757,
                    -0.2603514381418998,
                    0.43350301915655887,
                    0.2634927683425917,
                    0.7276324522020053,
                    -0.17065144113815128,
                    -0.03208806035135306,
                    -0.6497868702058248,
                    0.7113058701091839,
                    0.2887076960012892,
                    -0.3820079800018278,
                    0.32444330870111715,
                    -0.026905101810817206,
                    0.13036835456662443,
                    0.18211702797532958,
                    0.6149202284382607,
                    0.5795083973640801,
                    0.24814361811296246,
                    0.534063868344892,
                    0.13831535996185662
                ],
                [
                    -0.3382877376412812,
                    -0.3740223358666177,
                    0.47826746051396496,
                    0.798172379095428,
                    0.1942039665133969,
                    0.03848477977245027,
                    0.09171603485568199,
                    0.46290982576844397,
                    -0.03959543678014352,
                    0.7874200268917195,
                    -0.17804987152913254,
                    0.18061676578252792,
                    -0.6110531989382528,
                    0.28715010684885706,
                    0.5468383500296438,
                    0.41309960238400184,
                    0.06933376375678309,
                    -0.5794632330320124,
                    0.1330958959537821,
                    -0.7931922318364144,
                    0.516367972480001,
                    -0.0065154000400896965,
                    -0.36369113208165965,
                    0.12165729055546075,
                    0.2643246330620179,
                    -0.26168519541368096,
                    -0.5641346308342938,
                    -0.36667383237259377,
                    0.3189436463500552,
                    -0.45024908118561163,
                    -0.030787462221750515,
                    -0.1515502179392989
                ],
                [
                    0.07753733158985741,
                    0.42169246062119103,
                    0.30641036615190537,
                    0.6094148732947331,
                    0.619529554147038,
                    0.25640235553411644,
                    -0.7864711915969788,
                    -0.6105261988325069,
                    0.13506478177981204,
                    -0.04746827979520456,
                    0.24938476672641613,
                    0.05233152305714955,
                    -0.8876826695713352,
                    0.020579271561409,
                    0.03071157606761528,
                    -0.36613796287180056,
                    -0.021343261720152995,
                    -0.4290923004298901,
                    0.38200170229193564,
                    -0.5578627194328813,
                    0.28848179009591396,
                    0.7513947693363059,
                    -0.5339816787530116,
                    0.38043344266967727,
                    -0.010877586914555953,
                    -0.18279827860070005,
                    0.1300903067195952,
                    0.058239660777768536,
                    0.026244719887205125,
                    0.055928079238741525,
                    -0.6055504285901563,
                    0.09669793236755078
                ],
                [
                    -0.35436798414001275,
                    0.5179819734771517,
                    -0.38969852207438327,
                    -0.7475194582465848,
                    0.1983639044300333,
                    0.307605515580253,
                    -0.7045861854015804,
                    -0.7684582440230087,
                    -0.13430637859859745,
                    0.1749221455204072,
                    -0.04534253715979909,
                    -0.30205151517392115,
                    -0.2819235453099579,
                    -0.265209017194792,
                    0.35056484060335547,
                    -0.11739528476569898,
                    0.2087645733417704,
                    -0.6966533456944011,
                    -0.8539703642927815,
                    0.13467144803264794,
                    0.04510260512286546,
                    -0.026086442797891213,
                    -0.7005567071237176,
                    0.12434671113909075,
                    0.5515432598137767,
                    -0.3761475449104745,
                    -0.3311550018582274,
                    0.0903293451235907,
                    0.7372812745580769,
                    0.7550888671565938,
                    0.3503559769821742,
                    0.6261645557256853
                ],
                [
                    -0.15085968364932784,
                    0.07131126965767431,
                    0.21581584148334448,
                    -0.14291966896753633,
                    -0.8854679811786187,
                    0.16759893131045503,
                    0.20462039563358034,
                    0.20666859261379172,
                    0.030725538479025566,
                    -0.012837336910100638,
                    -0.0760271664955106,
                    -0.11833441439275448,
                    -0.6631556094899059,
                    0.558350225691686,
                    0.14756078623987073,
                    0.08208558709195775,
                    0.3447098884677623,
                    0.37899741270011034,
                    0.3646226767227111,
                    -0.37829240101996575,
                    -0.5296287159084775,
                    -0.30915416951701596,
                    -0.16527504802384668,
                    -0.22558646533970317,
                    0.7667650435563345,
                    -0.31797646894159876,
                    -0.22197041885966112,
                    0.23457462510579768,
                    -0.32075789007586675,
                    0.533979963498193,
                    -1.2017443738081452,
                    0.32449272127052503
                ],
                [
                    0.2208618387115277,
                    0.12088243073258219,
                    0.6760161137913865,
                    0.4638211277445321,
                    0.7210405654731686,
                    0.24398855224672353,
                    -0.0950836899600107,
                    0.05068514170513613,
                    0.6550107133262808,
                    0.15650115581783755,
                    0.012374063586894496,
                    -0.5428283155843773,
                    0.6572265428666603,
                    0.02521231082835936,
                    -0.5130128368959637,
                    -0.06179719420780346,
                    -0.19799413456207232,
                    -0.2304136482084584,
                    0.3143729529848346,
                    -0.08849024583951356,
                    -0.562285433706509,
                    -0.6454316815656091,
                    -0.4476621090892375,
                    0.2813834023670838,
                    -1.2367087425583674,
                    -0.7144780202622616,
                    0.2132030525248017,
                    0.11886887470264149,
                    0.07660822595131413,
                    -0.6082370847738959,
                    0.022761425245569393,
                    -0.2092123739302812
                ],
                [
                    -0.09378891593056503,
                    1.0273935752653112,
                    -0.069031286886078,
                    0.11956297374999271,
                    -0.321352360936616,
                    -0.005671317023883293,
                    -0.10657870886031309,
                    -0.6324065291107313,
                    -0.022242873145641023,
                    -0.31597064571976496,
                    0.5005545751685249,
                    -0.1854372117573102,
                    -0.4660217606145908,
                    -0.4615384839075747,
                    -0.23406805273640177,
                    0.15101388359917275,
                    0.68528031383617,
                    0.5255198816280727,
                    1.1264477678161722,
                    -0.47835660602534574,
                    -0.27760219031891786,
                    -0.49639983638547736,
                    -0.13839412524633876,
                    -0.4494674232091141,
                    -0.4036116033677866,
                    0.07974459588504773,
                    0.1136929380897978,
                    -0.7702373126900485,
                    -0.22393401802553198,
                    0.8455014295217697,
                    0.00488578760289711,
                    -0.004347861658031207
                ],
                [
                    0.3526928954531471,
                    0.548037672176845,
                    0.0939767873027021,
                    0.32088407985382655,
                    -1.1556025823239418,
                    -0.11982705459632921,
                    -1.2904996231073496,
                    -0.10716123196629296,
                    0.5815361858872665,
                    0.4985683951505434,
                    0.6007066901498781,
                    0.6215716271175419,
                    0.17647581278208535,
                    0.28332168556765336,
                    -0.3492117157626926,
                    -0.6476000827417449,
                    0.28975353642683,
                    0.532244637341834,
                    -0.40515949096433823,
                    0.3493145149754629,
                    0.37492294458484493,
                    0.2372530181558883,
                    -1.1069340882115748,
                    -0.6890041989347301,
                    0.42011065657120883,
                    -0.3481741391305009,
                    -0.05313203179597656,
                    -0.03286958979642453,
                    0.1240749869054557,
                    0.27522549293725185,
                    -0.572445553219293,
                    0.35765257744035783
                ],
                [
                    1.05523046081932,
                    0.4692724952435806,
                    -0.6350956955954327,
                    0.8956331268201748,
                    -0.2670597837220817,
                    0.5948545127094413,
                    -0.14919103953999333,
                    -0.2705818047567496,
                    0.5250186769243425,
                    0.20688781103511572,
                    -0.02791906250116928,
                    -0.06214489278405438,
                    0.0831000669740633,
                    -0.8635950824301017,
                    -0.07515569571847466,
                    -0.11310540796185209,
                    0.1680622050801534,
                    0.03139465314367649,
                    -0.4083396801491818,
                    0.17073750173604785,
                    -0.6779625085028329,
                    -0.1358960144205033,
                    0.17923469958380758,
                    -0.03265626146172744,
                    0.0769481076416261,
                    -0.3451641595619393,
                    0.26449958388217304,
                    -1.1738513057582467,
                    -0.3837604246393685,
                    -0.8746322378928186,
                    -0.25186139383236283,
                    0.37086950480451025
                ],
                [
                    -0.5673560374923522,
                    -0.3127912191834093,
                    -0.5394041270941525,
                    0.015458212067111746,
                    -0.4071976939436245,
                    0.11609234820460057,
                    0.591990058417818,
                    -0.34712135300700575,
                    0.1297690808230419,
                    -0.1435385221386111,
                    0.5096475574316957,
                    0.3334899036546861,
                    0.9973316317878556,
                    -0.48355684591902387,
                    0.12849978190828548,
                    -0.03353325667203937,
                    -0.21436504664667855,
                    0.21600644450768094,
                    0.49637310557300623,
                    -0.5481065967598172,
                    -0.501873003701359,
                    -0.35783751551762355,
                    -0.5743935318325126,
                    -0.9531664983930532,
                    0.3224852596659611,
                    -0.3331737328580189,
                    0.5105246154043398,
                    -0.7778507339063674,
                    1.1850189948930456,
                    -0.054061962349894487,
                    -0.7689334522478106,
                    -0.09567895141465647
                ],
                [
                    -0.940747820825982,
                    -0.1077335854244541,
                    -0.20334155077747595,
                    -0.17309435209309817,
                    -0.4098535679950994,
                    -0.21924488405899908,
                    -0.5700320118846693,
                    -0.14639442493779015,
                    0.8622329115197269,
                    -0.4424012256645903,
                    0.22874778129816947,
                    1.4549930058588052,
                    -0.31066413018848077,
                    -0.07449859417641319,
                    0.1651884611691439,
                    0.012257535300280127,
                    -0.6729180142381126,
                    0.3167314890217097,
                    -0.214600086480982,
                    0.19198529235827075,
                    -0.06011656192857613,
                    -0.04190632374571416,
                    0.3044142034896784,
                    -0.6463960892016476,
                    0.519105691459609,
                    -0.5863334479348975,
                    0.4857283310267337,
                    0.0725514145868253,
                    -0.514159671026611,
                    -0.0618318376586694,
                    -0.35531598206997483,
                    0.004345254182714451
                ],
                [
                    0.0425975188988164,
                    -0.8043325731801294,
                    -0.2645772442346803,
                    -0.6267284292283463,
                    -0.3069718834169613,
                    -0.4049531104787919,
                    0.22010173159514118,
                    0.2970641463153397,
                    -0.08181456188319353,
                    -0.19726357277167558,
                    -0.6997854021801145,
                    0.2052030125287465,
                    -0.06030354618490312,
                    0.04316412638034431,
                    0.1429014109616049,
                    -0.06699166918636071,
                    0.6931469456783038,
                    0.6012479588906048,
                    0.17314119556412,
                    -1.50547855722672,
                    0.02997271571634779,
                    0.5801727259597811,
                    -0.12589891311081436,
                    -0.8251005199548622,
                    0.4303467280847248,
                    -0.13600842892947942,
                    -0.6376769935431842,
                    0.5578099127713211,
                    -0.7308844140860628,
                    0.5808101262607901,
                    0.01820977497134695,
                    0.27662686020637073
                ],
                [
                    -0.262578935755552,
                    -0.2369234410872204,
                    -0.21592952077324357,
                    -0.8825162290379405,
                    0.5248293290591782,
                    -0.17249135544767152,
                    -0.11766835747192324,
                    0.05844798569147144,
                    0.1561456320726698,
                    0.013199664570462004,
                    0.8550894223556358,
                    0.5474383833825239,
                    -1.1920132502572922,
                    -0.003440399003777017,
                    0.4375652181923571,
                    -0.6475768561258978,
                    -0.07111801939819867,
                    -0.36333123753411783,
                    0.09777332336698615,
                    0.33416368387154327,
                    0.15251190489713007,
                    -0.30029536544177216,
                    0.48173528462128395,
                    -0.1235738443727975,
                    -0.7446869448253849,
                    -0.24730635329000214,
                    0.5161816073231427,
                    -0.9745560451639216,
                    0.41819956381503753,
                    0.012108602235178595,
                    -0.4112940793049797,
                    0.5009210831858224
                ],
                [
                    -0.5183133052117753,
                    -0.5732299978531353,
                    -0.43199784371923056,
                    -0.12460674162812288,
                    -0.7714750134351577,
                    0.43138841033441117,
                    -0.4517194819373005,
                    0.03423340806695202,
                    -0.5313493974452782,
                    0.14550460467374407,
                    -0.10808698545161166,
                    -0.4260050607296786,
                    0.2726093823832874,
                    0.2894865852223109,
                    -0.21755425861580854,
                    0.08783908132386098,
                    0.09307996942285512,
                    -0.07721633022446925,
                    -0.17354732646658144,
                    -0.4778543211734634,
                    -0.08829365732405513,
                    0.28379607746731583,
                    0.3885255789901833,
                    -0.19969183404712276,
                    -0.16034973795324345,
                    -1.0234683254603232,
                    -1.0040014646044857,
                    0.031062198544553096,
                    0.23298741747479224,
                    0.3160301703379539,
                    0.020753838848790562,
                    -0.29441208362618476
                ],
                [
                    -0.10398853862419077,
                    -0.1849302766453129,
                    -0.9579422645798067,
                    0.27078960787560397,
                    -0.061784281673693126,
                    0.4241378370413873,
                    0.4621550823558276,
                    -0.09843888400800463,
                    0.09500369980240618,
                    -0.2577799512355088,
                    0.5455113228690436,
                    0.5941773501794373,
                    -0.8156178865912018,
                    -0.6773610097614442,
                    -0.1566366258284157,
                    -0.32375755697947106,
                    -0.08625804606306019,
                    -0.8118033935190989,
                    -0.09250667612834224,
                    -0.03374583164756256,
                    -0.3252585318714715,
                    0.39109012403749355,
                    -0.23256028783114494,
                    0.22924157397114134,
                    -0.8621638890276601,
                    0.28713178648001875,
                    -0.16065630788040064,
                    -0.38679610321950725,
                    -1.0400236864322536,
                    -0.593400029677806,
                    0.3973679874532013,
                    -0.2058841953344892
                ],
                [
                    -0.10685911939885262,
                    0.35679285162454616,
                    -0.6626221868451668,
                    0.1332870282665166,
                    0.7498338508928333,
                    0.403371492880782,
                    -0.12276617990339006,
                    0.01657382185439929,
                    0.24348106025727867,
                    0.37712419890655935,
                    0.29106362026888677,
                    -0.013061129562838288,
                    -0.8951468247638023,
                    0.3358453212005445,
                    0.21902264211208722,
                    0.23466841280401773,
                    0.3914532739679203,
                    0.874373009746705,
                    0.31236729053297463,
                    -0.05751782901214022,
                    -0.018103241800402157,
                    -0.12597244090074708,
                    1.0293769111206013,
                    -0.5953512677315237,
                    0.6099577578548239,
                    -0.17181937692403906,
                    0.21147053429589055,
                    0.007161809346242519,
                    -0.6364690914925634,
                    0.022142021362869004,
                    -0.11391270374688355,
                    -0.6737671558430767
                ],
                [
                    -0.4553843016021616,
                    -0.06423368787612173,
                    -0.5859506196499087,
                    0.1326114124422205,
                    -0.5731737660382276,
                    -0.45698379355683894,
                    0.21361894539267617,
                    0.06420912376849644,
                    0.8440667223249996,
                    -0.5144573172375685,
                    0.3238721705787716,
                    0.09860735024708778,
                    -0.6104366184635049,
                    0.14055460525497518,
                    -0.32524564784635,
                    -0.6340995720185434,
                    0.0979076935618621,
                    0.3020868533061405,
                    -0.14551890572593063,
                    0.9929883395260133,
                    0.3150414455879838,
                    -0.604576338206844,
                    -0.38623644934602325,
                    0.21901802127166345,
                    -0.38547862654994214,
                    -0.09820116158659294,
                    0.022186860992978993,
                    -0.7842751985544201,
                    -0.2042671669321977,
                    -0.09058865692837448,
                    1.3882879854711354,
                    0.004681990695927809
                ],
                [
                    0.28732367191912683,
                    0.5092364476776966,
                    0.012922960406586553,
                    0.2672990444255729,
                    0.4743453472356811,
                    -0.4868444818822434,
                    -0.35615516111105916,
                    0.054057030126441724,
                    0.244379520965373,
                    0.24761641100372755,
                    -0.06752456785218966,
                    0.4420886591669882,
                    -0.3784359765279405,
                    0.6412893070384156,
                    -0.18984197557409432,
                    -0.06488561569707876,
                    -0.29153714355459964,
                    0.5247095052306104,
                    0.1379897869639831,
                    0.651883484100376,
                    -0.5196311553692192,
                    -0.4725369239498873,
                    0.23134844675301888,
                    0.8351037076950419,
                    0.1709214776350269,
                    -0.22845252636667174,
                    -0.5899040298703114,
                    0.09103000121238358,
                    -0.3631203146465275,
                    0.06002571890054799,
                    0.0746564263610141,
                    -0.4613680100168362
                ],
                [
                    0.11899417796538193,
                    -0.4796910851609671,
                    0.15783880962334806,
                    0.5147719684177512,
                    -0.35589344991601884,
                    0.6240039773584637,
                    -0.06590328338705187,
                    0.5119722403024192,
                    -0.56365998095231,
                    0.13556628258969625,
                    0.15242379586913274,
                    0.12295835896883517,
                    0.11023195535826268,
                    -0.037699381630179905,
                    -0.9436510134906687,
                    -0.5858409731714318,
                    0.479932833624136,
                    0.1814339757984767,
                    -0.024384071207172578,
                    0.9630163122040286,
                    -0.23579197599537083,
                    -0.7199060582183961,
                    -0.35318635836155643,
                    0.21860169543521069,
                    -0.23297146395166346,
                    1.0183950595552513,
                    -0.28314700559550504,
                    0.49337004727439226,
                    0.04947697635819788,
                    -0.13650671009978635,
                    0.40744209164032197,
                    -0.42423445840590357
                ],
                [
                    -0.7389231685577392,
                    0.28110228037580043,
                    0.3707893402274384,
                    -0.2864951650063193,
                    -0.1230055239831523,
                    0.4732952207076569,
                    -0.7223202479050382,
                    0.04682436708545551,
                    -0.04463217413676648,
                    -0.3045538022640869,
                    -0.35846281992825624,
                    -0.3426380229760105,
                    -0.09270804625264024,
                    0.9849938364750064,
                    0.48091403287709855,
                    -0.09786172851371322,
                    -0.37523187703687805,
                    -0.9949857872309577,
                    -0.5230109419762614,
                    -0.4305924783225724,
                    0.30926689279358566,
                    0.0014062385950694908,
                    -0.39300616475303896,
                    0.0375087375659533,
                    -0.04056656413578033,
                    -0.33055046854374,
                    0.14366483819048598,
                    0.361887974417135,
                    0.20485674265458034,
                    -0.14529543347017576,
                    -0.10021122214019235,
                    -0.49398696656862534
                ],
                [
                    -0.2511394794144622,
                    -0.875523315259323,
                    -0.06294608461248859,
                    -0.39737685059587385,
                    -0.029869960372053056,
                    0.28311137029755107,
                    -0.25232210649391934,
                    -0.598098660915226,
                    -0.46511110168106146,
                    0.049908995078291496,
                    -0.4546705614815419,
                    1.030709699213509,
                    0.08040611509183461,
                    0.1045270163585307,
                    0.9140093905782412,
                    -0.7588812337435769,
                    0.020182908015137932,
                    0.33142303737796464,
                    0.4025277155079472,
                    -0.201079314035373,
                    -0.24326532551562263,
                    0.499828692732912,
                    -0.9081869205521013,
                    -0.01468340538850766,
                    -0.30400305800933736,
                    0.2898828604007979,
                    -0.035712857951500684,
                    -0.6030214266403544,
                    -0.4130423096420187,
                    0.4802695394210082,
                    0.19644175395030633,
                    -0.6475385394033767
                ],
                [
                    -0.37764237638065573,
                    -0.5315335635513436,
                    0.11447551794528571,
                    0.07263775906150086,
                    -0.610384922806305,
                    -0.2826587721465517,
                    0.9126078148533301,
                    -0.3904919669797021,
                    -0.505576327492279,
                    -0.5106395426228285,
                    -0.37497088118824684,
                    -0.351189645540113,
                    -0.7861407546748153,
                    -0.46754120647929825,
                    0.09831099063763801,
                    0.1526062719213619,
                    -0.6014872237048287,
                    -0.832915780692492,
                    -0.4277222155939662,
                    -0.6390176617640654,
                    1.005459643058346,
                    0.027238828343373336,
                    0.5777508972326308,
                    0.2662672771259613,
                    -0.5764959538432238,
                    0.4760876315818208,
                    1.0774525274015054,
                    0.6962282412363127,
                    -0.19106296160141567,
                    0.05669664882643696,
                    0.43215797697514535,
                    -0.7078924857365071
                ],
                [
                    -0.31694448408670295,
                    -0.09706430393339882,
                    0.4969591888121086,
                    -0.08604304202908516,
                    -0.11436528056963913,
                    0.4341970633656138,
                    -0.19082340364555936,
                    0.3057274437883518,
                    0.5863832284433227,
                    0.6288617709868995,
                    0.4292670478453362,
                    -0.14976539750868276,
                    -0.5715839741815044,
                    -0.25568628565297563,
                    0.19440734956112804,
                    0.10270674381992145,
                    -0.4547045087598644,
                    -0.07996740949438166,
                    -0.06765544833181866,
                    0.7248625068835902,
                    -0.0987928123831694,
                    0.1461805404501256,
                    0.07019016187338542,
                    0.38456420506044164,
                    0.039409722967762933,
                    -1.332678953703548,
                    0.25751545107108054,
                    0.004047170586319759,
                    0.26472489464920607,
                    0.6786677924198667,
                    0.4942859262511668,
                    -0.008045238518850445
                ],
                [
                    0.15014900453436808,
                    0.4623561991202856,
                    0.2735947682981477,
                    -0.5020944170913136,
                    0.6041635272480712,
                    -0.15608016868176963,
                    0.8237108176931869,
                    0.10248239946914457,
                    -0.9238694965076177,
                    -0.020619039617639015,
                    -0.24593135520319687,
                    -0.2412214284040266,
                    0.2052993116242409,
                    -0.8337930124854086,
                    0.3008906787901769,
                    -0.58061022485943,
                    -0.15010740761832791,
                    0.5216959099108363,
                    0.5377363442131278,
                    -0.7081565618008325,
                    -0.007531985429217236,
                    0.2835803939718821,
                    0.0765498876910581,
                    0.24624939690685044,
                    -0.2950401171373564,
                    0.07204938675789818,
                    -0.013460529828399147,
                    -0.4151669297552732,
                    0.8482074024205998,
                    0.5299549436265686,
                    -0.5247792490276255,
                    -0.3590763799634843
                ],
                [
                    0.1396669713500634,
                    -0.23512150206962093,
                    0.14031925259387823,
                    -0.946839343278913,
                    -0.46388899454556215,
                    -0.4100211106640663,
                    -0.08086265711522693,
                    0.32993101720149076,
                    0.4666697579587196,
                    -0.2489455336524093,
                    0.32890705863300596,
                    -0.16182676285672448,
                    0.6927099367894377,
                    -0.4773964377099053,
                    0.06993081581731361,
                    -0.3634048004006356,
                    0.06312664094126773,
                    0.03125864508575678,
                    -0.2846859474454689,
                    -0.05169960801521724,
                    -0.2930656234826337,
                    0.2541722880833678,
                    -0.15145205900255693,
                    -0.22049585808887137,
                    -0.08729534312969225,
                    -0.836017066574475,
                    -0.40008831873208606,
                    -0.4002968703274516,
                    -0.14917902072064904,
                    0.1639210669656555,
                    0.9127819937970952,
                    0.2980559996633482
                ],
                [
                    1.0342995023205208,
                    -0.4357774908332555,
                    0.33836136853581217,
                    -0.6163137839101497,
                    0.12008488781104176,
                    0.3804892010557682,
                    -0.37658195086451274,
                    1.011766533543144,
                    0.4901095974288193,
                    0.3940583422059247,
                    0.004336660469185037,
                    0.5042306079543604,
                    -0.8893200520274759,
                    -0.5769413327138027,
                    -0.015805013417869426,
                    0.05286257355762669,
                    0.05947138929628139,
                    -0.3978185299112365,
                    0.1842098307581002,
                    0.05671172904778723,
                    0.5671841088112752,
                    -0.2898217139270602,
                    -0.0365117377663957,
                    0.33020789152438856,
                    -0.09707078743852335,
                    0.06434658759697551,
                    -0.3436196176275138,
                    0.018863898062415035,
                    0.033521098581572456,
                    -0.05747188899911652,
                    -0.06877610271630066,
                    0.0573064374064145
                ],
                [
                    -0.49996175306467316,
                    0.6233720702391629,
                    -0.9774077799906499,
                    0.9427802052159105,
                    0.5080591866658919,
                    0.023754074565587834,
                    0.2202057013215508,
                    -0.4166244488568825,
                    0.22334268678619335,
                    -0.903807782602619,
                    -0.3130300631551566,
                    0.06127069335551629,
                    0.5634058267587533,
                    0.7119342758547447,
                    -0.0803953876521472,
                    0.07518119377659788,
                    -0.35055464556900395,
                    0.30262348354974594,
                    0.025921734076636976,
                    -0.005628210206333457,
                    -0.2979183494968507,
                    -0.7692794871376354,
                    0.7557546894621255,
                    0.36569075640257476,
                    0.4713516550657608,
                    0.6494054273949306,
                    0.12291378301528122,
                    0.9559050017025151,
                    -0.3330191596999252,
                    -0.2621330586134794,
                    0.2733312892874109,
                    -0.8466604632695649
                ],
                [
                    -0.20985611642726576,
                    -0.06374537990604465,
                    0.0183158433031491,
                    1.1300834963572233,
                    -0.10163233608097372,
                    -0.22554906912599698,
                    0.6583577850211871,
                    0.2778266316691453,
                    -0.6295009134228049,
                    -0.6981336505290645,
                    0.7426778585405386,
                    -0.23768960849822426,
                    0.7109110327962872,
                    0.2801443901470508,
                    -0.2771189691197768,
                    -0.2642097299707886,
                    -0.24450840278813685,
                    -0.1537439779659643,
                    0.3643970240770334,
                    -0.32166107770427166,
                    0.3919039752141991,
                    -0.28020450941245945,
                    -0.4864904581151648,
                    0.18337315718601963,
                    0.15070854846493303,
                    0.3738173950946942,
                    -0.28250311385703786,
                    0.3928303692105029,
                    -0.5646124890597338,
                    -0.0011005884593679183,
                    0.16110829304287977,
                    -0.30388372645633843
                ],
                [
                    0.7780253176278973,
                    -0.9098335908097664,
                    -0.23926869240434326,
                    0.5329516626682503,
                    0.7496423632038688,
                    -1.2885726632496413,
                    0.08192229255884212,
                    0.26024345640216073,
                    0.6345884670357617,
                    -0.01594790285611621,
                    0.45932510316409725,
                    0.3711901481803085,
                    0.0651260237372627,
                    -0.7751161390843089,
                    -0.06074502160593237,
                    0.025035942045136646,
                    0.020007065889648148,
                    0.569404771368967,
                    -0.501110556434014,
                    0.2056554017729215,
                    -0.08693483939853977,
                    0.13859937100016814,
                    0.7653856510658671,
                    0.05055712309331875,
                    0.16701754123713722,
                    0.05920870187431276,
                    0.07384028753139825,
                    0.21251110960920522,
                    0.09040813776462253,
                    0.21718483098315808,
                    -0.5597775943545391,
                    0.02899196617976052
                ],
                [
                    0.2059851896272594,
                    -0.2159731772188752,
                    -0.015614544706240257,
                    0.02216418788424597,
                    0.09631552983865446,
                    -0.34024959915790554,
                    -0.20246189787010072,
                    1.0644602101277822,
                    -0.1429999679496872,
                    -0.6890707261475426,
                    -0.5647402504419714,
                    0.4074621869979972,
                    -0.2998037272166789,
                    0.11768534888641924,
                    -0.33327853122924805,
                    0.03332055303751545,
                    -0.5535846407573441,
                    -0.3185647789944951,
                    -0.8557593363639104,
                    0.3898510074649171,
                    0.39205464401458867,
                    0.04922366651930277,
                    -0.5887637574079663,
                    0.09436927404044068,
                    -0.10319423901913699,
                    0.6396126629221432,
                    -0.7930637327956027,
                    0.22624250601753076,
                    0.48981864903656536,
                    -0.2123414405008232,
                    0.237586636771257,
                    0.49008147849099815
                ],
                [
                    0.25137829665789896,
                    0.48756638472431757,
                    -0.44400685674288426,
                    0.35027646887028785,
                    0.3115562009425633,
                    0.14090651525949863,
                    -0.39233830461544505,
                    0.08449857920250792,
                    0.3491904670158212,
                    0.46365041522815453,
                    0.4581157454604795,
                    0.9841758898371308,
                    -0.16079040511552767,
                    -0.015173394252707934,
                    -0.7175720692549802,
                    -0.4988228747843315,
                    0.6519746255467442,
                    0.08555451175171083,
                    0.2941552600316697,
                    0.8081789893373075,
                    1.1127215027739652,
                    1.3534098855130128,
                    0.22688796880134185,
                    0.32311900007082633,
                    -0.694972936635347,
                    -1.0328561000306118,
                    -0.3122405427910242,
                    -0.36886758892075344,
                    0.50763097198059,
                    -0.02060246221956087,
                    0.6186608263961881,
                    -0.019555648882037646
                ],
                [
                    0.2653638429796476,
                    0.4399493992391478,
                    0.9317600615137784,
                    0.3093284774583732,
                    -0.3419424222036723,
                    1.2083978817757803,
                    0.28932709774697185,
                    0.5485341429741244,
                    0.1319819869564917,
                    0.2534899349712824,
                    0.5115099033231703,
                    0.34197018808340884,
                    -0.5527031968386596,
                    -0.088082416027401,
                    -0.04788876993672732,
                    0.45255030079263137,
                    0.7650809923408703,
                    0.3315430873783064,
                    0.10029976285815775,
                    -0.24927474774833835,
                    0.4899222578231656,
                    0.16211022395098695,
                    0.013665819567813473,
                    0.4751784390662049,
                    0.2520561214128345,
                    -0.06651529169925544,
                    -0.013204181178232091,
                    0.5214963001750234,
                    0.2878303650409492,
                    0.06686480526015222,
                    0.06616578431506495,
                    0.1676304982794518
                ],
                [
                    0.46553596457671637,
                    0.029928154945837133,
                    -0.021119442375867936,
                    0.12823019833796287,
                    -0.4152347559001296,
                    -0.054026263161058824,
                    0.05148459024449896,
                    -1.4411567954796387,
                    0.16075682474283723,
                    -0.0594030930439282,
                    0.06874146574466956,
                    -0.7661658619224054,
                    -0.3066940345108542,
                    0.23819195825527484,
                    0.03281721296779337,
                    0.2756764428622492,
                    -0.6506645396812117,
                    1.2400230411392763,
                    0.11334193805711393,
                    -0.38961476147438884,
                    0.07026855202696901,
                    0.4841409992116805,
                    -0.2883806562827239,
                    0.12513764002465338,
                    -0.0012272276198634427,
                    -0.08905338885253272,
                    0.2613207676717832,
                    0.26936102805796547,
                    -0.3349792927379275,
                    0.5031615685284195,
                    -0.002327791977271773,
                    0.03499012905751902
                ],
                [
                    0.24727859668249555,
                    -0.06185332865537646,
                    0.7413135668939617,
                    0.2702207706095337,
                    0.20478766237362558,
                    -0.5593722394172781,
                    -0.22934141461766644,
                    0.5391471366176617,
                    -1.1128273184800306,
                    0.2401029149842518,
                    -0.1960044892713071,
                    0.6409970999010853,
                    0.13019393385284564,
                    -0.4415033314588681,
                    -0.47018648974144867,
                    -0.3616643453273035,
                    -0.004781775327335647,
                    0.004785225921893958,
                    -0.48027151523222983,
                    -1.669384573334515,
                    0.49744983380596575,
                    0.48420178047508766,
                    -0.06437967790229387,
                    0.23729848110473342,
                    -0.07331457468574673,
                    0.14404802734379807,
                    -0.42779548255889044,
                    0.1699489710308105,
                    -0.12871605798806132,
                    0.3304765976324628,
                    -0.28216293583978713,
                    -0.35301112718060845
                ],
                [
                    -0.4397381618221559,
                    0.03530474896905171,
                    0.37244453033032104,
                    0.5641933343113384,
                    -0.24436526970364253,
                    0.3498160764724216,
                    -0.02832852430303369,
                    -0.6984209394320156,
                    -0.024649949651844735,
                    0.4047316902203663,
                    0.4069963644762809,
                    0.29587131879904127,
                    -0.34872729569510363,
                    -0.9636246902993549,
                    0.5729357354517475,
                    0.5165836290232507,
                    -0.03355373149607889,
                    -0.47182964187674403,
                    -0.3707641301691779,
                    -0.32782175171642636,
                    0.43023307379550335,
                    -0.7746904114997438,
                    -0.4918302650343379,
                    0.8040377515420039,
                    -0.1890875912013587,
                    -0.5255971976451959,
                    -0.07922945253306618,
                    0.31351761199535155,
                    0.09331598151177264,
                    0.21737350575092523,
                    0.2518545852433559,
                    -0.6742752132328629
                ],
                [
                    -0.359219553718996,
                    -0.4902463643735851,
                    -0.07971446088031774,
                    0.5371652934844033,
                    0.12542029161253976,
                    0.8413377353585608,
                    1.4381220133045511,
                    0.07622791360296634,
                    -0.1266722438668182,
                    -0.4233063783619192,
                    0.2453588777678401,
                    -0.3102489709378629,
                    -0.27644653319216367,
                    -0.04674016369417007,
                    -0.09705992642800139,
                    0.3265302094164726,
                    -0.14644446695669835,
                    0.3552732947875336,
                    0.23088558196138287,
                    -0.21871604590080357,
                    -0.6305448950524414,
                    0.1558095829882044,
                    -0.2319683635074924,
                    -0.058308298655011165,
                    -0.22370948486406128,
                    0.07915664858452282,
                    -0.3914343968594417,
                    0.06396678770532746,
                    -0.017547159589532818,
                    0.11101641497161983,
                    0.19764537553672978,
                    0.35209100283241745
                ],
                [
                    0.005919917506677155,
                    -0.28333502377707825,
                    0.6085255275287963,
                    -0.4284276428245629,
                    0.05535022190674868,
                    -0.004601888254673073,
                    -0.15328514651380581,
                    -0.19181367133098337,
                    -0.0881057105022745,
                    0.2164762238612628,
                    0.7699990255821539,
                    -0.8872690912609542,
                    -0.23642492898087833,
                    -0.10549049578062933,
                    0.007611218962128796,
                    -0.6021975230084589,
                    0.4816373563178686,
                    -0.5758282258021766,
                    0.06746730142716427,
                    -0.4299716514653773,
                    0.5727167562936128,
                    0.23037378729896468,
                    0.36190690692562166,
                    0.48647334871797837,
                    0.08095184789094416,
                    0.34203079248730683,
                    0.2662040415196234,
                    0.049804519961557346,
                    -0.06633107057320202,
                    0.4131474095683976,
                    0.08962424795131269,
                    0.3810977448567317
                ],
                [
                    -0.48969471697915656,
                    -0.41212830871789446,
                    -0.16352866909864333,
                    0.48310962133634994,
                    0.0816937670011348,
                    -0.5058065966694916,
                    -0.5766064411128973,
                    0.18221953453009515,
                    -0.030138414525887995,
                    -0.20246030246558194,
                    -0.18162937475788313,
                    -0.1534875423672418,
                    0.2336438233678533,
                    0.0741462829838543,
                    0.46764484712758964,
                    -0.2261855144857624,
                    -0.008103554383700227,
                    -0.4004621042107136,
                    -0.8487277875128174,
                    -0.8583014068609183,
                    0.5201538286628302,
                    -0.5911820133338146,
                    0.2437272226353014,
                    -0.42338788608816014,
                    -0.4503433209024252,
                    1.0766372766107235,
                    -0.28040247027526566,
                    0.8532191951178064,
                    -0.4055991008793288,
                    0.8158236644634154,
                    0.3537907014502527,
                    0.3983634658495666
                ],
                [
                    -0.14416780260728318,
                    0.8261683200029968,
                    -0.444870987668513,
                    0.13203714793816324,
                    0.08180506925475811,
                    -0.2546014985834831,
                    0.48496038988393114,
                    -0.37380933053155213,
                    -0.26941925828914487,
                    0.1828616073451934,
                    0.4931043289474653,
                    0.20163028452932996,
                    -0.3945786400014081,
                    0.921076736346191,
                    -0.7059856218445537,
                    -0.5425213441886158,
                    -0.06343235486477013,
                    0.43334770724235433,
                    0.9615285036962942,
                    0.39117845056158085,
                    -0.10887635742347357,
                    -0.19931961412921553,
                    0.24910386210232888,
                    0.46346651278374734,
                    -1.0845205731903875,
                    0.2002255864353148,
                    0.3374047072550069,
                    0.002612209240191808,
                    1.0276919470305486,
                    -0.24896893218380925,
                    0.2621752646864923,
                    0.315902930258427
                ],
                [
                    0.2710664055225789,
                    0.3990950873552244,
                    -0.2549404826592205,
                    0.14817730711013638,
                    0.38111764278884086,
                    0.005401222157872129,
                    -0.15457782858220348,
                    -0.10778926014014045,
                    -0.3154651907531467,
                    0.40638534315095964,
                    0.1775156150781678,
                    0.3928941024889067,
                    0.334189401567418,
                    -1.163286769111123,
                    0.5677994024637589,
                    0.03335960854597754,
                    -0.20732916521055278,
                    -0.04496346369354899,
                    0.3705853290145369,
                    0.1094475115140414,
                    0.3893778800134924,
                    0.21641928293026735,
                    0.7480507615975892,
                    0.0738916933077807,
                    -0.06703727927155642,
                    0.3943457564814959,
                    0.5847517084275362,
                    0.1113499289360548,
                    0.43935238077674893,
                    -1.0485904649820528,
                    -0.2945981650339221,
                    0.790150696460582
                ],
                [
                    0.11088050643852364,
                    0.41231310889596917,
                    0.3348945381913978,
                    -0.26380998210252027,
                    0.8032971224854413,
                    0.05210927675166887,
                    0.02555716256900279,
                    0.1991558494791074,
                    0.09106174212621587,
                    -0.5507302097278305,
                    -0.3761258992918778,
                    0.021335591178362368,
                    0.6104403587423604,
                    0.29847043847641586,
                    0.22657940307221325,
                    -0.01000478981740735,
                    0.2961846528230047,
                    0.022801491676687657,
                    0.7135699055352129,
                    -0.5669652794784633,
                    -0.18807247587977127,
                    -0.1348538875788468,
                    0.13570874490665777,
                    0.06679489410437985,
                    -0.08402071721559967,
                    0.4006057822395377,
                    0.4668912846522423,
                    -1.114350857525967,
                    -0.597296598945807,
                    0.39535810517757447,
                    0.12546566510659898,
                    -0.2797162970117267
                ],
                [
                    -0.36308542009231115,
                    0.05391356907008962,
                    -0.38306519780817316,
                    0.08126760697023347,
                    -0.6172984327477014,
                    0.6812034479741188,
                    0.24530345577512944,
                    -0.15499546526124547,
                    -0.1384785809403687,
                    0.28772858468143175,
                    -0.865730367647472,
                    0.2606426173937387,
                    0.9514715125771424,
                    -0.16039322393459696,
                    0.5991922366471005,
                    0.09276588246343889,
                    -0.2809012607468056,
                    0.18602248924484738,
                    0.13685428960192214,
                    0.6256051717524279,
                    -0.25668327609922265,
                    -0.7268048203552973,
                    -0.5000710391528891,
                    -0.3644181855006396,
                    -0.014303540071928994,
                    0.4139407886179561,
                    0.40598752878762445,
                    -0.07489698128650844,
                    -0.7843822385571296,
                    -0.5065336053776854,
                    -0.2707879670106747,
                    0.09836279515484514
                ],
                [
                    0.6554678425004585,
                    -0.16717430266522953,
                    0.6097520779127307,
                    0.3464690883753401,
                    0.027223000595189277,
                    -0.6036598898794514,
                    -0.21115642515682112,
                    0.47189347275015703,
                    -0.30544075281743627,
                    0.17805577045156412,
                    0.0792812987262308,
                    -0.21042306950672174,
                    0.18887434319583896,
                    -1.0964485304293248,
                    -0.027913572742328176,
                    -0.11527157563012067,
                    -0.17309033562446643,
                    0.8962171066720174,
                    -0.6539196113079474,
                    0.17485274954960373,
                    0.39302644155586175,
                    -0.18986482428515603,
                    0.589542288329185,
                    0.21187458697063916,
                    0.5524493606828507,
                    0.2579256075605969,
                    -0.1727113751768242,
                    0.6453739552294145,
                    0.24348619889674575,
                    0.11403910187936656,
                    -0.43215134887002377,
                    0.5795753213713136
                ],
                [
                    -0.2749122963730369,
                    0.999371392597091,
                    -0.6648170972542631,
                    0.39432485459544003,
                    -0.376569914661234,
                    -0.11624767235676058,
                    0.010648069099251894,
                    0.08831124897132173,
                    0.7592204036565321,
                    -0.5149078078448249,
                    -0.15122134510750915,
                    -0.033228113898231576,
                    1.0818307743026956,
                    0.009005756368792098,
                    -0.1546438359595494,
                    -0.6431436432054144,
                    -0.30946613394841715,
                    -0.09729906594331136,
                    -0.5245627480494838,
                    -0.291081725194894,
                    -0.1194085792597742,
                    0.6514587380708272,
                    -0.20514757630098918,
                    -0.21156000673223735,
                    -0.5587630142586119,
                    -0.7043020175047836,
                    -0.26620308654054253,
                    0.9822523592836959,
                    -0.43351948749247915,
                    0.41929078340106785,
                    0.7222054887473013,
                    0.46472503903510487
                ],
                [
                    -0.4090830598944524,
                    0.2870184862425425,
                    1.2129112125848907,
                    -0.20224442028181044,
                    0.5423184444790674,
                    0.5293477588686701,
                    -0.3575929658967951,
                    -0.6962353059859281,
                    0.15663660130842225,
                    -0.2738564052902746,
                    0.09990661206174484,
                    0.7660137389009916,
                    -0.4845770777301081,
                    0.001382885056735672,
                    0.1587398474462071,
                    0.05599793947044385,
                    0.359886696351311,
                    -0.22577900663371447,
                    1.1848666616629586,
                    -0.735879572351946,
                    -0.013238070113262279,
                    -0.016291588684250298,
                    -0.09223653303134485,
                    0.1295828299337241,
                    0.6870248169574908,
                    0.19850108278508757,
                    -0.003481749722026424,
                    0.8783848868866786,
                    -0.044527966177018936,
                    0.7000294552118773,
                    -0.2527103665747505,
                    -0.24289865449558068
                ],
                [
                    -0.5728105167659223,
                    0.19157373004633946,
                    -0.386003341025626,
                    0.2890235739785685,
                    -0.05218045475157477,
                    -0.09994153957514912,
                    -0.29570162419645946,
                    -0.5998134006203406,
                    -0.022779818745869283,
                    -0.02379221694900968,
                    1.2431516155669684,
                    0.47493875697082105,
                    0.03728974412193346,
                    0.4261354680173148,
                    0.4452553920592812,
                    -0.6512061580725969,
                    0.29547768689214776,
                    0.2524593939556745,
                    -0.5227192295396975,
                    -0.30460802331097947,
                    -0.574428653147599,
                    -0.678736754223675,
                    0.24664156274861315,
                    -0.25414798574971376,
                    0.29587518774648286,
                    0.5875814126261509,
                    0.0567131897073006,
                    0.2659362441044323,
                    0.05773518139463933,
                    0.7694413998027861,
                    0.2340909382889041,
                    0.8123554675387249
                ],
                [
                    0.3860019461663876,
                    -0.2632460062363419,
                    -0.37187448600826656,
                    -0.08411319482523436,
                    -0.3321383399884815,
